301 20
leftidentifier -0.057298 0.451574 0.214267 0.056787 -0.468155 -0.041381 -0.322943 0.080533 0.281524 0.078689 -0.948505 0.194927 0.390961 0.281214 -0.358284 -0.770337 0.486136 0.199142 -0.024282 -0.075856
setpoint -1.203019 0.131222 0.618908 0.670796 -0.193147 -0.717200 -0.326258 0.804094 -0.123280 -0.362646 -0.042809 0.983351 -0.242840 0.072948 0.160721 0.392135 0.593262 -0.431488 -0.621430 -0.286577
air -0.954532 -0.882443 -0.579326 -0.438555 0.792972 0.859518 -0.271325 0.531963 -0.984494 0.199048 0.300024 0.994366 0.263469 -0.813816 0.148844 -0.737793 0.459606 -0.256955 0.279240 0.733562
temperature -0.005914 0.322145 -0.185386 -0.443132 -0.124899 -0.450978 1.301764 -0.804844 -0.019517 0.120907 0.465113 0.347978 -0.620111 -0.570117 -0.466246 1.200698 -0.151642 0.862043 0.976151 -0.190568
sensor -1.187164 0.043094 0.783767 0.279257 0.140670 -0.737899 -0.547006 0.522383 -0.701407 -0.566966 -0.591661 0.148580 0.156994 -0.423773 0.354657 0.122402 0.150187 -0.469756 -0.021894 0.416804
water -0.517917 -0.160778 -1.281485 -1.226604 1.138065 0.059010 -0.250640 -0.180655 -0.946972 0.173426 1.274707 -0.678810 -0.810405 0.799029 0.739158 0.095424 1.008640 -0.441678 -0.307429 0.082908
supply -0.598845 -0.330661 0.559571 0.996756 -0.047332 0.012493 -0.078559 0.210546 0.342190 -0.290860 -0.154880 -0.697877 0.478338 0.202503 -0.555561 0.007004 -0.064555 0.659017 -0.083489 0.247343
command -0.341003 1.441460 0.988385 -0.020303 -0.295526 -0.280872 -0.149927 0.637927 0.351461 0.117949 0.101358 0.173072 0.390386 -0.323416 -0.194284 -0.117599 0.731804 -0.844695 -0.328594 0.384385
fan -0.368628 -0.150325 0.044333 -0.127340 0.453471 0.269461 -0.286865 1.008451 0.154209 0.116061 -0.380526 -0.009699 0.077119 -0.529581 0.903104 -0.354103 -0.300062 -0.273471 1.645648 -0.058206
ahu -0.696270 0.146266 -0.390223 -0.444365 -0.047637 -0.094949 -0.374952 0.545979 0.070579 -0.129720 -0.030607 -0.047903 -0.124282 0.116287 -0.163470 -0.116179 0.102349 0.231246 0.905099 0.264539
status -0.318928 1.593482 0.861221 -0.251505 -0.249413 0.111367 0.221940 0.361737 -0.293879 -0.313907 0.279974 -0.051644 0.082432 -0.207679 0.095494 -0.520718 -0.043016 -0.698000 -0.964085 0.339207
discharge -0.480138 -0.279838 0.544445 1.020303 -0.088717 -0.305117 0.061689 -0.018119 0.290961 -0.352896 -0.245203 -0.913068 0.684124 0.224554 -0.777666 0.270042 0.010035 0.526255 -0.009051 0.069859
pressure 0.732325 0.167051 -0.057484 -0.016708 0.980389 0.355701 0.670686 0.562251 -0.428756 -0.738961 0.120236 0.752759 -0.996913 -0.219679 -0.924219 1.089427 -0.153343 -0.544068 0.388755 0.083104
flow 0.660397 -0.709308 -0.319759 -0.003964 0.127301 -0.048446 0.521244 -0.130020 0.043044 -0.137397 0.129709 0.112051 -0.004840 -0.304062 -0.346452 0.734063 -0.407448 0.876623 0.874049 -0.153540
networkadapter-nae -0.055538 -0.126109 -0.141462 -0.681256 -0.181821 -0.118659 -0.910585 0.093240 0.437759 0.615119 0.012174 0.212774 -0.374839 0.766642 -0.204225 -0.166913 0.013420 0.243148 -0.035476 -0.616246
vfd 0.047848 0.389571 0.391522 -0.071191 0.021493 0.448519 -0.275986 0.371469 0.516080 -0.053496 0.419174 -0.182588 -0.179177 -0.420063 0.117344 -0.002369 -0.449215 0.234920 0.324616 0.237613
building-ebu3b -0.306259 -0.041859 0.462962 -0.359569 0.032737 0.296189 -0.164031 0.482889 0.419433 -0.159110 0.424751 -0.015479 -0.670097 0.543515 0.121241 0.208446 -0.242981 0.254557 0.159542 0.047865
cooling -0.382956 -0.365269 0.339069 -0.876500 -0.496500 0.042482 0.062482 -0.202305 0.373329 0.224657 -0.300117 -0.325408 0.339630 -0.241802 -0.461599 0.087788 0.019919 0.397008 -0.263317 0.654303
networkadapter-n -0.173411 0.000245 0.519692 0.382207 -1.939210 -0.550904 0.042599 0.170761 1.019564 -0.606459 -1.188774 -0.536041 0.246588 0.855225 -0.362642 -1.763063 -0.340190 -0.168834 0.076955 -0.271700
hot -0.131771 0.039338 0.309842 -0.260770 -0.433754 -0.744509 1.372819 -0.547762 -0.063106 -0.785094 -0.668722 -0.585415 0.186007 0.063390 -0.152545 -0.368185 0.599393 -0.162125 0.103820 0.530946
vav -0.516143 0.057549 -0.186100 -0.193303 -0.583062 0.033951 -0.495905 0.008583 0.786851 0.557721 0.222904 -0.098662 0.069332 -0.018184 -0.195557 -0.377958 0.280863 0.221445 0.449065 0.008145
differential 0.218768 -0.371627 0.030844 0.098304 -0.329966 -0.524427 0.252153 0.094704 0.110973 -0.048320 0.051027 0.217224 0.484773 -0.479790 0.505529 -0.019357 0.192151 -0.150582 -0.532647 0.037480
chilled 0.380874 0.066889 -0.183914 0.202618 -0.647287 -0.478814 1.387158 -0.135942 0.132689 -0.978079 -0.256732 -0.691543 0.334968 0.365738 -0.342899 -0.506619 0.490211 -0.327274 -0.250586 0.057915
return 0.203473 -0.131787 0.398969 0.887768 0.406956 0.554323 -0.129450 0.167052 0.084152 -0.495091 0.009001 -0.920773 0.377095 0.312351 -0.757129 0.073789 -0.464088 0.660659 -0.106182 0.277738
pump 0.298314 0.569727 0.707485 0.076486 -0.213008 0.014172 0.428519 -0.118386 0.250629 0.132523 -0.228652 -0.817831 -0.070549 0.800298 0.486765 0.087449 0.221648 -0.108991 0.242104 -0.439400
alarm -0.607814 0.067603 0.607996 -0.164038 -0.393137 -0.624799 0.174708 -0.317522 -0.533099 -0.207386 -0.176046 0.087847 -0.191160 0.137920 0.248491 0.440465 0.091030 0.288488 -0.743700 0.108824
band 0.292736 0.226097 1.234401 0.002040 -0.019295 -0.259035 0.177564 0.159716 0.254258 0.396423 -0.189855 0.464277 0.375240 -1.373306 0.174236 1.749902 -0.403775 -1.066103 0.392297 -0.247839
exhaust 0.217064 0.109438 0.309286 0.995272 0.330707 0.343593 0.155623 -0.026844 -0.384755 -0.777943 0.082692 -0.886794 0.382577 0.021670 -0.664682 -0.131806 -0.674047 0.345110 -0.384227 0.451047
speed 0.974518 0.161855 0.529947 0.613455 0.847577 0.549412 0.420174 0.241094 -0.195277 0.537587 0.332926 -0.482976 0.139669 0.030732 0.276766 0.657857 -0.032053 0.295208 0.438600 -0.492161
heating -0.290305 -0.294777 -0.021426 -0.314882 -0.450950 0.014022 -0.161924 -0.491769 0.308961 0.423067 0.190369 -0.385019 0.252893 -0.234597 -0.350843 0.075797 0.194286 0.197032 -0.221906 0.392490
crac -0.511521 0.101031 0.219797 -0.455304 -0.489636 -0.094112 -0.173789 0.289989 -0.001723 -0.207652 -0.459144 0.012939 -0.411431 0.770041 -0.399272 -0.288535 -0.015067 0.168825 0.186113 -0.295007
networkadapter-vnd -0.099908 -0.124935 -0.017550 -0.361346 -0.266163 -0.094258 -0.395608 0.347678 0.499955 -0.074412 -0.297677 -0.187761 -0.391466 0.844820 -0.222910 -0.005718 -0.007648 0.181826 0.460237 -0.388232
system 0.327391 0.778710 0.136467 0.072250 0.023579 -0.006981 0.888698 -0.755185 -0.110139 0.123034 0.282762 -0.485953 -0.184135 -0.391836 -0.032301 0.128882 0.003294 -0.140103 0.309814 0.189852
static 0.172453 -0.932636 -0.167996 0.067075 -0.513572 -0.825005 0.394587 -0.125970 0.560853 0.161963 0.262168 -0.121325 0.347098 -0.714042 0.676356 0.310637 0.155430 -0.048945 -0.051383 0.124598
reset 0.056816 -0.385409 0.071648 -0.165147 -0.004743 0.169860 0.156559 -0.160658 -0.231505 0.017251 0.333438 0.047862 -0.087597 0.068773 -0.366325 0.529103 -0.409403 0.125869 -0.109573 -0.356150
valve -0.147588 0.358696 0.041288 0.320290 0.136679 0.346184 -0.352310 -0.156918 0.443304 0.644410 0.301457 -0.482576 0.439954 -0.209459 -0.045851 -0.215943 0.151719 0.254874 0.214590 0.120118
off -0.052595 0.430256 -0.041939 -0.088588 -0.096518 0.324423 0.256138 0.362680 -0.342809 0.099826 0.079011 -0.045520 -0.149551 -0.477779 -0.630234 -1.164059 -0.418554 -0.866366 0.712129 -0.301170
enable 0.337671 0.301203 -0.075810 -0.054120 0.384549 0.265724 0.206098 0.085279 -0.252544 0.271027 0.323208 -0.288780 -0.134598 0.080277 0.001935 -0.484086 0.010558 -0.473924 0.512879 -0.225343
high -0.661527 -0.544607 -0.055473 -0.194771 -0.349329 -0.914726 -0.450772 -0.331179 -0.538878 -0.028125 -0.385126 0.213947 0.000781 0.535875 -0.092882 0.308726 0.400669 -0.377021 -0.358510 -0.472879
room -0.307833 -0.421288 0.115425 -0.525266 -1.085689 -0.224064 -0.403504 0.492758 0.863383 -0.149532 -0.517713 -0.074051 -0.153746 0.545304 -0.468546 -0.629210 -0.203591 -0.062319 0.419763 -0.226933
outside -0.208334 -0.640431 0.476058 0.780966 -0.228092 -0.412535 0.169560 -0.270915 0.041008 -0.747498 -0.258497 -0.538437 0.157268 0.145306 -0.894816 0.404008 -0.570181 0.257432 0.090662 0.138253
time 0.712325 -0.258021 0.676397 -0.210375 0.520004 -0.535551 0.640863 0.203263 -0.288403 0.326957 -0.580427 0.731522 -0.009108 -0.047584 0.601318 0.703689 0.337909 0.158458 0.335111 -0.412697
proportional -0.147815 -0.589172 -0.128098 -0.378178 -0.375127 -0.498505 -0.418731 0.455459 0.075908 -0.593421 -0.534043 0.795608 -0.291363 0.258826 -0.090597 0.013515 -0.167839 -0.144462 -0.597658 -0.019145
start 0.056260 0.655484 0.006336 0.117846 0.332065 0.402168 0.172711 0.242202 -0.164900 0.079742 0.744570 -0.801905 0.063219 0.094071 -0.093365 0.051374 -0.310034 -0.925908 0.553073 -0.305367
stop -0.085888 0.858962 -0.034042 0.016181 0.005380 0.210135 -0.547834 -0.131633 -0.228724 0.293569 0.051973 -1.124869 0.297182 0.397854 -0.444290 -0.484820 0.027453 -1.087344 0.752993 -0.371780
zone -0.808856 -0.415912 0.018503 0.235522 -0.163702 -0.055169 -0.296689 -0.086061 -0.091064 -0.096532 0.025662 -0.234675 0.211111 0.095121 -0.089177 0.009081 0.140304 0.145338 -0.205366 0.348977
heat -0.140721 -0.063431 0.068694 0.615627 0.647365 -0.132400 0.671981 0.185241 -0.371445 0.151782 0.245162 -0.415369 0.612576 -0.231529 0.858837 -1.027894 0.949424 -0.477728 -0.192752 0.410963
economizer -0.374677 0.229556 0.118887 0.297551 0.213953 0.112672 -0.052792 0.118322 -0.458047 -0.289408 0.315029 -0.263669 -0.194949 -0.009200 -0.013776 -0.246716 -0.204423 -0.511371 -0.051031 0.251700
unknown 0.201339 0.008059 0.183726 -0.336656 -0.446698 0.139857 -0.294559 0.350357 0.626259 0.165765 -0.170981 -0.017871 -0.124006 0.335390 -0.241699 -0.334706 -0.310863 -0.005541 0.345911 -0.305331
on -0.051339 0.906870 0.226294 0.241226 0.248711 0.623705 0.396379 -0.062829 -0.534408 0.037093 0.347782 -0.122387 -0.388045 -0.379245 0.063741 -0.112430 -0.338166 -0.240885 0.319318 -0.048491
load -0.249691 -0.614661 0.732366 0.073886 -0.106261 0.328141 0.662794 -0.143658 0.278929 -0.020935 0.318701 0.163202 0.838375 -0.756292 -0.429376 0.471651 0.057000 0.537541 -1.001881 0.460786
damper -0.201603 -0.211532 -0.222938 0.343893 0.199104 0.338211 -0.018637 -0.528632 -0.069133 -0.027780 0.744059 0.061847 -0.271815 -0.350402 -0.321403 -0.063363 -0.555583 0.193091 -0.337909 0.239608
dead -0.239742 -0.549415 -0.111464 -0.585516 -0.416075 -0.601648 -0.523851 0.442879 0.149751 -0.427337 -0.489056 0.845195 -0.323965 0.260820 -0.224155 0.092814 -0.026036 -0.305100 -0.469077 -0.077351
occupied -0.465752 -0.126908 -0.162545 0.297649 0.101291 0.495549 -0.432297 -0.039228 0.384902 0.698384 0.239522 -0.039178 0.506714 -0.347479 0.054400 0.093172 0.263777 0.679335 -0.065013 0.270265
hws -0.005179 0.403440 -0.228302 -0.092920 0.381461 -0.090280 0.004077 -0.349570 -0.257568 0.384071 -0.148729 -0.378283 0.130804 0.132060 -0.050974 0.117988 0.339510 -0.098949 0.564298 -0.144129
shed 0.541397 0.402752 -0.180394 -0.767427 -0.113668 0.038212 0.103656 0.485209 -0.172747 -0.039033 0.477724 0.141325 -0.587756 -0.008194 -1.048664 -0.427824 -0.490240 -1.094109 0.354097 -0.738565
low -0.304812 -0.440705 -0.039606 -0.115970 -0.042827 -0.405385 -0.446608 -0.218008 -0.367753 0.078979 -0.232318 0.340337 0.029628 0.193449 -0.098006 0.372565 0.070758 -0.172022 -0.258959 -0.275301
min -0.264582 -0.060732 -0.102212 -0.041740 0.097992 0.120153 -0.092245 0.111124 0.118049 0.254842 0.184770 0.192243 0.133004 -0.586517 0.004417 0.015673 0.153980 0.057010 0.051725 0.355515
max -0.411703 0.064424 -0.090921 0.057598 0.043111 0.215727 -0.263656 0.124740 0.095730 0.289366 0.099784 0.197478 0.172341 -0.432722 -0.139854 -0.063127 0.122605 -0.013446 0.127423 0.129738
integral -0.142454 -0.484006 -0.093854 -0.218907 0.113219 -0.181908 -0.407714 0.128893 -0.210436 -0.560162 0.228355 0.654154 -0.174110 -0.226753 -0.027665 0.820477 -0.169374 -0.191769 -0.993811 0.567470
networkadapter-t -0.202791 -0.316776 0.117001 0.074752 -0.757885 -0.383939 0.075403 0.329712 0.596813 -0.079427 -0.481125 -0.251043 0.246890 0.561691 0.083356 -1.174027 0.321199 -0.131422 0.225542 -0.290233
humidity 0.429297 0.115143 0.019559 -0.213084 -0.129630 -0.031014 0.716611 -0.156702 0.049776 0.044133 0.177781 0.367347 -0.619980 -0.099756 0.133549 0.236223 -0.191524 0.520683 0.504441 -0.221671
exchanger -0.686753 0.111965 -0.057540 -0.439449 -0.404406 -0.513301 0.064078 0.015038 0.099889 0.368365 -0.479299 -0.771635 0.334349 0.090295 -0.179807 -0.159141 0.473074 -0.830130 1.266724 -0.144279
power -0.193194 0.917357 0.038751 -0.110952 -0.069699 0.158258 0.179519 0.186289 -0.735483 -0.229197 -0.016557 0.266412 -0.609667 0.366748 0.423152 -0.911180 0.109353 -0.386341 -0.214482 -0.135045
average -0.696949 -0.098689 0.150099 -0.421266 -0.461187 -0.386777 -0.260543 0.647794 0.493707 0.427281 -0.631816 0.522992 0.183963 0.086362 0.109440 -0.231929 0.423693 0.081463 0.305590 -0.176735
fcu -0.547764 -0.056156 -0.204714 -0.061196 0.105498 0.026711 -0.439032 0.190669 -0.030165 0.162808 0.055655 -0.408858 0.131720 0.180742 0.011602 0.073765 0.118778 -0.237844 0.513778 -0.077281
medium -0.538970 -0.849238 -0.111519 0.378898 -0.305781 -0.604533 -0.217497 -0.397054 -0.020739 -0.078485 0.304154 -0.754450 0.292715 0.701988 -0.245730 -0.322439 0.152782 -0.132668 -0.613686 -0.375211
run 0.093474 0.414751 0.311840 -0.002164 0.301511 0.568597 -0.378187 0.407318 0.067883 -0.089567 0.421264 0.006340 -0.344119 0.069969 0.125037 -0.008607 -0.348033 -0.012138 -0.095681 0.355346
cws 0.045408 0.255705 -0.182550 -0.158910 0.129427 0.123334 0.127452 -0.139193 -0.347118 -0.180894 0.215457 -0.048076 -0.333461 0.433854 0.213771 0.010332 -0.016682 0.065690 -0.419322 0.044525
position 0.530362 0.064371 0.107804 -0.255484 -0.335635 0.196227 0.166257 0.164179 0.229113 -0.053954 0.269642 0.693663 -0.206473 -0.273739 -0.518926 -0.777400 -0.354538 0.043661 -0.214257 -0.058599
meter -0.003695 0.156673 0.373892 0.328403 0.221717 -0.074496 0.448312 -0.046728 -0.286710 -0.051896 -0.286307 0.216826 0.236959 -0.584637 -0.038658 -0.081508 0.285561 -0.066534 0.003032 0.177174
current 0.244137 0.171600 0.250215 0.095265 0.051573 0.264558 0.077329 0.042184 0.049151 -0.093067 0.271634 0.239136 -0.446839 0.121275 0.161602 -0.100013 -0.384391 0.397394 -0.263305 -0.005862
limit 0.022655 -0.004764 0.013393 -0.256185 -0.222089 -0.166557 0.109821 -0.262144 -0.205747 -0.187482 0.034620 0.398256 -0.446240 0.196213 -0.083806 0.308298 -0.230779 0.290490 -0.320963 -0.115439
rightidentifier -0.495648 0.316152 0.102690 -0.458051 -0.140461 0.061266 -0.480477 0.063686 -0.263016 0.053965 -0.723995 0.296823 -0.118889 0.641923 0.427402 -0.166685 0.297232 0.562799 -0.931064 0.268848
direction 0.495623 0.434571 0.066103 -0.062491 0.247287 0.420353 -0.175250 -0.107746 0.150142 0.516211 -0.122162 -0.289739 0.095004 0.040717 -0.304045 -0.188744 -0.164450 0.091754 0.855596 -0.245885
co2 0.416427 -0.148612 -0.064243 0.167795 0.074427 0.096943 0.446179 -0.228815 0.126537 -0.040245 0.217977 0.005381 -0.191545 -0.138135 -0.043896 0.334347 -0.233175 0.504938 0.302089 -0.045641
filter -0.074470 -0.040679 -0.043227 0.013695 -0.053358 -0.041170 -0.112611 0.145471 -0.003122 0.287935 -0.189284 0.267688 0.103482 -0.050077 -0.021053 -0.228612 0.267995 -0.068614 0.295789 -0.228830
emergency 0.357546 0.291978 0.122810 -0.072463 -0.030785 0.117457 0.230377 -0.365010 -0.339097 -0.017863 -0.304119 0.034912 0.078567 -0.351790 -0.206068 -0.133837 -0.041401 -0.177608 -0.296666 0.166519
demand 0.229372 0.016912 0.110291 0.157575 0.378872 0.147997 0.202463 -0.152971 -0.016001 0.294802 -0.058933 0.450192 0.163535 -0.604377 0.051208 0.560362 0.087080 0.580351 0.026753 0.247483
panel -0.104609 0.692590 0.135881 -0.288708 0.208110 0.256481 -0.211326 -0.229492 -0.213747 0.068438 -0.079997 -0.418735 -0.114094 0.058152 -0.310497 0.314446 -0.397745 0.198712 0.394300 0.065970
mode 0.038718 0.073915 -0.149235 -0.183253 -0.077128 0.303176 0.202685 -0.183401 0.017499 0.186652 0.415894 -0.465029 0.026592 -0.173627 -0.299424 -0.394970 -0.192456 -0.278646 0.257827 0.023474
floor -0.532933 0.193757 -0.329926 -0.771980 0.314009 0.200257 -0.752021 -0.034181 -0.096866 0.246573 -0.350924 0.413650 -0.094408 -0.044278 -0.324563 0.639577 0.043458 0.893552 -0.032771 0.419032
disable -0.048734 0.151562 -0.175786 -0.164942 0.042997 0.182919 -0.134428 0.110463 -0.081865 0.030738 0.260425 0.032578 -0.212271 0.057263 -0.222826 -0.065995 -0.191681 -0.220664 0.190974 -0.069506
motor -0.066279 0.282554 0.351568 0.111445 0.145843 0.073518 0.010133 0.267053 -0.053818 0.126832 0.036918 0.026954 -0.009326 -0.167887 0.309041 -0.091999 0.149743 -0.182893 0.303510 -0.060544
enthalpy 0.302812 0.133502 0.031986 -0.146700 0.156318 0.078654 0.289216 0.114524 -0.010322 -0.023891 0.179110 0.463880 -0.392828 -0.334531 0.137538 0.329803 -0.151136 0.058760 0.264172 0.111191
control 0.043269 0.483728 -0.073585 -0.495953 -0.047326 0.341146 -0.132141 0.379605 -0.002977 -0.241196 0.318537 0.151297 -0.696611 0.323919 -0.048333 -0.281568 -0.567762 0.191873 0.201093 -0.025609
coil -0.391561 -0.098637 -0.075710 -0.083722 -0.093299 -0.207664 -0.281269 0.102900 0.233714 0.266183 0.112424 0.033307 0.272833 -0.241035 -0.098513 0.170338 0.228218 -0.095145 0.059059 0.083960
preheat -0.146875 0.003154 -0.021204 0.003341 0.081078 -0.061788 -0.240155 -0.016926 0.002885 0.103495 -0.089863 -0.093800 0.165685 -0.023300 -0.190454 0.161043 0.084092 -0.036976 0.068504 0.075399
networkadapter-dx -0.222715 -0.122656 -0.178798 -0.333585 -0.334123 -0.075090 -0.413603 0.094752 0.343772 -0.030243 -0.168837 -0.278243 -0.208242 0.651016 -0.327812 -0.192732 -0.200054 -0.091814 0.393022 -0.264499
standby 0.105695 0.233340 0.225070 0.268939 -0.137612 0.247658 0.258037 0.267076 0.029059 -0.347841 0.028809 -0.231197 0.063232 0.002160 -0.352919 -0.420637 -0.211271 -0.042692 -0.173334 0.055274
fault 0.065453 0.227916 0.049109 0.002546 0.121077 0.329560 0.066235 -0.084414 -0.165467 0.122044 0.059315 -0.264521 -0.038608 -0.067969 -0.225069 -0.162874 -0.185294 -0.207056 0.318585 -0.047935
unoccupied -0.153600 -0.066754 -0.064532 -0.069286 -0.051852 0.084349 -0.166129 0.012891 0.218672 0.364212 0.147157 -0.005480 0.162055 -0.198423 -0.178243 0.113886 0.018655 0.109546 0.170326 -0.032688
demandresponse -0.030697 0.146259 -0.091630 -0.156104 0.077085 0.011437 0.023855 -0.046090 -0.076310 -0.023282 0.004249 -0.202102 -0.017000 0.098128 -0.224207 0.034109 -0.036679 -0.071875 0.212605 -0.038943
domestic 0.303061 0.110889 -0.323243 -0.274434 0.356959 0.016280 -0.136726 -0.293937 -0.160481 0.370364 -0.013025 0.319462 0.004201 -0.049316 0.167836 0.270665 0.263777 0.143821 -0.156060 -0.063473
steam -0.136707 0.282418 0.028201 -0.018087 0.293831 -0.002899 0.137829 -0.189145 -0.288745 -0.014761 0.241292 -0.109236 -0.198228 -0.039731 0.160099 0.058124 0.096962 -0.005193 -0.066773 0.128861
fire 0.160683 0.212155 0.070127 -0.197832 0.151754 0.122554 0.151684 0.087435 0.011896 -0.242549 -0.011679 -0.052701 -0.151140 -0.214513 -0.451884 -0.031753 -0.309117 0.072655 0.377035 0.205612
request 0.335333 -0.053431 0.048106 0.304803 0.286457 0.379719 0.069216 -0.323448 0.185549 0.271144 0.162701 0.072026 0.163590 -0.513466 -0.227414 0.358605 -0.253523 0.598622 0.098002 0.169012
output 0.133193 0.106293 0.427783 0.091477 -0.062292 0.087352 0.233911 0.165584 0.290402 0.126407 0.115316 0.339967 -0.183394 -0.526449 0.411789 0.094907 -0.095245 0.252146 0.108062 0.091714
gain -0.086692 0.105307 0.249261 -0.019736 -0.089623 0.149007 -0.159133 0.148543 0.134659 -0.153476 0.058878 -0.102357 -0.106702 0.096251 -0.238588 0.082203 -0.394321 -0.066162 -0.047422 0.011781
occupancy 0.178096 0.030869 -0.180221 0.043968 0.085008 0.463708 -0.049375 -0.201811 0.073339 0.241276 0.126008 -0.365985 0.077383 -0.077150 -0.297605 -0.238614 -0.234938 0.112494 0.502869 0.004796
solar -0.084823 0.241447 0.165141 -0.192208 -0.333836 -0.012367 0.149275 0.094087 -0.033710 -0.206258 0.075996 0.218607 -0.193091 -0.112285 0.009844 -0.481898 -0.145603 -0.211056 -0.178407 0.080572
hvac -0.165956 0.002601 -0.040225 -0.097058 -0.001196 -0.100993 0.046384 -0.113187 -0.047134 0.097202 -0.126072 -0.175762 0.029652 -0.044771 -0.113417 0.083466 0.093133 -0.103709 0.446772 -0.068714
loss 0.190620 0.115562 0.033911 -0.253041 -0.068499 -0.304806 0.428147 -0.009313 -0.295773 -0.267586 -0.220502 0.176114 -0.243378 -0.012616 -0.104427 0.075363 0.080812 -0.279950 0.099934 -0.050771
unit 0.110113 0.251820 0.063765 -0.002804 0.094971 0.212091 0.150123 0.011495 -0.152734 -0.090140 0.043305 -0.071776 -0.083030 -0.075779 -0.141713 -0.272441 -0.166224 -0.075081 0.037895 -0.001431
bypass -0.192204 -0.101943 -0.015357 -0.118861 -0.058997 0.080014 -0.047476 0.332742 0.132150 -0.105724 0.288154 0.430845 -0.222838 -0.249582 -0.111478 -0.230314 -0.137701 -0.171875 -0.026734 0.091710
frequency 0.034238 0.073287 0.110635 -0.127057 0.054544 0.301051 -0.281628 0.088719 0.222931 0.248484 0.089551 0.152237 -0.149586 0.105395 0.226256 0.083092 -0.102426 0.373186 -0.196037 0.025299
building-apm -0.007878 -0.021541 0.080620 -0.020409 -0.042764 -0.007873 -0.016837 0.061279 0.076504 0.009571 -0.113551 0.138864 0.014604 -0.104116 0.002906 0.052212 -0.027141 0.073756 0.032393 0.010912
fixed 0.022794 0.077760 0.128171 -0.003927 0.001206 -0.154688 0.206637 0.043003 -0.344533 -0.220126 -0.178585 0.238762 -0.024370 -0.071762 0.063357 -0.180904 0.003634 -0.190940 -0.107944 0.082712
booster -0.034055 -0.052457 0.027735 0.568135 0.023276 0.377100 -0.241631 -0.114972 -0.016765 -0.388113 0.120539 -0.685776 0.313563 0.384292 -0.357429 -0.015334 -0.291592 0.460787 -0.704533 0.298568
energy 0.018953 0.084360 0.013561 0.217710 0.375584 -0.031520 0.317938 -0.100238 -0.381993 -0.094059 0.134230 0.028553 -0.102441 -0.078993 0.264913 -0.021300 0.203479 -0.253171 -0.144434 0.039698
increase -0.055241 -0.103122 0.157133 0.059012 -0.152558 -0.398936 0.250000 0.045015 0.189196 0.095373 0.164376 0.490209 -0.177080 -0.379574 0.174269 0.368731 0.268461 0.009628 -0.013505 0.042242
decrease 0.021584 -0.041544 0.214911 0.066014 -0.012654 -0.351401 0.355391 0.088523 0.167077 0.169137 0.206318 0.566901 -0.167999 -0.536649 0.290109 0.404165 0.338201 0.126677 0.064460 0.031345
step 0.136307 -0.080955 0.187849 0.078035 -0.042728 -0.261817 0.329565 -0.003577 0.170775 0.197229 0.161633 0.542465 -0.115589 -0.515473 0.232702 0.447326 0.190317 0.153742 0.009770 0.036949
effective 0.183114 -0.273754 -0.174859 -0.015018 0.177485 0.171285 -0.255983 -0.215475 0.178295 0.391022 0.092028 0.270387 0.077556 -0.284099 -0.153359 0.519313 -0.135976 0.503230 0.087636 -0.049259
overridden -0.058223 0.133964 -0.051244 -0.055850 0.047717 0.246680 -0.157033 0.260776 -0.011707 -0.090121 0.319620 -0.208632 -0.276771 0.158932 -0.186350 0.009558 -0.346893 -0.267036 0.177646 -0.142430
wheel -0.417646 -0.053132 -0.041048 0.050612 -0.129736 0.034737 -0.049534 0.144952 0.236474 0.184491 0.227019 -0.523557 0.038480 -0.130546 -0.139186 -0.148202 -0.177291 -0.325660 0.903312 -0.063133
lead 0.066849 0.194506 -0.230366 -0.283055 0.109626 -0.012381 -0.012444 0.168139 -0.218407 0.063347 -0.094024 0.046849 -0.142054 0.255765 0.157529 -0.541739 0.310495 -0.407902 0.136552 -0.209172
led -0.031363 0.098574 -0.061809 -0.080778 0.028054 0.237611 0.004922 0.110265 -0.053582 -0.058343 0.284636 -0.217167 -0.223062 0.075047 -0.205688 -0.075820 -0.284733 -0.227174 0.216733 -0.118932
voltage 0.144911 0.106093 0.140581 0.111153 0.008578 0.172454 0.268465 -0.031853 0.137583 0.090204 0.341033 0.154989 -0.139350 -0.374132 0.290462 -0.157345 -0.079309 0.178199 0.036271 0.085001
tolerance -0.127439 -0.288084 0.129426 0.137213 -0.006650 -0.236924 -0.120265 -0.159645 -0.143256 -0.038187 -0.352800 -0.071473 0.157583 0.165413 -0.045709 0.102903 0.102816 0.019492 -0.052319 -0.088194
level 0.134074 0.019175 0.182821 0.287035 -0.196143 -0.079349 0.454123 -0.051434 0.170248 0.011710 -0.049124 -0.088975 0.126164 -0.327052 0.118629 -0.113958 0.064872 -0.019735 0.325705 -0.006440
torque 0.231979 -0.002020 0.138324 0.122331 0.025480 -0.059052 0.416351 0.193022 0.059485 -0.146878 0.006117 -0.029498 -0.029983 0.004270 0.134720 -0.306149 0.115744 -0.089574 0.186901 -0.038298
dewpoint 0.140181 -0.030489 0.096172 0.028782 -0.046239 -0.040856 0.290580 -0.002413 0.123369 0.050411 0.219291 0.158627 -0.161636 -0.281772 0.024449 0.115458 -0.122447 0.153467 0.296568 -0.019526
mixed -0.368119 -0.465427 0.078831 0.327389 -0.182594 -0.119122 -0.185098 0.019897 0.175176 -0.372318 0.208510 -0.424688 0.015416 0.198919 -0.390544 0.166538 -0.399711 0.064245 -0.029737 0.076266
thermal -0.025674 0.173467 0.123038 0.125449 0.076849 0.102481 -0.077868 0.103337 0.133988 0.214228 0.031629 0.194408 -0.038855 -0.399750 0.138206 0.140036 0.038972 0.074171 0.198886 -0.010445
velocity -0.104490 -0.349226 0.085721 0.015517 -0.384816 -0.317177 0.124621 0.183004 0.371075 -0.026481 0.239533 0.074290 0.050893 -0.263086 0.135400 -0.000038 0.001984 -0.073137 -0.038492 0.006918
stack -0.290484 -0.240624 0.130200 0.007564 -0.271256 -0.123205 -0.012321 0.395045 0.213754 -0.133342 -0.050005 0.187400 0.004695 -0.091768 0.039149 -0.260875 -0.006732 -0.081434 0.028383 0.024417
lag 0.061820 0.360606 -0.135103 -0.104001 -0.085248 0.129216 -0.062261 -0.030179 0.013694 0.192418 0.095842 -0.210696 -0.029360 0.039486 0.027109 -0.475250 -0.063685 -0.402504 0.325251 -0.183942
wind -0.000739 0.107168 0.323864 0.012953 -0.282696 -0.023099 0.060300 0.256322 0.373001 0.088703 0.056909 0.155981 -0.011677 -0.322322 0.233826 -0.220261 0.079881 0.016542 0.018405 0.059140
adjust 0.242949 0.268769 0.035288 0.035484 0.190877 0.248531 -0.006254 0.029533 -0.111292 -0.067665 -0.003377 0.326240 -0.003740 -0.225615 0.107598 -0.048376 0.008379 0.202036 -0.060103 0.319814
weather 0.136370 -0.018413 0.017833 0.118655 0.192257 0.147764 0.123240 -0.054889 -0.046352 0.020833 0.163258 0.186708 -0.076408 -0.278582 0.052355 0.135539 -0.067363 0.126461 -0.038370 0.118877
usage -0.153711 0.220380 0.005713 0.100708 0.105897 0.061224 0.074657 -0.201777 -0.220843 -0.146906 0.347280 -0.118992 -0.317861 0.119479 0.205977 -0.011846 -0.083138 0.139451 -0.387049 0.155183
luminance 0.070284 -0.062189 -0.112218 -0.143817 0.010070 -0.048979 0.178388 -0.028192 0.006161 0.111814 0.209802 0.077498 -0.017909 -0.062732 0.275748 -0.164681 0.205759 -0.030478 -0.042458 0.027585
piezoelectric 0.203653 -0.017216 -0.058569 0.139693 0.179235 0.271634 0.089593 -0.008487 0.066150 0.029902 0.331180 -0.060345 -0.015367 -0.169100 0.029606 0.063333 -0.128682 0.261601 -0.066432 0.135267
box -0.139764 -0.061317 -0.163730 0.010387 -0.113711 0.038483 -0.103905 -0.183271 0.023017 0.010399 0.273926 -0.306626 -0.001977 0.202654 -0.088298 -0.183529 -0.082976 -0.041677 -0.255066 0.021375
chiller 0.026656 0.117394 0.044044 -0.174307 -0.060480 0.023461 0.017591 0.121961 0.001127 -0.020002 0.086097 -0.010711 -0.093007 -0.001023 -0.089362 -0.059451 -0.117418 -0.205473 0.127437 -0.059212
shutdown 0.219626 0.071890 -0.109317 0.045668 0.143635 0.106389 0.172766 -0.238512 -0.127858 0.178726 0.066544 -0.138883 0.037715 -0.014989 0.012502 -0.154242 0.068211 -0.070869 0.156478 -0.090748
detected -0.028924 0.288981 -0.281998 -0.390972 -0.118904 -0.091408 0.065079 -0.003475 -0.246307 -0.165117 0.122515 0.053985 -0.550683 0.524094 -0.029087 -0.080953 -0.050601 -0.073802 0.104257 -0.260314
reheat -0.152654 0.240451 0.104219 -0.132098 -0.021878 -0.005048 -0.261367 0.056054 0.069498 0.081822 -0.149340 0.075904 0.109276 0.003911 -0.048725 0.032122 0.269422 -0.050430 -0.244910 0.193410
networkadapter-trunk 0.131049 0.216871 -0.029503 -0.008727 0.068047 0.151891 -0.177550 -0.092923 -0.095058 0.102258 -0.196826 -0.008600 0.078508 0.079027 0.001326 -0.145379 0.056000 0.134389 -0.112129 0.002929
auto -0.201958 -0.042344 -0.114503 -0.099272 -0.065292 0.101391 -0.000552 -0.045487 -0.057219 0.142577 0.221212 -0.284229 -0.099153 0.029446 -0.121856 -0.294235 -0.075221 -0.371893 0.433114 -0.223981
factor 0.014726 0.230447 0.006661 -0.099245 0.091747 0.156780 -0.161301 -0.007932 -0.100440 0.037674 -0.029674 0.005188 -0.067483 0.115655 0.052410 0.061153 -0.082807 -0.012861 -0.174382 0.039050
storage -0.029964 0.030105 0.220295 0.202400 0.037978 -0.133558 0.191603 0.237479 0.038219 0.185923 -0.187338 0.199399 0.072214 -0.367583 0.422230 -0.112885 0.308575 -0.145186 0.401527 -0.092754
smoke 0.085361 0.156953 -0.022628 -0.239237 0.025531 -0.154167 0.144919 -0.152320 -0.122076 0.014847 -0.080410 -0.117718 -0.089512 0.061750 -0.125157 0.083681 -0.004287 -0.032908 0.363989 -0.084371
humidifier 0.003621 0.132250 -0.067754 0.041729 -0.120516 0.016375 0.152102 0.001456 -0.036361 -0.112592 0.014841 -0.062200 -0.000236 0.032864 -0.020836 -0.303672 0.013827 -0.082430 -0.015764 -0.012919
overload 0.057537 0.079897 -0.083493 0.044632 -0.072435 -0.021985 0.031883 0.004385 0.014026 -0.136101 0.035440 -0.091480 -0.082585 0.156155 -0.041281 -0.141437 -0.044969 0.002505 -0.138879 0.048206
warm 0.173203 0.256874 -0.027932 -0.104923 0.193260 0.235096 -0.123204 -0.093614 -0.109607 0.009140 0.024889 0.003808 -0.040053 0.017044 -0.023767 -0.035134 -0.030712 0.258133 -0.066239 0.209449
cool 0.266830 0.355259 -0.049941 -0.178971 0.294021 0.271244 -0.041735 -0.110394 -0.130123 0.022425 0.012244 0.055107 -0.062120 -0.115418 -0.051359 0.040056 -0.026356 0.245797 0.060154 0.226690
compressor -0.000874 0.034344 0.067363 -0.103923 -0.132081 -0.119352 0.084826 0.052405 0.027628 -0.125246 -0.091427 0.060664 -0.142821 0.157872 0.045501 -0.102317 0.039343 -0.057350 0.031114 -0.044403
lockout -0.123791 -0.135611 -0.059505 -0.041539 0.028809 0.043417 -0.197203 0.082598 -0.021778 -0.127381 0.187981 -0.171065 -0.146095 0.190723 -0.213828 0.134304 -0.286234 -0.165725 0.093463 -0.047591
highest -0.302475 -0.120241 -0.083525 -0.072196 -0.101003 -0.039164 -0.097394 0.006136 0.108376 0.212156 -0.029006 -0.158076 0.106185 -0.085719 -0.147227 0.069897 0.001979 -0.153068 0.496959 -0.099900
delay 0.200220 0.021503 -0.133429 -0.339765 -0.115653 -0.144718 0.035700 -0.027618 0.022888 0.043690 -0.013751 0.175404 -0.307670 0.195347 -0.097998 0.139592 -0.082637 -0.068703 0.225395 -0.288169
building 0.013943 -0.092298 -0.023409 0.068937 0.154113 0.045485 0.069090 0.028988 -0.001522 0.006794 0.072096 0.117328 0.053707 -0.255109 0.095173 0.028153 0.083194 0.132294 -0.025065 0.193475
dhws 0.091044 0.056390 -0.137215 0.116998 0.204876 0.091531 0.015840 -0.286555 -0.182927 0.076262 0.114759 -0.177034 0.040160 -0.056452 -0.042652 0.081026 0.012609 0.054118 -0.167308 0.065564
building-bsbm -0.095158 0.164416 0.175953 -0.071750 -0.188920 -0.052755 0.021760 0.057421 -0.053066 -0.034643 -0.195869 -0.014904 0.078711 -0.013748 0.009276 -0.161778 0.130254 -0.135277 -0.196055 0.091072
server -0.012756 0.139071 -0.035213 -0.089885 0.077785 0.147628 -0.265702 -0.145579 -0.143836 -0.071337 -0.063179 0.086658 -0.121347 0.273156 0.072751 0.090263 -0.029723 0.297657 -0.521512 0.159324
entering -0.104761 -0.244299 0.058225 0.100730 -0.080958 -0.155493 0.064443 -0.066645 -0.016166 -0.212043 -0.090229 -0.098305 0.005754 0.045274 -0.239289 0.133099 -0.150144 0.064074 0.174879 -0.015421
fume -0.067806 -0.035291 0.003624 -0.139387 -0.240617 -0.074607 0.079379 -0.076026 0.079487 0.032643 0.013137 -0.039878 0.045866 -0.051940 0.098243 -0.207797 0.120873 0.006425 -0.080931 0.079722
hood -0.126212 -0.094529 0.001102 -0.147219 -0.293086 -0.138333 0.073318 -0.022075 0.103360 -0.024887 0.047361 -0.010236 0.034230 -0.011347 0.035899 -0.247472 0.060668 0.016374 -0.080635 0.061421
deionised 0.314406 0.049302 0.205635 0.414362 -0.177729 -0.299517 0.806227 -0.149271 0.013985 -0.135393 -0.120576 -0.062255 0.156423 -0.105053 0.236663 -0.175491 0.200871 0.078587 0.053200 -0.052469
lighting 0.061515 0.055239 -0.078509 0.020384 0.167242 -0.082803 0.139685 -0.068240 -0.195133 0.072054 -0.047731 -0.103537 0.113710 -0.015290 0.074423 -0.065444 0.165007 -0.153411 0.209460 -0.053320
angle 0.048845 0.107916 0.079376 -0.009474 0.033741 0.156945 0.073384 -0.001178 0.094037 0.122397 0.196040 0.078689 -0.109496 -0.188757 0.049404 -0.000358 -0.132534 0.041867 0.126841 0.034351
drive -0.104957 0.042113 0.113569 -0.138191 0.013088 0.058690 -0.107571 0.077254 -0.037168 0.108701 -0.105332 0.039225 -0.044815 0.082530 0.095997 -0.047069 0.027544 -0.023235 0.087242 -0.048742
maintenance -0.001458 0.095408 0.066721 -0.133336 0.024169 0.011656 -0.141988 0.099889 0.054465 0.032239 -0.082168 0.110814 -0.020697 0.047097 0.151367 -0.069046 0.055041 0.052436 -0.113177 0.024454
capacity 0.087577 0.026987 0.165997 0.120555 -0.119404 -0.065877 0.301995 -0.006404 0.067821 -0.083474 -0.030086 0.037292 0.011687 -0.160870 0.094914 -0.149623 -0.001245 -0.013557 0.128993 -0.003111
change -0.131441 -0.003062 -0.042525 -0.143245 -0.211405 -0.130002 0.044723 0.205499 -0.017256 -0.113234 -0.117467 0.137449 -0.072668 0.094465 -0.031564 -0.374929 0.023736 -0.226368 -0.013071 -0.059239
grains 0.035999 -0.119964 0.042076 0.139301 -0.045546 -0.001919 0.119091 0.091718 0.156406 -0.037245 0.191631 -0.027155 -0.067155 -0.150200 -0.037244 0.103822 -0.176566 0.075855 0.316176 -0.015212
leak -0.045376 -0.012583 -0.060309 0.040673 0.033918 -0.018664 0.223813 0.019971 -0.028419 -0.043722 0.345445 0.023048 -0.210252 -0.041320 0.196572 -0.078245 0.034377 0.009570 -0.062206 0.004248
timer 0.100547 0.046094 0.004487 -0.062208 -0.087602 0.057959 0.200280 0.181581 0.198884 0.025910 0.289744 0.082962 -0.175494 -0.125919 0.105491 -0.228502 -0.109501 -0.020548 0.152941 -0.061035
lowest -0.203796 -0.134703 -0.005535 -0.084148 -0.171506 -0.045925 0.015350 0.143763 0.164664 -0.008759 0.129247 -0.115985 -0.064484 -0.016122 -0.125109 -0.131184 -0.110453 -0.201124 0.392429 -0.105035
temporary -0.097583 0.032265 -0.056000 -0.052180 0.004525 0.068444 -0.161422 0.030855 -0.085868 -0.014226 -0.090486 0.042085 -0.004952 0.056466 -0.077328 -0.057653 -0.013301 0.004853 -0.072435 0.118706
rated -0.062371 0.109038 0.261368 0.038794 -0.040850 -0.033282 0.059721 0.328334 0.139342 0.068728 0.124076 0.125139 -0.043200 -0.198202 0.313071 -0.124611 0.095167 -0.117581 0.109471 -0.097144
locally -0.088821 -0.076223 0.018502 -0.019205 -0.227669 -0.096414 0.089919 0.123078 0.107639 -0.139009 0.056929 -0.095880 -0.073100 0.168311 -0.062544 -0.207529 -0.066925 -0.116348 0.043576 -0.110200
manual -0.020182 0.047126 0.025450 0.078219 0.026638 0.031299 0.016661 -0.060574 -0.068039 0.017198 0.065991 -0.073619 -0.012735 0.004662 -0.020533 -0.103399 -0.044201 -0.045549 -0.020378 -0.013132
indicator -0.010710 0.143250 -0.064394 0.031436 -0.016470 0.177059 0.007325 0.008062 -0.036172 -0.044297 0.121349 -0.255619 0.022568 0.070598 -0.044305 -0.246492 0.007725 -0.146213 -0.006573 0.039905
duct -0.211968 -0.196835 0.055730 -0.037902 -0.230443 -0.180695 -0.028890 0.189271 0.129406 -0.080693 -0.098720 -0.056345 0.070096 -0.009932 -0.002898 -0.139668 0.038205 -0.161166 0.152692 -0.053024
di 0.124997 -0.014216 0.076044 0.082350 -0.159315 -0.221594 0.353247 -0.050080 0.064799 -0.120227 -0.122757 0.018602 0.024530 0.005650 0.078691 -0.121183 0.062757 0.061318 -0.012810 -0.041645
activated 0.069066 0.099695 -0.032032 0.120447 0.144752 0.155434 0.052539 -0.115399 -0.121326 -0.028977 0.062767 -0.048412 -0.029026 -0.009888 -0.038467 -0.005298 -0.093562 0.035948 -0.140519 0.019541
by 0.024172 0.037511 -0.026868 0.128474 0.084535 0.129787 0.073588 -0.097885 -0.090771 -0.060744 0.135987 -0.088091 -0.045527 -0.012445 -0.003761 -0.001517 -0.086807 0.046073 -0.125451 0.024821
freeze -0.039695 -0.039119 -0.019968 0.103010 -0.009773 0.031397 0.086811 -0.052367 -0.060685 0.011636 0.049127 -0.169601 0.035854 0.002844 -0.037701 -0.111892 0.004273 -0.095567 0.051517 -0.040825
boiler -0.041765 -0.004962 0.019833 -0.053591 -0.027574 -0.034230 -0.043925 0.063038 -0.014214 -0.025665 0.044736 -0.024936 -0.040220 0.056399 -0.022269 0.023271 -0.047949 -0.076848 0.042187 -0.028329
percent 0.105905 -0.008791 0.004429 -0.060058 0.103205 0.097043 -0.014873 -0.063918 -0.014997 0.041759 0.037428 0.270264 -0.124482 -0.154951 0.022212 0.287750 -0.112362 0.234079 -0.120076 0.049113
tower 0.010824 0.039184 0.097046 0.199588 0.081875 0.064050 0.032161 0.000341 0.073585 0.050422 0.037114 -0.028744 0.170936 -0.151639 0.002015 0.133433 0.038149 0.215162 -0.168582 0.112236
rain 0.087064 0.010338 -0.004377 0.033956 0.128262 0.067951 0.151085 -0.068779 0.031199 0.076612 0.088546 0.023616 -0.035123 -0.193589 0.028304 0.121839 -0.009034 0.153794 0.078885 0.110372
acceleration 0.104423 0.075993 0.053597 0.069976 0.071372 0.024823 -0.028041 0.034517 -0.017059 -0.053771 0.030801 0.104573 -0.062130 0.022910 0.106461 0.136762 -0.005428 0.062172 -0.177151 0.044889
dehumidification 0.007242 0.060481 0.053511 -0.046258 -0.078380 -0.042507 0.090425 0.050821 -0.038821 -0.106570 -0.008801 0.044891 -0.120735 0.082149 0.026897 -0.076975 -0.115886 -0.000582 0.004854 -0.029556
stages 0.001848 0.134310 -0.035924 -0.058888 0.027061 0.069796 0.065301 -0.018362 -0.120824 0.039110 0.022577 -0.088440 -0.124841 0.054557 -0.014465 -0.047122 -0.067933 -0.091617 0.153390 -0.070995
azimuth -0.006595 0.082281 0.156659 0.077672 -0.088777 -0.044436 0.198069 0.017444 0.012813 -0.003832 -0.045560 -0.058069 0.052226 -0.126510 -0.001893 -0.113065 0.004453 -0.133419 0.175416 -0.010352
short 0.048844 0.103403 0.000121 -0.080420 -0.028600 -0.039666 -0.039530 -0.045584 -0.107004 -0.076507 -0.137346 0.140831 -0.097343 0.053156 0.056749 -0.013528 0.011338 0.040598 -0.201474 0.003153
cycle -0.019894 0.129519 0.019551 -0.132298 -0.086289 -0.079932 -0.009678 0.009567 -0.105686 -0.062498 -0.084019 0.189359 -0.126165 0.080845 0.045835 0.006495 0.002213 -0.006006 -0.190586 0.003284
head -0.028621 -0.021770 -0.028345 -0.082221 -0.175058 -0.174701 0.053715 0.023918 0.029276 -0.057227 0.020572 0.065236 -0.128217 0.133080 0.144928 -0.040755 0.078034 0.029555 -0.166693 -0.035745
deceleration -0.008922 0.059174 0.056320 -0.048689 0.062484 0.035526 -0.143750 0.105571 -0.071803 -0.061266 0.000858 0.225065 -0.099971 0.026073 0.099924 0.075872 -0.014439 -0.013335 -0.226586 0.068440
ready -0.034905 -0.012711 0.129225 -0.124648 -0.165721 -0.071685 0.064671 0.011362 0.118191 0.154429 -0.031449 -0.063491 0.064676 -0.050858 0.066945 -0.159051 0.115617 -0.099182 0.055572 -0.046387
override -0.024333 0.073869 -0.066994 0.099277 0.094026 0.135373 -0.077194 -0.153009 0.061838 0.114924 0.126604 -0.165333 0.058913 -0.056504 -0.054871 -0.011362 -0.046202 0.023525 -0.052873 0.054049
basement -0.039893 -0.083503 -0.004376 -0.047224 0.058192 0.052177 -0.096419 -0.016345 0.001920 0.049284 -0.043640 0.132911 0.010554 -0.059499 0.001207 0.121627 0.045279 0.157095 -0.048565 0.073517
point 0.093577 0.003579 -0.083644 0.101531 0.021310 0.103083 -0.124120 -0.122459 0.074128 0.117046 0.048640 -0.088356 0.027170 0.009961 -0.109241 0.017892 -0.119078 0.010994 0.081188 -0.082975
relative -0.053372 -0.059665 0.074917 0.059306 -0.084151 -0.040984 0.003065 0.049489 0.022432 -0.037378 -0.082153 -0.023285 0.067672 0.090221 0.024485 -0.106210 0.085823 0.028562 -0.124785 0.029938
hand -0.078430 -0.005558 -0.011581 0.079560 0.082723 0.143585 0.043785 -0.057445 -0.076530 0.039783 0.176933 -0.263942 0.030348 -0.063343 -0.036491 -0.199941 -0.045626 -0.174920 0.119346 0.020068
radiance -0.053704 0.028764 0.100834 -0.052108 -0.140179 -0.042466 0.082416 -0.008749 0.072291 0.058519 0.026711 -0.041143 0.067880 -0.110648 -0.015725 -0.026628 0.045527 -0.137730 0.189139 -0.055014
humidify 0.080443 0.025411 0.012217 0.000283 0.018988 0.039243 0.044712 -0.033664 0.009448 0.041922 0.020069 0.012112 0.016714 -0.019091 -0.027668 0.011034 0.011050 -0.003218 0.021241 -0.059723
thermostat 0.077459 -0.024774 -0.022919 0.046780 0.036047 0.036409 0.064884 -0.026226 0.000991 -0.000701 0.069674 0.020386 -0.039486 -0.039089 0.008771 0.045730 -0.016273 0.070805 -0.030652 -0.013222
peak 0.033568 -0.004302 0.011786 -0.040812 -0.010820 0.006477 -0.001099 0.023325 0.009086 0.011720 -0.062069 0.102097 -0.013864 -0.043373 -0.022637 0.035355 0.000065 0.039784 0.064430 -0.006438
perimeter -0.042114 0.032938 -0.003190 0.056091 0.025076 -0.027963 0.026999 -0.019624 0.003716 0.083541 -0.026046 0.065797 0.077075 -0.068126 0.057338 -0.063592 0.146176 0.045315 0.023368 0.006675
pre -0.012486 0.013848 -0.033819 -0.110197 -0.071254 0.016249 -0.031366 0.090448 -0.006973 -0.020094 0.018574 0.002417 -0.081903 0.046540 -0.043132 -0.102786 -0.026210 -0.052170 0.042718 -0.026111
coldest -0.129776 -0.019435 0.025369 -0.010487 -0.133496 -0.063949 -0.055301 0.080625 0.081908 0.015571 -0.038137 -0.165907 0.013184 0.063299 -0.083478 -0.122370 -0.041773 -0.172017 0.297004 -0.083453
condensor -0.066100 -0.022204 0.012861 0.023053 -0.045195 -0.042056 -0.028090 0.039250 -0.001746 0.009372 -0.006244 0.008994 -0.014539 -0.006543 -0.019807 -0.012116 0.021650 0.003997 0.006216 0.015062
battery 0.027726 0.045890 0.100168 0.079101 -0.093944 -0.037859 0.091770 0.037471 0.043173 -0.026654 0.025304 0.002378 0.018584 -0.090284 0.016201 -0.130115 -0.031183 -0.029283 0.011980 -0.025978
open -0.139629 0.017722 0.073493 0.054576 -0.084111 -0.105101 0.008412 0.037466 0.118297 0.040952 0.138202 -0.051413 0.021921 -0.067856 0.044786 0.002587 0.123454 -0.066246 -0.075216 0.029154
today -0.017049 0.127220 0.008531 -0.044293 0.070971 -0.011265 0.051940 -0.115276 -0.112319 -0.000351 0.030166 -0.023815 -0.042159 -0.039972 0.037803 0.094743 0.022800 0.043992 0.092231 0.044593
conductivity 0.058258 0.009519 0.118158 0.073915 -0.068913 -0.109523 0.215715 -0.021799 0.122785 0.025509 0.100150 -0.013393 0.000732 -0.156495 0.161420 0.043114 0.060091 0.023640 0.050414 0.027730
fans 0.000295 -0.016526 -0.040025 -0.137100 -0.069097 -0.013130 -0.090701 0.028468 0.138789 0.124465 0.050220 0.069284 -0.017475 -0.054471 0.037481 -0.074024 0.003766 -0.036337 0.029589 -0.003139
stage 0.018894 -0.003059 -0.094674 -0.066453 0.024410 0.053155 -0.023454 0.010710 0.091119 0.147415 0.173266 0.051691 -0.092041 -0.064331 0.049597 -0.026596 0.026438 -0.003286 0.132286 -0.066464
leaving -0.004746 -0.000219 0.187387 0.221185 -0.025140 -0.084957 0.230482 -0.033528 -0.065954 -0.207353 -0.139794 -0.204763 0.118941 -0.030107 -0.077399 -0.088880 0.022748 -0.060665 -0.068236 0.120351
warmest -0.209835 -0.034583 0.018766 0.020141 -0.130553 -0.062644 -0.058786 0.064880 0.057135 0.009712 0.008204 -0.207353 0.034249 0.046352 -0.091531 -0.075918 -0.029092 -0.160492 0.277745 -0.039285
generator -0.077771 0.001948 -0.071854 -0.127332 -0.116610 -0.046202 -0.007031 0.076422 -0.012854 -0.031249 0.015131 0.038633 -0.137239 0.094600 -0.040251 -0.124786 0.007810 -0.185084 0.092082 -0.102649
operating -0.043692 0.038972 0.093735 0.010155 -0.092688 0.029349 0.121605 -0.103503 0.041391 0.017777 0.044521 -0.141398 0.069716 -0.097393 -0.063207 -0.129512 0.017222 -0.084619 -0.022223 0.108331
close 0.074355 0.010332 0.016163 -0.140875 -0.054549 0.031027 -0.034298 0.067274 0.037431 -0.062786 0.059468 0.118256 -0.142054 0.041407 -0.080018 0.045384 -0.173401 0.037958 -0.065291 -0.025068
condensate -0.077597 -0.038382 -0.052704 0.005076 -0.010834 -0.104345 0.121657 -0.011828 -0.192252 -0.069553 -0.122004 0.061336 -0.021118 0.079389 0.118689 -0.241438 0.186366 -0.052806 -0.009801 -0.047287
humidification -0.044090 0.043945 0.018435 -0.043488 -0.086442 0.005477 0.034536 0.081536 0.009801 -0.061992 0.058417 0.042158 -0.115234 0.010695 -0.025022 -0.057763 -0.130740 -0.167597 0.068564 -0.050500
inverter -0.057909 -0.020461 0.023377 -0.048273 -0.087374 -0.015545 0.065784 0.189107 0.053366 -0.088111 0.089288 0.082581 -0.132685 -0.029180 -0.013379 -0.173989 -0.095073 -0.162084 0.090886 -0.037598
when 0.185452 0.090211 -0.028764 0.050065 0.104509 0.086551 0.068411 -0.151062 -0.023639 0.071600 0.024467 -0.106568 0.063479 -0.037399 -0.053098 0.008604 -0.023742 0.048634 0.003852 -0.031265
last -0.035643 0.026016 0.006480 0.058813 0.039582 0.014658 0.021380 -0.014115 -0.031675 0.009133 0.000864 -0.029025 0.051653 -0.003156 0.034771 -0.028150 0.081145 -0.004201 -0.050777 0.006008
glycool -0.061184 -0.033822 0.070226 -0.047396 -0.048524 0.037226 -0.000154 0.224738 0.014256 -0.117570 0.031086 0.106821 -0.091961 0.038543 -0.056367 -0.121879 -0.091808 -0.099937 -0.050817 -0.021844
building-hubbs -0.095745 -0.079668 0.007724 0.041775 -0.075336 -0.039354 -0.063048 0.019260 0.019639 -0.175515 0.034367 -0.030682 -0.044443 0.112341 0.000828 -0.049060 -0.083526 0.054763 -0.151883 0.073646
integrative -0.058185 -0.035963 -0.061133 -0.046730 -0.019870 0.019487 -0.105792 0.037499 0.018700 -0.017482 0.057551 -0.104943 -0.031560 0.094467 -0.032174 0.003381 -0.075534 -0.014979 0.007465 -0.016566
code 0.037264 0.017062 0.021002 0.013890 0.045653 -0.000663 0.055453 0.001403 -0.025210 0.032638 -0.037831 -0.007959 0.010790 -0.040128 -0.061267 -0.023501 0.018848 -0.067125 0.061782 -0.048944
underfloor -0.139527 -0.157776 0.030714 0.123432 -0.090657 -0.028235 -0.017353 0.056729 0.053130 -0.072535 0.033131 -0.072026 0.061494 -0.006316 -0.058533 -0.064744 -0.065359 0.033885 -0.004568 0.061628
thumbwheel -0.113840 -0.079268 -0.014179 0.006624 0.006156 0.004391 -0.074252 0.032833 -0.034197 -0.038819 0.056509 -0.092760 0.001993 0.083414 -0.005469 0.005524 -0.054512 0.006808 -0.021261 -0.012224
space -0.054144 0.021515 0.026152 0.021850 -0.007846 -0.014864 0.032599 -0.022121 -0.003432 -0.028010 -0.008737 0.004528 -0.020437 -0.016386 0.005820 -0.027166 -0.012317 -0.027666 -0.033171 0.009981
condenser -0.058480 -0.038595 0.018267 0.013033 -0.030327 -0.011666 -0.010915 0.029191 0.026465 0.017531 -0.025204 0.028714 0.031120 -0.026396 -0.018856 -0.010778 -0.002780 0.003232 0.041227 -0.000529
communication -0.007284 0.064665 -0.002436 -0.066629 -0.058971 -0.057654 -0.075011 0.026114 -0.004405 0.000855 -0.131943 0.073393 0.010698 0.093593 0.025913 -0.098939 0.073241 -0.042670 0.018252 -0.021189
detection -0.074574 -0.010896 0.009594 0.048911 -0.017849 -0.008989 0.049209 -0.002187 -0.001091 -0.000487 0.000209 -0.112409 0.050516 0.007061 0.004930 -0.134300 -0.007808 -0.107625 0.013116 -0.004159
freezer -0.057906 -0.073748 0.014711 -0.013936 -0.026368 -0.053195 -0.048447 0.028266 0.018171 -0.037155 -0.025991 -0.030152 -0.028072 0.008147 -0.010000 -0.028099 0.024221 -0.052929 0.047749 -0.011098
protect -0.079151 -0.031595 0.006976 0.053023 -0.024166 -0.016549 0.003229 -0.049413 -0.076311 -0.056788 0.029788 -0.048697 0.043612 0.038614 0.009377 0.005282 -0.030368 0.015577 -0.123177 0.069272
pv -0.028107 0.053108 0.006270 -0.025715 0.034357 0.031142 -0.043873 0.007443 -0.042937 -0.023692 -0.005281 0.034210 -0.044010 0.029822 0.053371 -0.020767 -0.013759 -0.007373 -0.065891 0.014996
trace -0.045651 0.001132 -0.053408 0.015355 -0.022019 0.052017 -0.004711 0.015545 0.066953 0.042972 -0.007176 -0.102904 0.013565 -0.048804 -0.034211 -0.039690 -0.041624 -0.045146 0.190682 -0.002907
econcycle 0.011693 0.085461 0.041735 -0.011692 -0.050533 -0.063774 0.066153 0.008996 -0.004891 -0.033457 -0.014042 -0.075960 -0.035926 0.054107 -0.015608 -0.092396 0.010806 -0.131563 0.004401 -0.066290
hold -0.000764 0.043054 0.003949 0.011960 -0.020447 0.019556 0.036675 0.001645 0.013981 0.002120 -0.007218 -0.061442 0.017738 -0.018105 -0.047505 -0.067221 -0.025835 -0.076323 0.105290 -0.044388
remotely 0.051512 0.150378 0.037781 -0.036931 -0.049118 0.005273 0.047083 0.046999 -0.026495 -0.053529 -0.030947 0.043245 -0.087168 0.008885 0.015889 -0.084628 -0.011282 -0.103043 0.026750 -0.051796
running 0.049669 0.014313 0.023758 0.134352 0.072632 0.026239 0.125115 -0.013270 0.005991 -0.005809 0.108207 -0.017511 -0.021114 -0.066953 0.052609 -0.025114 -0.018226 0.029500 -0.063979 0.040096
hour 0.028991 0.035993 0.031536 0.098717 0.029220 0.052348 0.147835 -0.026880 0.012045 -0.047394 0.117802 -0.037682 -0.023496 -0.085423 0.069481 -0.037967 -0.059415 0.009008 -0.069485 0.041325
ice -0.052002 -0.047526 0.014040 0.100903 -0.028193 0.011859 0.028423 -0.019993 -0.015978 -0.052720 0.042187 -0.071490 0.028981 -0.013278 0.015416 -0.099645 0.022361 -0.001562 -0.104338 0.062322
tank -0.083033 -0.007149 0.008596 0.054384 -0.005768 -0.010476 0.056954 0.003074 -0.009255 -0.026093 0.016965 -0.094959 0.033173 -0.000685 0.031656 -0.070157 0.024444 -0.012517 -0.070990 0.029301
yearly -0.001314 0.053131 0.002593 0.066834 0.054139 0.046269 0.071682 -0.025719 -0.079722 -0.038023 0.044209 -0.064335 0.030132 -0.006164 0.062889 -0.051979 0.018721 -0.031190 -0.045126 0.042731
hail 0.112015 0.009120 -0.032927 0.001978 0.063594 0.030669 0.105930 -0.037160 0.075144 0.049087 0.118699 0.050302 -0.040564 -0.144642 0.068165 0.084491 -0.039513 0.068630 0.076345 0.021459
dual 0.002263 -0.034627 0.003402 -0.008378 -0.046640 0.022204 -0.009386 -0.009261 0.048695 -0.061631 0.036598 0.003641 -0.011684 -0.013944 -0.018046 0.001420 -0.048452 0.012658 -0.084842 0.066228
required -0.041295 -0.022761 0.031385 -0.143108 -0.146859 -0.168937 0.088450 0.053337 0.039365 -0.012214 0.033435 0.057616 -0.074021 0.033627 0.092262 -0.155659 0.091345 -0.105793 -0.060031 -0.055225
failure 0.018659 0.025544 -0.040156 -0.157614 -0.033570 -0.078072 0.019859 0.027887 0.002777 -0.026195 0.000181 0.091111 -0.094097 0.072334 -0.011150 -0.041116 0.054250 -0.055086 0.043531 -0.083697
zenith -0.026464 0.016603 0.099498 0.062416 -0.123081 -0.059399 0.165432 0.039177 0.042393 -0.037887 -0.029509 -0.077942 0.010413 -0.062218 -0.005568 -0.136200 -0.038803 -0.129451 0.188380 -0.040797
environment 0.006781 0.120191 0.010529 0.009420 0.075409 0.006781 0.016961 -0.074581 -0.089156 0.025873 -0.044201 -0.027881 0.031251 -0.001978 0.033182 0.030119 0.050112 0.032702 -0.011398 0.069411
vent -0.069845 0.018183 -0.019551 -0.055102 -0.108181 -0.036363 0.013794 0.062728 0.029492 -0.018193 -0.014062 0.014875 0.014571 0.037813 -0.003628 -0.165828 0.039960 -0.062471 -0.049174 0.011733
fresh 0.027045 -0.170703 0.104392 0.134113 -0.129474 -0.080533 0.109499 -0.012544 0.200481 -0.071595 0.073562 -0.080828 0.029183 -0.097365 -0.176218 0.125866 -0.199089 0.053035 0.138179 0.011548
duration 0.067896 -0.017325 -0.003700 0.052875 0.055265 0.030375 0.146140 -0.083112 -0.003583 0.018104 0.108082 -0.039438 -0.007328 -0.122572 0.037436 0.010785 -0.044137 0.072375 0.038133 0.049534
suction -0.026138 -0.101419 0.062018 -0.056022 -0.161243 -0.138219 0.129961 -0.017448 0.107939 0.008377 -0.002930 0.115789 0.046734 -0.053288 0.174706 -0.072929 0.112051 0.047573 -0.152057 0.035253
cold 0.017704 0.121885 0.029116 0.000136 0.071580 0.038019 -0.028201 -0.042728 -0.083695 0.013573 -0.070982 -0.026600 0.044960 0.004844 -0.023769 0.025082 0.036511 0.009293 0.001931 0.057860
ventilation -0.135994 -0.112788 0.022930 0.134260 -0.134771 -0.073777 0.016234 0.026357 0.067667 -0.149479 0.029378 -0.143736 0.050387 0.050692 -0.029703 -0.082032 -0.049877 0.018378 -0.086049 0.043861
ratio -0.024951 -0.018325 0.031739 0.011281 -0.038861 -0.025854 -0.024168 -0.069124 -0.037242 -0.030015 -0.051758 0.019229 0.004031 0.054215 0.046152 0.040349 -0.005932 0.079252 -0.145454 0.040845
frost 0.063198 -0.058391 -0.014632 0.107268 0.009015 0.072850 0.074340 -0.033661 0.082637 0.039777 0.121004 -0.047684 -0.020542 -0.106634 0.023245 -0.008107 -0.017455 0.124117 0.029921 0.054495
photovoltaic -0.076099 0.076278 0.018845 -0.082709 0.011606 0.027980 -0.127366 -0.003580 -0.055748 -0.016638 -0.035661 0.097234 -0.059497 0.039869 -0.002953 0.075392 -0.078311 0.082031 -0.064805 0.052601
dc 0.022943 0.104423 0.111545 0.115056 0.036117 0.016029 0.149401 -0.016224 -0.030898 -0.036491 0.029788 0.024913 -0.004939 -0.058531 0.079828 -0.037157 -0.005178 -0.017419 -0.021909 0.042780
bus 0.040519 0.103830 0.123493 0.113968 -0.014524 -0.029998 0.184992 -0.069283 -0.044796 -0.072368 0.021212 0.017411 -0.019059 -0.075931 0.099129 -0.070046 -0.023655 -0.001873 -0.063885 0.025160
automatic -0.019365 -0.003483 -0.042527 -0.004022 -0.039616 -0.022238 -0.027838 -0.067514 0.093854 0.120147 0.054152 -0.088178 0.095955 -0.034897 0.031512 -0.078218 0.043760 -0.031008 -0.097848 0.049810
curtailment 0.032696 0.082406 -0.018058 -0.000822 0.064185 0.098662 -0.166280 -0.077768 0.051163 0.101233 0.058985 -0.036453 0.016435 -0.020970 -0.056432 0.066738 -0.076619 0.054080 -0.066903 0.071995
failed -0.055649 0.012596 -0.011970 -0.139782 -0.070824 -0.015805 0.029453 0.123808 -0.015455 -0.116598 0.067346 0.113043 -0.123444 0.042042 -0.044499 -0.152838 -0.089915 -0.092545 0.030159 -0.029943
monthly -0.035972 0.096943 -0.000065 0.038402 0.072992 0.024307 0.057449 -0.116564 -0.101547 -0.028448 0.028625 -0.092113 -0.026989 -0.003650 0.029661 -0.008506 0.034411 -0.012574 -0.015718 0.066320
no 0.014202 -0.049145 0.061643 0.033456 -0.137538 -0.075970 0.167929 0.093853 0.071302 -0.153887 0.007152 0.063953 -0.080892 0.002844 -0.007973 -0.102957 -0.066605 -0.002665 -0.035415 0.002346
push -0.079194 -0.028346 -0.032175 -0.032142 -0.090591 0.064312 0.026347 0.045835 0.019877 -0.050064 0.082380 0.016718 -0.021531 -0.078555 -0.108461 -0.176836 -0.061068 -0.125377 0.067239 0.016263
button -0.025978 0.001382 -0.035602 -0.061812 -0.035635 0.073349 0.008663 0.003220 -0.005869 0.009335 0.052095 -0.140483 0.012229 0.004185 -0.074298 -0.115868 -0.040912 -0.101265 0.105854 -0.009999
liquid 0.009860 0.087383 -0.009653 -0.058191 0.017641 -0.026493 0.026554 -0.051564 -0.058318 0.076666 -0.049312 0.005570 0.056061 -0.018414 0.013834 -0.054384 0.058928 -0.044419 0.063248 -0.023487
cutout 0.009925 0.053460 0.003096 -0.012758 0.020818 -0.017137 0.004348 -0.066337 -0.059923 -0.011105 -0.088524 0.069144 -0.012364 -0.006226 0.051705 0.045001 0.043938 0.070999 -0.100024 0.057581
switch 0.057516 0.104720 -0.056955 0.020736 0.084600 0.083107 -0.071673 -0.076080 -0.042592 0.088714 0.035813 -0.004768 -0.032984 -0.002129 -0.037703 0.016918 -0.036455 -0.041187 0.054122 -0.054003
schedule -0.047457 -0.079264 -0.015815 0.058887 0.025435 0.032998 -0.053521 -0.047760 -0.053131 -0.011519 0.018392 -0.061888 0.061018 0.002730 -0.073571 0.034800 -0.026486 0.029532 -0.017500 0.022530
room-lounge -0.034911 0.019765 -0.008938 -0.020921 0.022661 0.007456 -0.061684 -0.023067 -0.046334 -0.013935 -0.047957 -0.015476 0.008269 0.028314 0.010897 0.052055 -0.001664 0.019172 -0.048451 0.059408
room-lobby 0.048361 0.021446 0.019528 -0.008174 0.042372 -0.001383 0.043583 -0.054670 -0.039152 0.017888 -0.061765 0.039794 -0.001839 0.043574 0.066493 0.013640 0.013077 0.055967 -0.081420 0.015123
turn 0.034387 0.058156 -0.020204 0.012358 0.027094 0.061735 0.042729 -0.024837 -0.006051 -0.037651 0.110782 -0.045563 -0.064068 0.024282 0.005354 0.045499 -0.063218 -0.054304 0.024045 0.009052
local 0.036382 0.037442 -0.024754 -0.009446 0.000656 0.034647 0.028371 -0.012898 -0.021843 0.011945 0.022355 0.004526 -0.009113 0.013297 -0.014587 0.025487 -0.024810 -0.017662 -0.015805 -0.009890
equipment -0.008723 -0.020708 0.001801 -0.008194 -0.023916 0.013558 -0.005755 0.003566 0.012787 0.022042 0.005616 -0.009230 -0.019496 -0.021304 -0.009015 0.008042 0.009758 -0.014614 -0.020860 -0.009724
even 0.028216 -0.025200 0.011040 -0.007387 0.015182 0.016652 0.039964 -0.014182 0.000213 -0.019509 0.069048 -0.005053 -0.025439 0.020681 0.011663 0.032726 -0.034259 -0.020202 -0.018568 -0.012569
month -0.021212 -0.010502 -0.001701 0.012229 -0.019282 -0.027517 0.014092 0.008390 -0.002847 0.005189 0.020522 -0.034069 -0.030058 -0.002840 -0.012892 0.005399 -0.026193 -0.041009 0.035673 0.012291
laboratory -0.024660 -0.006419 -0.022555 0.018719 0.011091 0.004765 0.012194 0.020055 0.009705 0.004538 -0.018787 -0.004771 0.003948 0.005142 0.023039 -0.014725 0.008158 -0.012179 -0.004112 0.023598
pir -0.008008 -0.005804 0.023633 0.033159 -0.034142 -0.022140 0.027513 -0.007954 0.009444 -0.028373 0.005975 0.007133 0.023450 -0.022982 -0.015490 0.013606 -0.003871 -0.010944 0.036350 -0.019302
wing 0.018304 0.001620 0.019742 0.011985 0.001145 0.010983 0.019337 -0.015274 -0.003510 0.017968 -0.023475 -0.018346 -0.004733 -0.019382 0.011308 0.023741 -0.000547 0.023013 -0.018212 0.010022
terminal -0.008906 0.039274 0.007300 -0.048818 -0.062279 -0.036614 -0.040309 0.051787 0.005401 -0.030217 -0.011570 0.016301 -0.026299 0.051107 -0.022932 -0.037157 -0.010440 -0.053372 0.001432 -0.024769
room-hall -0.022572 0.018350 -0.001092 0.014678 -0.013668 -0.008251 0.013189 0.017671 -0.003144 0.021517 0.003981 -0.022545 -0.002357 -0.016980 0.011641 -0.007632 -0.014941 0.017139 0.015890 -0.007818
elevator -0.005797 -0.017642 -0.004426 0.006264 -0.007023 0.019799 -0.004126 0.021683 0.016023 -0.019168 -0.019802 -0.018359 0.006923 0.009230 0.014501 0.002116 0.008768 0.009338 -0.008089 0.007526
roof -0.004795 0.007008 0.021731 -0.003501 0.000308 -0.008397 0.003936 0.018171 -0.010818 0.016720 0.000974 -0.013696 -0.004028 -0.016650 0.020620 -0.022103 0.005200 -0.019802 -0.009326 -0.017853
room-fle 0.012042 0.017917 0.019496 -0.017461 0.002834 -0.009874 -0.011439 -0.024178 0.000759 -0.024048 0.019911 -0.011651 -0.000331 0.006821 -0.024925 -0.019338 -0.001673 0.006164 0.015984 -0.004260
safety 0.010699 0.052648 -0.024171 -0.021136 0.089331 0.000363 0.011713 0.008701 -0.062540 0.006826 0.021403 -0.007369 -0.047770 0.031269 0.062286 -0.008809 0.063762 0.014991 -0.003726 -0.025015
networkadapter-mig 0.024538 0.018344 -0.001907 -0.001719 0.013236 -0.020080 0.024702 0.009611 -0.010036 0.020442 0.002629 -0.020741 -0.019588 -0.023417 -0.014190 -0.022429 0.000514 -0.020853 -0.002844 -0.013190
motion 0.059026 -0.008070 0.002653 0.008907 0.003769 0.035855 0.061373 -0.025151 0.046680 0.009114 0.058262 0.023140 -0.041952 -0.046738 0.030301 0.005484 0.004552 0.014228 0.033150 -0.010548
networkadapter-s 0.014696 -0.008471 0.000578 0.016751 0.023523 -0.016076 0.017565 0.024420 -0.002477 -0.009602 0.020623 -0.014007 0.024413 -0.004923 -0.020388 -0.018161 -0.001146 -0.021953 -0.012406 0.014750
networkadapter-e 0.014267 0.015541 -0.022687 0.013322 0.015342 -0.024198 -0.005434 0.018279 0.022924 0.020980 0.002349 -0.009504 0.004463 0.004800 0.008228 0.004541 0.018403 -0.006301 -0.012799 -0.023976
response -0.032997 0.003112 -0.029151 -0.023831 -0.052419 -0.018715 -0.018530 0.069677 -0.006859 -0.038357 0.011846 0.037580 -0.023946 0.000077 -0.014637 -0.033986 0.010729 -0.025172 -0.002551 0.025193
isolation -0.006538 0.010601 0.033304 -0.019079 0.024605 -0.013973 0.006421 0.013741 -0.007846 0.014926 0.018013 0.034862 0.001938 -0.002375 -0.035090 0.018116 0.057321 -0.008313 -0.012900 0.029945
heater -0.038347 0.016111 -0.000332 0.043916 -0.015082 -0.021155 0.031468 -0.047550 -0.004451 -0.021037 0.030350 0.009709 -0.009862 -0.002053 -0.021416 -0.011123 0.025449 -0.029236 -0.021828 -0.009853
gas 0.008818 0.017313 -0.018022 -0.035392 0.023672 0.028618 0.006107 -0.016739 -0.044345 0.006168 0.026190 0.004848 -0.044859 0.045199 0.024313 0.010029 0.000391 0.042794 0.006874 0.010494
sash -0.021614 -0.002126 0.021119 -0.009646 -0.004750 0.007834 0.011999 -0.032986 0.005807 0.013740 0.054652 0.019442 -0.009573 -0.064611 0.010121 -0.014667 0.022302 0.006892 -0.041647 0.053432
city 0.018489 -0.010402 -0.019900 0.015445 -0.023691 0.006817 -0.016996 0.009581 -0.016599 -0.007548 -0.018896 -0.010646 -0.018545 -0.001831 0.007470 -0.005274 0.022648 0.012743 0.002219 0.003176
dew 0.017794 0.022312 0.014935 -0.037828 0.009420 0.029636 0.004568 -0.027581 0.006113 0.008123 -0.018448 0.031226 0.012893 -0.031700 -0.007089 -0.001134 0.012273 -0.004424 -0.011990 0.025116
electrical 0.023341 0.031348 -0.002623 0.018945 -0.015191 0.024446 -0.006781 0.007967 0.007801 0.018809 -0.002256 0.014321 0.021773 -0.004554 -0.028318 -0.024423 0.021108 -0.027626 0.025709 0.000533
location 0.007878 0.020459 0.020098 -0.005457 0.005627 0.001092 0.015852 -0.022191 0.006349 -0.003513 0.018047 0.009393 -0.011949 -0.018288 0.002067 0.024095 -0.007505 0.024771 0.000904 -0.015483
