1004 20
sent_0 0.836586 0.032603 0.409297 0.332179 -0.095759 -0.411760 -0.358808 0.177418 -0.482339 0.331882 -0.389785 0.049031 0.087720 0.035790 0.210977 0.045888 -0.317022 0.480685 0.246823 -0.056293
sent_1 0.408269 0.168863 -0.164228 -1.028793 -0.237493 0.185090 0.336729 0.084513 -0.189844 -0.362611 0.510888 -0.616524 -0.108358 -0.423556 0.374416 0.042833 -0.289608 -0.017880 0.424285 0.647159
sent_2 0.533006 -0.046974 0.582984 -0.670497 -0.089139 -0.339430 0.253525 0.489896 -0.650659 -0.000927 -0.396445 0.250445 -0.202691 -0.357983 0.039150 0.221556 -0.030835 0.275938 -0.025574 -0.018778
sent_3 0.691317 -0.002182 -0.638301 -0.007057 -0.101391 0.670664 -0.078003 -0.575998 -0.046631 -0.478289 0.579062 -0.012736 -0.185060 0.215441 -0.478030 -0.038958 -0.110099 -0.276957 0.358710 -0.099263
sent_4 0.683610 -0.415188 -0.040439 0.380266 0.164771 0.249009 0.315339 0.295953 0.071491 -0.594273 0.140202 -0.151906 -0.590362 0.359757 -0.358675 -0.469743 -0.639969 -0.503761 -0.063848 1.061453
sent_5 0.657700 -0.379416 -0.056225 0.310088 0.162762 0.201521 0.196556 0.265294 0.094231 -0.606972 0.150089 -0.207670 -0.585456 0.314666 -0.333264 -0.439053 -0.659835 -0.442225 -0.048500 0.950665
sent_6 0.359302 0.184842 -0.161148 -0.968196 -0.216687 0.183874 0.374167 0.097325 -0.200556 -0.399764 0.473515 -0.635382 -0.077480 -0.534392 0.405370 0.027586 -0.321253 -0.026371 0.444244 0.653447
sent_7 0.214987 -0.122702 0.967751 0.031330 0.283976 0.475899 0.543803 0.192227 0.600456 -0.105601 -0.405743 -0.023835 -0.121809 -0.207993 -0.332870 -0.395711 -0.659493 0.352798 0.092382 0.970817
sent_8 0.249822 -0.166349 0.694691 0.004202 0.207875 0.389859 0.554203 0.076674 0.508591 -0.212700 -0.348869 -0.135190 -0.240408 -0.132048 -0.346661 -0.461895 -0.522087 0.162642 -0.168689 0.818652
sent_9 0.358822 0.071763 -0.509445 -0.042074 0.065256 0.705269 0.014146 -0.720798 -0.125214 -0.466369 0.400876 -0.147951 -0.251843 0.148441 -0.837927 0.272102 0.015218 -0.142480 0.378687 -0.271851
sent_10 0.225453 -0.170368 0.731630 -0.035692 0.250102 0.359387 0.615136 0.147928 0.449919 -0.191374 -0.358418 -0.160242 -0.273531 -0.179959 -0.329067 -0.475391 -0.511244 0.215515 -0.144256 0.779567
sent_11 0.615083 -0.427152 -0.102221 0.335901 0.158576 0.256335 0.236536 0.255855 0.068401 -0.600191 0.148997 -0.151243 -0.606758 0.354238 -0.350167 -0.404379 -0.660786 -0.457749 -0.057098 1.047018
sent_12 0.296821 -0.177302 0.791714 0.022792 0.227867 0.472579 0.641681 0.127041 0.602329 -0.149660 -0.365904 -0.134546 -0.229108 -0.231993 -0.338684 -0.521853 -0.567403 0.211080 -0.140858 0.939231
sent_13 0.361326 -0.191821 0.246529 0.237266 0.536931 0.543586 0.341992 -0.253569 0.463389 -0.143702 0.383661 -0.494248 -0.500112 0.366327 -0.821880 -0.278699 -0.598159 -0.273250 -0.214814 0.691179
sent_14 0.650199 0.164166 0.146940 -0.029392 -0.005248 0.432225 0.088356 -0.485591 0.450351 -0.054434 0.196776 -0.325354 -0.516001 0.352615 -0.894412 0.030621 -0.401011 -0.133027 -0.019829 0.047726
sent_15 0.195784 -0.349003 -0.843806 0.620975 -0.744575 0.265619 -0.427123 0.978934 0.039419 -0.066798 0.436107 -0.064208 -0.370366 0.406510 0.642266 -0.971908 0.164912 0.642657 -0.800560 -0.049607
sent_16 0.204301 -0.391801 0.379696 0.519571 0.157586 -0.096945 0.399865 0.313968 0.041740 -0.509659 0.158584 -0.084549 -0.368812 0.433358 -0.179278 -0.084714 -0.709652 -0.327393 -0.218270 0.728516
sent_17 1.031228 0.206990 0.028924 -0.084540 -0.093087 -0.161859 -0.554341 0.331421 -0.252633 0.120264 0.139346 0.176562 -0.146860 0.073572 0.258055 -0.451893 -0.577603 0.234788 0.086675 -0.077862
sent_18 0.166765 -0.387145 -1.014969 0.709746 -0.789995 0.421571 -0.046809 1.021997 0.051213 0.025523 0.303279 -0.132232 -0.378168 0.564868 0.456939 -0.910737 0.212132 0.671425 -0.678480 0.101458
sent_19 0.056962 0.061845 0.241509 0.228289 0.018452 0.378755 0.485576 -0.135481 0.602489 -0.067878 -0.053685 -0.534794 0.027247 0.396693 -0.477338 0.030217 -0.179811 -0.019614 -0.416251 -0.269361
sent_20 0.309785 -0.179753 0.299153 0.225842 0.568613 0.523423 0.285210 -0.279038 0.425869 -0.143679 0.334094 -0.511423 -0.477878 0.301772 -0.868243 -0.261417 -0.585544 -0.244935 -0.220689 0.624403
sent_21 0.325073 -0.409703 0.285771 0.753064 0.653593 0.711367 0.319940 -0.340597 0.052722 -0.253011 0.301472 -0.880282 -0.094453 0.452175 -0.374986 -0.001844 -0.143461 -0.503569 -0.042222 0.465126
sent_22 0.475934 0.068733 -0.382278 -0.016704 0.118777 0.677959 -0.007502 -0.604050 -0.205108 -0.512105 0.423546 -0.305453 -0.286473 0.040489 -0.826006 0.192640 -0.049077 -0.114964 0.292867 -0.321691
sent_23 0.420264 0.086308 -0.476451 -0.011674 0.093754 0.713846 -0.004456 -0.690610 -0.146387 -0.530302 0.454067 -0.232725 -0.271236 0.121731 -0.897988 0.224416 -0.009838 -0.134444 0.322526 -0.309175
sent_24 0.681223 -0.473935 0.061039 0.488234 0.152898 0.208898 0.227868 0.302979 0.115125 -0.381504 0.054408 0.080880 -0.436136 0.314215 -0.267751 -0.439509 -0.677586 -0.365827 0.154959 1.056091
sent_25 0.270184 -0.142648 0.311829 0.213049 0.556238 0.521459 0.358679 -0.255147 0.470307 -0.132364 0.326427 -0.554419 -0.487768 0.315787 -0.890686 -0.266118 -0.614526 -0.223789 -0.246939 0.601846
sent_26 0.332108 -0.387456 0.334186 0.779239 0.726709 0.689121 0.300727 -0.339808 0.158069 -0.244072 0.308651 -0.887244 -0.065861 0.443854 -0.406588 -0.014493 -0.201773 -0.500522 -0.128879 0.502002
sent_27 0.305439 -0.197416 0.728661 0.005129 0.235935 0.388783 0.520311 0.193163 0.514744 -0.160480 -0.372607 -0.158208 -0.195717 -0.263397 -0.367780 -0.527336 -0.583228 0.259215 -0.184441 0.826444
sent_28 0.336214 -0.163616 0.287622 0.241856 0.515592 0.616221 0.329656 -0.204819 0.566863 -0.106869 0.386093 -0.492357 -0.418312 0.260124 -0.929103 -0.272794 -0.663289 -0.237847 -0.200424 0.629660
sent_29 0.390489 -0.556574 -0.582159 -0.218006 -0.505459 0.769994 -0.352678 0.025989 0.163391 0.118387 -0.401842 0.315402 0.603130 -0.814495 -0.316988 -0.054625 -0.168174 0.351819 0.838714 0.349653
sent_30 0.596342 -0.417152 -0.060384 0.361797 0.154378 0.227965 0.299938 0.244178 0.058647 -0.604444 0.112903 -0.129538 -0.532601 0.307221 -0.350148 -0.405828 -0.646175 -0.515607 -0.053628 0.963146
sent_31 -0.028097 0.101851 -0.035688 0.384309 -0.468525 -0.155453 -0.661191 0.741852 0.927214 0.518225 0.053249 0.678590 -0.206848 -0.344015 0.633012 -0.027998 -0.154051 0.500219 0.639956 0.054389
sent_32 0.585438 -0.440074 -0.070989 0.407817 0.154524 0.196466 0.234913 0.279523 0.112949 -0.579957 0.144097 -0.168939 -0.520346 0.212806 -0.297805 -0.463462 -0.640830 -0.496302 -0.045680 0.970592
sent_33 0.363529 -0.137344 0.302248 0.224401 0.575358 0.512323 0.265315 -0.253048 0.444840 -0.095248 0.346104 -0.485885 -0.467490 0.319504 -0.897567 -0.264991 -0.677976 -0.232820 -0.251122 0.616272
sent_34 0.440579 0.201596 0.299104 0.829135 0.227839 0.574438 0.170648 -0.579109 0.662236 0.082802 0.542014 -0.720610 -0.538786 0.577832 -0.439795 0.207385 -0.216169 0.100076 -0.066584 -0.049143
sent_35 -0.705857 -0.001109 -0.576202 -0.064297 -0.473683 -0.348783 -0.443728 -0.189272 0.299353 -0.246762 0.968178 0.017279 1.134928 0.283505 -0.036810 0.701413 0.061957 -0.628592 0.385590 -0.413722
sent_36 0.608664 0.184830 0.138981 -0.011245 0.018185 0.431248 0.111705 -0.501963 0.484562 -0.017410 0.202276 -0.370363 -0.481924 0.346617 -0.904476 0.063863 -0.363083 -0.084887 -0.024088 0.049005
sent_37 0.027487 0.005156 -0.541919 -0.052922 -0.384812 0.083291 -0.230088 -0.054290 0.631646 0.079944 1.094693 -0.106929 0.201104 0.129158 -0.158416 0.259610 -0.198185 -0.290631 -0.208584 -0.325941
sent_38 0.535523 -0.145016 0.355917 -0.107258 0.101666 -0.661403 0.343295 0.065267 -0.632480 -0.063573 -1.378740 0.165771 -0.066247 -0.169495 -0.085685 -0.016918 -0.165504 0.362426 0.160544 0.147598
sent_39 0.418100 0.300953 0.152257 0.617554 0.051855 0.519692 0.191856 -0.434463 0.745606 0.132599 0.394798 -0.629575 -0.381431 0.457878 -0.491624 0.192165 -0.255003 0.080162 -0.073369 -0.125743
sent_40 0.166897 -0.114111 0.473604 -0.653243 0.292121 0.442865 0.336019 -0.172716 0.427520 0.576816 -0.127277 0.422145 0.037698 -0.155867 -0.635375 -0.642620 -0.272728 0.347808 -0.439415 0.315674
sent_41 0.052105 -0.086257 0.406494 0.581750 0.532849 0.333270 0.543955 -0.149633 0.509341 -0.023688 0.216930 -0.613672 -0.447050 0.394376 -0.439271 -0.035634 -0.313755 0.011464 -0.367125 0.361045
sent_42 0.261124 -0.171955 0.758490 0.025547 0.272867 0.392017 0.554762 0.160145 0.497299 -0.177669 -0.324366 -0.147444 -0.179050 -0.287047 -0.320111 -0.487096 -0.537929 0.217333 -0.177525 0.819776
sent_43 0.297618 0.010637 0.251704 -0.074470 0.067697 0.673887 0.235858 -0.297459 0.714603 -0.254708 0.099223 -0.402309 -0.050419 0.337357 -0.952565 -0.187928 -0.567618 -0.336268 -0.204287 0.038914
sent_44 0.694175 0.168002 0.194221 0.036800 0.005577 0.449954 0.069148 -0.560635 0.552090 -0.051186 0.216997 -0.372786 -0.569000 0.297816 -0.933035 0.061003 -0.431277 -0.086701 -0.001709 0.048370
sent_45 0.388719 -0.337079 0.315724 0.375072 0.164764 -0.484250 0.184356 0.233309 -0.111249 0.296423 -0.455763 -0.083960 -0.069619 0.046249 -0.045116 -0.174356 -0.152806 0.267984 -0.305683 -0.319469
sent_46 0.684799 -0.056053 -0.649441 -0.002940 -0.068748 0.661412 -0.043773 -0.600152 -0.104246 -0.516545 0.602759 0.035798 -0.215781 0.193899 -0.431815 -0.033911 -0.082688 -0.292864 0.391316 -0.149294
sent_47 0.441480 -0.573433 0.445525 0.819040 -0.469799 -0.319184 0.491945 0.234300 -0.544995 -0.645827 -0.783055 -0.138287 0.213298 0.136461 0.106873 0.379181 -0.167325 -0.171919 0.420916 0.377047
sent_48 0.793536 -0.652593 -0.607715 -0.493154 -0.970523 0.496529 -0.181059 0.160482 0.635794 0.728433 -0.421858 0.197558 -0.219600 0.289551 -0.348821 -0.596431 0.375818 0.047508 0.420549 -0.568074
sent_49 0.530062 0.162988 0.520096 0.066428 -0.470400 -0.062558 0.045616 0.569691 0.793242 0.538091 0.867815 -0.159010 -0.220019 0.796895 0.332717 0.341150 -0.397649 0.081741 -1.103633 0.276415
sent_50 0.062333 0.451136 -0.877382 0.144683 -0.417263 -0.002268 -0.120928 -0.399394 0.846325 0.155403 0.436313 0.029397 0.479062 -0.318549 0.052176 0.331485 -0.067096 0.110410 0.074811 -0.523013
sent_51 0.333732 -0.133834 0.295775 0.237770 0.514144 0.560827 0.304662 -0.241453 0.537991 -0.134513 0.334118 -0.518962 -0.486854 0.317589 -0.898058 -0.278226 -0.659692 -0.251611 -0.206389 0.664136
sent_52 0.090183 -0.115186 0.481165 -0.644478 0.288488 0.441926 0.329331 -0.247888 0.387418 0.582977 -0.151337 0.382300 -0.057924 -0.210826 -0.706026 -0.552163 -0.282770 0.457193 -0.471347 0.300344
sent_53 0.130170 -0.112720 0.461469 -0.687617 0.311161 0.384937 0.284056 -0.227878 0.411621 0.567146 -0.195786 0.452004 -0.037935 -0.166083 -0.696630 -0.614219 -0.306670 0.416116 -0.471972 0.271227
sent_54 0.433548 0.155034 0.202013 -0.793336 -0.306830 0.240094 0.325490 0.466274 -0.104799 -0.886454 0.393490 -0.375775 -0.167208 0.219441 -0.142793 -0.088510 -0.620002 -0.452341 0.443680 0.579871
sent_55 0.627691 -0.397217 -0.061605 0.300124 0.174286 0.202376 0.217692 0.234399 0.051515 -0.609802 0.125782 -0.174912 -0.553406 0.351994 -0.328055 -0.425052 -0.664049 -0.493137 -0.063539 0.926022
sent_56 0.167387 -0.082476 0.479544 -0.665205 0.263468 0.433472 0.298375 -0.184601 0.421960 0.547103 -0.140928 0.415979 -0.053539 -0.162441 -0.685121 -0.639359 -0.329223 0.423599 -0.453975 0.303655
sent_57 -0.211602 -0.005239 0.573518 0.540485 0.133088 -0.295947 0.402350 0.493403 0.339569 0.517430 -0.698467 0.357183 -0.043467 0.381119 -0.176659 0.304350 -0.136306 -0.572999 0.793777 0.580089
sent_58 0.064298 0.069756 0.417764 0.709367 0.487455 0.672208 0.231551 -0.289228 0.662887 -0.130984 0.376773 -0.758100 -0.174294 0.555729 -0.460801 -0.039872 -0.462130 0.008516 -0.317530 0.091365
sent_59 0.389860 0.201070 0.224972 0.766677 0.262071 0.520835 0.235057 -0.487674 0.684696 0.121418 0.523211 -0.665501 -0.564102 0.494953 -0.442762 0.210533 -0.228625 0.075153 -0.035618 0.094106
sent_60 -0.911543 0.428894 -0.435711 0.532288 0.105411 -0.267603 0.309275 -0.975703 0.859103 0.610432 0.470430 -0.515300 -0.155745 -0.564769 -0.094658 0.514197 0.290010 0.541209 -0.055202 -0.527363
sent_61 0.582361 0.175673 0.518456 0.029857 -0.409510 -0.061353 0.063183 0.600526 0.643735 0.544430 0.861479 -0.148351 -0.199534 0.750446 0.307566 0.238333 -0.352831 0.022366 -1.048308 0.225299
sent_62 0.305722 -0.356323 0.349795 0.687130 0.669541 0.685172 0.309495 -0.322482 0.158973 -0.259534 0.338557 -0.805157 -0.093361 0.396742 -0.395379 -0.036023 -0.222285 -0.481524 -0.067881 0.452558
sent_63 0.715447 0.140521 0.092701 0.038738 -0.053442 0.473333 0.147957 -0.492961 0.502235 0.011369 0.253254 -0.333510 -0.538286 0.343322 -0.910138 -0.013177 -0.437189 -0.146314 -0.033749 0.075963
sent_64 0.584700 -0.526446 0.087544 0.287913 0.178375 0.067897 -0.109318 0.287660 0.071179 -0.717883 0.156957 -0.106109 -0.508282 0.094570 -0.135610 -0.493326 -0.690360 -0.460440 -0.143746 0.905903
sent_65 0.734935 -0.030605 0.185874 0.303600 0.234052 0.495854 0.129568 -0.593914 0.505034 -0.024587 0.443446 -0.431901 -0.815276 0.363739 -0.939513 0.025995 -0.437820 -0.151963 0.023724 0.461370
sent_66 0.589751 -0.098739 0.112630 0.309851 0.129645 -0.510123 0.007079 0.112571 -0.390139 0.230056 -0.469104 0.288610 -0.497755 -0.150260 -0.212994 -0.333972 -0.237719 -0.128840 -0.043810 -0.052916
sent_67 0.190313 -0.372802 -1.066580 0.722805 -0.805483 0.426263 -0.084721 1.014875 0.015837 0.075105 0.263442 -0.079981 -0.362736 0.541116 0.454398 -0.918692 0.215511 0.633063 -0.722860 0.060245
sent_68 0.300795 -0.333198 0.258188 0.678436 0.652174 0.727645 0.373789 -0.296711 0.124767 -0.197116 0.298353 -0.845887 -0.058247 0.499585 -0.450296 0.038422 -0.145675 -0.476098 -0.063698 0.432524
sent_69 0.646449 -0.463855 -0.089749 0.397419 0.202118 0.162641 0.207147 0.245210 0.059617 -0.612666 0.125084 -0.138359 -0.587068 0.304958 -0.366971 -0.453236 -0.674539 -0.486625 -0.055347 1.038282
sent_70 0.454499 -0.109843 0.485492 0.337159 0.489903 0.514716 0.206003 -0.143748 0.580720 -0.051238 0.300243 -0.268416 -0.378546 0.293387 -0.750448 -0.262302 -0.824765 -0.095282 0.029446 0.709015
sent_71 0.140908 -0.419187 -1.071352 0.690680 -0.805123 0.408444 -0.087493 0.999697 0.033964 0.047202 0.282759 -0.090705 -0.393677 0.554260 0.471434 -0.924724 0.198225 0.643412 -0.726126 0.059336
sent_72 0.292258 -0.412520 0.279292 0.750060 0.681042 0.770303 0.344064 -0.333774 0.059223 -0.211392 0.342626 -0.871309 -0.088847 0.474040 -0.433894 0.021812 -0.096469 -0.500128 -0.056990 0.487772
sent_73 0.471139 0.166158 -0.183920 -1.013831 -0.301891 0.133136 0.357517 0.092887 -0.203026 -0.432725 0.417511 -0.622480 -0.117995 -0.569750 0.397190 0.021201 -0.379153 -0.015301 0.418950 0.611724
sent_74 0.668613 -0.181545 0.227455 0.700070 0.390520 0.455289 0.316323 -0.566844 0.150860 -0.225673 0.263464 -0.724074 -0.439611 0.557099 -0.329328 0.155939 -0.011354 -0.470530 0.105788 0.271090
sent_75 0.630727 -0.027060 -0.704534 -0.002401 -0.080896 0.736617 -0.049877 -0.749676 -0.143797 -0.583060 0.623260 0.041822 -0.213734 0.240382 -0.467614 0.038884 -0.004684 -0.325479 0.476341 -0.143125
sent_76 0.331731 0.218645 0.232041 0.774550 0.251955 0.516850 0.221585 -0.526292 0.666535 0.123911 0.527095 -0.708126 -0.517541 0.560647 -0.441838 0.166964 -0.171002 0.075518 -0.088901 -0.029852
sent_77 0.495907 0.193709 0.231847 -0.725913 -0.292679 0.276480 0.337490 0.537202 -0.142658 -0.826000 0.463664 -0.419187 -0.125424 0.198507 -0.101690 -0.132809 -0.600956 -0.420307 0.437492 0.526204
sent_78 0.693036 -0.002232 -0.672851 0.001355 -0.085130 0.614246 0.005181 -0.604648 -0.054122 -0.513007 0.643000 -0.017314 -0.228397 0.167030 -0.427614 -0.063795 -0.066034 -0.324488 0.375068 -0.191899
sent_79 0.665185 -0.392169 -0.066392 0.285503 0.137910 0.198001 0.197832 0.301901 0.080439 -0.620184 0.149285 -0.179738 -0.553712 0.323934 -0.306036 -0.441930 -0.644118 -0.480452 -0.069292 0.991964
sent_80 0.620491 -0.261069 0.194575 0.832515 0.360417 0.510676 0.313189 -0.566610 0.185367 -0.178576 0.293594 -0.743773 -0.389846 0.552740 -0.304483 0.174228 0.051085 -0.528881 0.134834 0.273443
sent_81 0.319694 -0.343068 0.350766 0.596635 0.571111 0.691254 0.269401 -0.303701 0.188863 -0.263942 0.344149 -0.757002 -0.139689 0.350205 -0.477260 -0.061193 -0.276310 -0.438136 -0.093307 0.460675
sent_82 0.346492 -0.006319 0.218368 -0.062517 0.075112 0.640280 0.235226 -0.280437 0.649353 -0.205612 0.096689 -0.378654 -0.020552 0.317112 -0.887372 -0.206259 -0.546954 -0.303415 -0.206829 0.015793
sent_83 0.649938 0.073582 0.157045 0.020284 0.024780 0.420912 0.069953 -0.539416 0.521973 -0.050637 0.223996 -0.327678 -0.551945 0.353714 -0.868729 0.045681 -0.376262 -0.149728 -0.032838 0.042561
sent_84 0.436461 0.055806 -0.491045 -0.015158 0.047261 0.691208 -0.002742 -0.675181 -0.129706 -0.510051 0.429413 -0.224409 -0.282981 0.144804 -0.825530 0.209362 -0.011807 -0.181706 0.330529 -0.274021
sent_85 0.628023 0.028445 -0.681678 -0.019562 -0.080973 0.661260 -0.092613 -0.666146 -0.085390 -0.515821 0.585459 -0.057259 -0.166723 0.158479 -0.436436 0.007432 -0.068654 -0.253819 0.338816 -0.131943
sent_86 0.363667 -0.046967 0.241577 0.003053 0.048506 0.604799 0.314315 -0.248519 0.621005 -0.181909 0.134199 -0.456715 0.021148 0.187290 -0.916252 -0.190764 -0.502957 -0.290684 -0.198096 -0.051352
sent_87 0.674342 0.096822 -0.599850 -0.054959 -1.064666 -0.859872 0.530152 1.025097 -0.260365 -0.630755 -0.498936 -0.354575 0.611187 -0.500666 0.833354 0.435335 -0.475281 0.125426 0.100127 0.515038
sent_88 0.227949 0.025898 0.242966 -0.086556 0.070852 0.617496 0.230862 -0.351294 0.654480 -0.246637 0.116529 -0.387791 -0.017661 0.333350 -0.859250 -0.118244 -0.491084 -0.306161 -0.218532 0.057919
sent_89 0.623264 -0.209420 0.172913 0.785993 0.403312 0.466577 0.321864 -0.540580 0.253213 -0.137174 0.246217 -0.778330 -0.386788 0.557451 -0.339885 0.196053 0.015314 -0.478408 0.106014 0.281047
sent_90 0.373296 -0.386506 0.233213 0.739440 0.679843 0.671564 0.326152 -0.295733 0.210991 -0.184532 0.308565 -0.810695 -0.085876 0.435120 -0.416478 -0.068335 -0.226465 -0.492901 -0.119425 0.494401
sent_91 0.088089 -0.434739 0.182761 0.672693 -0.344819 -0.007912 0.187513 0.449003 0.533022 -0.303842 -0.237655 0.230726 0.323791 0.151380 -0.039719 0.203413 -0.307571 -0.159334 -0.045997 0.019940
sent_92 0.225872 -0.216381 0.742295 0.029940 0.239702 0.423534 0.527587 0.108907 0.524838 -0.213541 -0.355611 -0.141631 -0.206528 -0.192874 -0.335752 -0.457020 -0.554506 0.163794 -0.155904 0.821375
sent_93 0.292819 -0.327139 0.288487 0.579945 0.623512 0.649254 0.268489 -0.300361 0.227538 -0.159531 0.365559 -0.728492 -0.166226 0.369681 -0.526266 -0.070480 -0.294289 -0.403526 -0.120339 0.584025
sent_94 0.397581 0.153200 0.240133 0.717297 0.258112 0.553540 0.149274 -0.439214 0.618850 0.063784 0.512883 -0.636339 -0.502954 0.483544 -0.462393 0.212016 -0.246732 0.097449 -0.072860 0.063301
sent_95 0.196940 -0.121954 0.477642 -0.662357 0.248904 0.401752 0.340658 -0.172910 0.358287 0.566906 -0.110524 0.361027 -0.049427 -0.192579 -0.677066 -0.691899 -0.325994 0.411919 -0.449013 0.265958
sent_96 0.623314 0.131462 0.541417 0.060942 -0.362150 -0.091887 -0.004315 0.595876 0.674804 0.544644 0.820881 -0.098723 -0.154692 0.728627 0.296103 0.220230 -0.405165 0.024125 -1.072102 0.186091
sent_97 0.449708 0.132044 -0.234930 -0.977163 -0.273074 0.171304 0.375020 0.101810 -0.163083 -0.395244 0.435526 -0.610232 -0.079187 -0.463113 0.389067 -0.000135 -0.345740 -0.050309 0.434390 0.629986
sent_98 -0.273838 -0.163162 -0.223236 -0.356473 -0.768120 -0.213277 -0.973062 0.527616 0.316002 -0.673348 1.409589 -0.247833 0.906699 0.284491 0.025316 1.005892 -0.299530 -0.692887 0.684475 0.058254
sent_99 -0.174012 -0.169988 -0.595077 0.240184 -0.644415 -0.171274 -0.563828 0.386413 -0.125637 -0.599264 0.768811 -0.178443 1.016782 0.430708 -0.356597 1.086348 -0.287481 -0.229887 0.300266 -0.171154
sent_100 0.197852 -0.379418 -1.007001 0.636686 -0.821664 0.438084 -0.114998 0.970253 0.097287 0.005604 0.333433 -0.092168 -0.369375 0.525269 0.430971 -0.916614 0.155756 0.629661 -0.701883 0.094242
sent_101 0.322536 -0.520798 0.412586 -0.237984 -0.367419 -0.117977 -0.082664 0.681616 -0.166896 -0.262653 -0.634623 0.532124 0.354020 -0.079138 0.064472 -0.455409 -0.776451 0.000681 0.426230 0.505828
sent_102 0.600525 -0.390608 -0.074955 0.296136 0.094414 0.216378 0.268429 0.258057 0.072345 -0.586753 0.151288 -0.184167 -0.519863 0.346110 -0.328171 -0.428507 -0.608624 -0.465892 -0.077303 0.920759
sent_103 -0.427284 -0.074185 -0.719979 0.109561 -0.842763 -0.410606 -0.786837 0.432575 0.129764 -0.649800 0.799960 -0.070627 1.276288 0.360285 0.116751 0.737879 -0.505044 -0.563603 0.492419 0.012424
sent_104 0.111395 -0.267240 0.498136 0.960172 -0.248478 -0.555547 0.396483 0.642359 0.049415 0.459845 -0.636285 -0.113387 -0.177667 -0.248918 0.029827 0.754280 -0.104853 0.645654 -0.267509 -0.041551
sent_105 0.418655 0.286053 0.365270 1.007959 0.280950 0.288482 0.126933 -0.479464 0.633627 0.121182 0.354705 -0.661150 -0.685876 0.525771 -0.062607 0.313820 -0.119458 0.097794 -0.048097 -0.108954
sent_106 0.544368 -0.285406 0.405491 0.167747 -0.338177 -0.269780 -0.296972 0.559786 0.224873 0.642973 -0.053010 0.684165 0.268910 0.071446 0.636269 0.170213 -0.117300 -0.124672 0.328322 0.128548
sent_107 0.395619 0.197932 0.281836 0.803432 0.262152 0.548604 0.111764 -0.562423 0.657353 0.074599 0.524529 -0.677310 -0.514145 0.518545 -0.423984 0.204182 -0.219902 0.091210 -0.052746 -0.018616
sent_108 0.303760 -0.146482 0.329388 0.230516 0.535836 0.565405 0.354697 -0.241819 0.514248 -0.122132 0.392099 -0.511203 -0.431572 0.296760 -0.920435 -0.271260 -0.642377 -0.250660 -0.222072 0.621045
sent_109 0.575896 -0.377139 -0.088622 0.296110 0.122227 0.229334 0.271454 0.248751 0.076359 -0.548065 0.145885 -0.174636 -0.507286 0.328011 -0.314232 -0.403421 -0.583794 -0.459667 -0.063877 0.912466
sent_110 0.501747 0.186122 -0.201453 -0.959974 -0.266990 0.158145 0.350150 0.179548 -0.179282 -0.379577 0.455339 -0.603585 -0.119638 -0.529193 0.359975 0.004444 -0.423209 -0.013587 0.422995 0.593571
sent_111 0.680438 0.122410 -0.657106 -0.096340 -1.025423 -0.814665 0.524478 0.846764 -0.328484 -0.769090 -0.480085 -0.244877 0.711415 -0.509780 0.769819 0.544194 -0.293525 0.162033 0.142897 0.448649
sent_112 0.618489 0.355620 -0.196235 0.095472 -0.896708 -0.628222 0.073082 -0.702123 1.165427 0.569661 0.551144 0.197501 0.156783 -0.319740 1.412439 0.234718 0.498449 -0.480836 -0.110653 0.495080
sent_113 0.128977 0.073767 0.389008 0.679153 0.472336 0.626273 0.257131 -0.263006 0.698525 -0.114210 0.345328 -0.720952 -0.143781 0.535374 -0.522366 -0.066975 -0.491006 -0.036358 -0.329549 0.135136
sent_114 0.159251 -0.406909 -1.018239 0.645446 -0.788017 0.463527 -0.073161 0.929600 0.076919 0.002053 0.305095 -0.110746 -0.346880 0.513192 0.416312 -0.878770 0.189300 0.578822 -0.664121 0.084949
sent_115 0.419182 0.090155 -0.061849 -1.032840 -0.148388 -0.039712 0.030521 0.151264 -0.291590 -0.476584 0.517409 -0.652945 -0.105180 -0.675049 0.417353 -0.062236 -0.405012 -0.051966 0.276432 0.384378
sent_116 -0.002259 0.037454 -0.715652 0.391086 -0.887986 -0.289083 -0.777691 0.319512 0.456612 -0.373377 1.052796 0.113260 0.548063 0.165746 0.361257 0.420202 -0.426381 -0.124967 0.046699 0.251478
sent_117 0.271427 -0.134752 0.378279 0.204164 0.545685 0.580164 0.293362 -0.261977 0.504998 -0.144960 0.350315 -0.511976 -0.408683 0.290714 -0.870079 -0.225538 -0.594549 -0.238910 -0.192996 0.615802
sent_118 -0.365946 0.056858 0.130994 -0.268677 -0.476088 -0.325127 0.176761 -0.831377 0.413799 -0.266013 0.159877 0.123483 0.790862 -0.088628 -0.179525 0.110365 -0.541413 -0.077779 0.273377 -0.305035
sent_119 0.619673 -0.017118 -0.675181 0.006817 -0.101670 0.731675 -0.134818 -0.721338 -0.093275 -0.597475 0.632897 -0.016843 -0.206302 0.197500 -0.464727 0.045103 -0.042692 -0.323241 0.402916 -0.121356
sent_120 0.837451 0.173373 -0.399081 0.453230 -0.635732 -0.770131 0.447144 0.862803 -0.192021 -0.603465 -0.073329 0.184600 0.747578 0.736959 0.756514 0.066099 -0.818366 0.091376 -0.163598 0.258620
sent_121 -0.022080 0.337811 -0.853758 0.153648 -0.410446 0.016983 0.024680 -0.164936 0.841371 0.173277 0.599445 -0.010374 0.412477 -0.189171 0.073352 0.368028 -0.101096 0.123651 -0.062871 -0.476973
sent_122 0.518178 -0.234692 0.312155 0.746584 0.418139 0.378308 0.103665 -0.499224 0.190527 -0.239877 0.264375 -0.831300 -0.344501 0.306903 -0.290801 0.173593 0.008379 -0.412598 0.074814 0.125659
sent_123 0.136170 -0.068271 0.501288 -0.652443 0.216102 0.489374 0.258918 -0.168526 0.479193 0.560998 -0.138088 0.438240 -0.027892 -0.223546 -0.688305 -0.607312 -0.352767 0.430189 -0.459529 0.344860
sent_124 0.410647 0.181013 -0.191045 -0.941848 -0.221308 0.122152 0.322832 0.091643 -0.238326 -0.353132 0.449982 -0.606583 -0.137871 -0.444149 0.359411 -0.006582 -0.344920 -0.016691 0.373314 0.536157
sent_125 0.344116 -0.067334 0.320420 0.882344 -0.396653 -0.546265 0.253780 0.255684 0.366057 0.706370 -0.672497 0.244312 -0.214858 -0.108273 -0.006058 0.342106 -0.037251 0.446873 -0.223980 -0.125897
sent_126 0.606314 0.144703 0.168758 -0.020151 -0.002716 0.526343 0.140994 -0.476429 0.529709 -0.000134 0.250074 -0.369323 -0.463121 0.370868 -0.898152 0.092907 -0.326014 -0.125013 -0.029270 0.118741
sent_127 0.543670 -0.331649 -0.027933 0.234488 -0.316781 -0.681441 0.630975 0.329537 -1.004412 0.286800 -1.045459 -0.281594 -0.082810 -0.114629 -0.007890 0.136777 0.183973 0.654726 0.216743 -0.045249
sent_128 0.651381 -0.394331 -0.076101 0.324918 0.198867 0.178749 0.272826 0.238401 0.056350 -0.505526 0.131828 -0.162728 -0.547008 0.359683 -0.344024 -0.439669 -0.622649 -0.469893 -0.077933 0.908751
sent_129 1.144564 -0.387664 0.013963 -0.071677 -0.437250 -0.317185 -0.400236 -0.199018 1.482557 0.725522 -0.286950 0.335815 -0.341464 -0.677503 0.639791 0.425541 0.209260 -0.309217 0.026229 0.292360
sent_130 0.430451 0.259284 0.178667 0.651715 0.062460 0.566008 0.167794 -0.524006 0.721789 0.076543 0.425240 -0.650216 -0.421067 0.528969 -0.463965 0.224718 -0.211588 0.063185 -0.038277 -0.123651
sent_131 0.591912 -0.172019 0.234127 0.747758 0.426759 0.477880 0.293810 -0.462336 0.160304 -0.131349 0.281640 -0.794867 -0.348987 0.518147 -0.295972 0.231869 0.039236 -0.433999 0.088507 0.367007
sent_132 0.691438 0.140172 0.148197 0.016322 -0.018528 0.431315 0.117312 -0.449950 0.497792 -0.033500 0.243060 -0.363426 -0.528692 0.285522 -0.881840 -0.015553 -0.386308 -0.108886 -0.020631 0.009012
sent_133 0.135162 -0.051538 0.426819 -0.620664 0.239490 0.380581 0.262226 -0.249853 0.334675 0.552170 -0.136551 0.381344 -0.119965 -0.112659 -0.678709 -0.525891 -0.297851 0.446020 -0.425440 0.262546
sent_134 0.686499 -0.012821 0.188827 0.262959 0.283105 0.406394 0.090009 -0.511536 0.412201 -0.128117 0.385484 -0.416285 -0.806837 0.298485 -0.819063 -0.001070 -0.461909 -0.117925 0.001707 0.401611
sent_135 0.324231 -0.350147 0.308624 0.728796 0.649501 0.699784 0.331253 -0.307179 0.190704 -0.228109 0.334436 -0.784233 -0.058280 0.380888 -0.407282 -0.055124 -0.218932 -0.483947 -0.078092 0.489926
sent_136 0.375162 -0.167704 0.305433 -0.169052 -0.089242 0.508114 0.007902 -0.057251 -0.146471 0.336781 0.065011 -0.306161 -0.254741 -0.207173 -0.889401 -0.054402 -0.348899 0.378690 -0.116872 0.000900
sent_137 0.557413 -0.218445 0.266347 0.807648 0.415338 0.497281 0.383160 -0.623080 0.142960 -0.156107 0.271302 -0.778150 -0.374206 0.541578 -0.298995 0.247433 0.077060 -0.497684 0.128740 0.242572
sent_138 0.256856 -0.205319 0.291433 0.383046 0.559731 0.627757 0.363938 -0.184213 0.314684 -0.158881 0.304927 -0.674778 -0.257606 0.361831 -0.703266 -0.105165 -0.400093 -0.319313 -0.163270 0.576990
sent_139 0.223939 -0.149515 0.755705 0.033921 0.216827 0.466124 0.521344 0.126874 0.472189 -0.242386 -0.348750 -0.131899 -0.179850 -0.220830 -0.290795 -0.388805 -0.530204 0.168859 -0.089539 0.872953
sent_140 0.381467 0.220019 0.276799 0.762834 0.246112 0.541706 0.197718 -0.531519 0.634006 0.093860 0.501935 -0.695976 -0.506064 0.583096 -0.431828 0.196702 -0.223396 0.104102 -0.092125 -0.007995
sent_141 -0.309399 0.036736 0.152093 1.048307 0.083984 -0.610552 0.308356 -0.391296 -0.171570 -0.064837 -0.190531 -0.718060 -0.011898 -0.571204 0.218179 0.866519 0.395477 0.068654 0.300192 -0.362117
sent_142 0.564436 -0.227840 0.337705 0.770344 0.477754 0.292119 0.082145 -0.502755 0.160233 -0.319266 0.219373 -0.800771 -0.433278 0.356555 -0.173795 0.133075 -0.034280 -0.469360 0.045251 0.146253
sent_143 0.645256 0.135859 0.120247 0.044651 -0.026019 0.481651 0.079312 -0.457223 0.533879 -0.052692 0.222931 -0.302123 -0.466453 0.296468 -0.815109 0.055452 -0.398154 -0.109261 -0.015918 0.155675
sent_144 0.575651 0.139246 0.537342 0.050722 -0.375685 -0.096715 0.054932 0.568919 0.600551 0.516970 0.834272 -0.119813 -0.207002 0.726659 0.329665 0.269604 -0.339144 -0.004019 -1.055840 0.227012
sent_145 0.286597 -0.040671 0.262058 -0.077984 0.050678 0.672367 0.194498 -0.312527 0.671032 -0.268680 0.120332 -0.371587 -0.011005 0.322257 -0.911134 -0.153356 -0.523253 -0.301888 -0.196997 0.095260
sent_146 0.077819 0.049930 0.318206 0.621478 0.425687 0.652449 0.260147 -0.248118 0.523809 -0.056050 0.370298 -0.700333 -0.159512 0.521452 -0.512875 0.030782 -0.374655 -0.005537 -0.252516 0.154345
sent_147 0.515165 -0.405105 0.612941 -0.037902 -0.056225 -0.644638 -0.188253 0.239274 -0.695045 0.401134 -0.599208 0.182560 -0.095249 -0.109409 -0.143930 -0.017092 -0.088868 0.126159 -0.308968 -0.171062
sent_148 0.396951 -0.321826 -0.069352 0.236525 0.587222 -0.060235 0.141330 -0.250381 -0.524317 -0.488626 -0.926895 0.051577 0.656279 0.280465 0.151751 0.064821 0.127387 -0.371397 0.211439 0.056158
sent_149 0.360008 0.049913 0.275861 0.689872 0.096278 -0.574939 0.367019 0.107306 -0.043626 0.608151 -0.894388 0.252150 -0.502121 -0.211364 -0.122481 0.048512 -0.005366 0.100815 0.062639 0.129751
sent_150 0.350248 -0.125414 0.282097 0.220039 0.543450 0.513836 0.296118 -0.253720 0.495121 -0.172573 0.345430 -0.445459 -0.467289 0.328224 -0.817872 -0.258030 -0.658704 -0.237151 -0.226545 0.613388
sent_151 0.381475 -0.092474 0.278035 0.274801 0.535933 0.547958 0.360110 -0.243510 0.493294 -0.129429 0.338383 -0.488302 -0.544170 0.278912 -0.903016 -0.288704 -0.686687 -0.212813 -0.184895 0.687416
sent_152 -0.664073 0.026195 0.269613 -0.470820 -0.103299 0.690432 -0.498177 0.317649 0.414235 0.443189 0.074194 0.877949 0.384747 -0.708593 -0.541188 -0.344122 -0.193211 0.548902 0.488222 0.190970
sent_153 0.291808 -0.218962 0.726763 0.029705 0.282480 0.397164 0.484321 0.145047 0.458820 -0.151762 -0.336443 -0.156417 -0.179900 -0.249917 -0.319645 -0.497476 -0.532344 0.171345 -0.156182 0.799079
sent_154 0.605795 -0.233739 0.229146 0.738091 0.428492 0.417743 0.331868 -0.544150 0.108592 -0.197378 0.211058 -0.826532 -0.415910 0.555166 -0.341801 0.181333 -0.011156 -0.489033 0.095576 0.232759
sent_155 0.388138 0.146988 0.283074 -0.775145 -0.264423 0.179007 0.320895 0.457668 -0.124034 -0.851842 0.410360 -0.421375 -0.169166 0.189388 -0.077240 -0.094449 -0.513831 -0.433300 0.417669 0.532094
sent_156 0.643001 -0.232334 0.207987 0.804749 0.399353 0.428070 0.301720 -0.537748 0.207594 -0.145033 0.266400 -0.813191 -0.399566 0.520193 -0.336770 0.155403 0.008205 -0.485180 0.088543 0.262778
sent_157 0.313908 -0.299994 0.363140 0.494758 0.561938 0.676723 0.234533 -0.351225 0.222863 -0.320699 0.329966 -0.713306 -0.145217 0.379988 -0.450114 -0.138701 -0.299098 -0.408576 -0.155853 0.385525
sent_158 0.261568 -0.232647 0.767940 0.034020 0.250527 0.435699 0.584510 0.160489 0.534522 -0.188333 -0.343059 -0.178390 -0.187850 -0.217844 -0.334876 -0.505953 -0.531856 0.190530 -0.138483 0.896756
sent_159 0.300458 -0.377145 0.335797 0.756119 0.734197 0.685980 0.334340 -0.336517 0.132599 -0.225276 0.299620 -0.899912 -0.070544 0.445787 -0.426716 0.005377 -0.173507 -0.468059 -0.079427 0.487167
sent_160 0.075013 -0.144627 0.721445 0.592886 -0.038251 -0.480540 -0.044565 0.454952 -0.230700 0.453705 -0.220558 -0.124148 -0.129461 -0.224380 -0.241493 0.263475 -0.401524 0.330364 -0.501733 -0.007869
sent_161 0.318820 -0.139491 0.353361 0.997239 -0.773186 -0.713634 0.012736 -0.037320 0.530997 0.810671 -1.063013 0.168273 -0.075611 -0.176483 -0.146705 0.427405 -0.118167 0.360576 -0.376723 -0.385317
sent_162 0.069440 -0.091439 0.467760 -0.659010 0.256130 0.405339 0.313988 -0.264945 0.362870 0.556036 -0.118716 0.382915 -0.061794 -0.176211 -0.657477 -0.574977 -0.298279 0.437965 -0.433101 0.264576
sent_163 0.273588 -0.187301 0.650706 -0.029906 0.219066 0.341648 0.474971 0.099653 0.386361 -0.220622 -0.322962 -0.146302 -0.240182 -0.114905 -0.318932 -0.424416 -0.501340 0.145854 -0.167162 0.753394
sent_164 0.568393 -0.227861 0.174536 0.711488 0.370866 0.493494 0.345031 -0.553262 0.199194 -0.098973 0.306731 -0.750682 -0.338653 0.576016 -0.308057 0.191464 0.057849 -0.460531 0.125533 0.304372
sent_165 0.241438 -0.310404 0.295797 0.546133 0.539085 0.659778 0.303695 -0.281437 0.176067 -0.173465 0.343040 -0.719229 -0.093443 0.364690 -0.508082 -0.032515 -0.232914 -0.374641 -0.074016 0.486743
sent_166 0.629477 -0.699699 -0.052761 0.368409 -0.152145 0.386769 -0.248539 -0.387930 -0.399601 -0.241426 0.167922 0.085196 -0.377907 -0.123318 -0.209079 -0.192322 0.108296 -0.217155 0.384912 -0.412620
sent_167 0.166837 -0.054668 0.430278 -0.608703 0.288187 0.367726 0.265039 -0.219926 0.350346 0.553626 -0.149652 0.388653 -0.067011 -0.153894 -0.660292 -0.563672 -0.308826 0.418643 -0.432393 0.222829
sent_168 0.102770 -0.055480 0.393875 -0.609975 0.272649 0.376408 0.225137 -0.204043 0.408630 0.498449 -0.161447 0.421716 -0.071521 -0.106317 -0.635036 -0.541202 -0.281822 0.402253 -0.420797 0.250924
sent_169 0.462489 0.141807 0.211836 0.657163 0.180344 0.564898 0.143796 -0.514580 0.603534 0.034553 0.473395 -0.582671 -0.522876 0.502736 -0.469863 0.210024 -0.237347 0.010315 -0.043804 0.044101
sent_170 0.366834 -0.246252 0.559275 0.288670 -0.094189 -0.781747 -0.134467 -0.119308 -0.706949 0.062535 -0.923147 -0.077908 -0.139756 -0.387528 -0.181979 0.031446 -0.266579 0.372178 -0.208489 -0.075382
sent_171 0.618503 -0.070209 -0.671834 0.009568 -0.089655 0.686539 -0.099190 -0.673499 -0.118377 -0.511833 0.594088 -0.076271 -0.176493 0.178257 -0.435752 0.009718 -0.023073 -0.295341 0.380687 -0.115153
sent_172 0.210388 -0.190457 0.768201 -0.008355 0.260083 0.423521 0.596744 0.101590 0.518216 -0.202698 -0.356257 -0.162305 -0.243233 -0.174050 -0.323537 -0.475144 -0.535276 0.196839 -0.128399 0.871981
sent_173 0.657423 0.006488 0.159807 0.245215 0.274440 0.383943 0.143634 -0.472363 0.377360 -0.078905 0.355956 -0.410492 -0.758271 0.304580 -0.873682 -0.003104 -0.455740 -0.106135 -0.037891 0.349912
sent_174 0.299283 0.033546 0.227493 -0.039373 0.055511 0.660379 0.226941 -0.281252 0.684937 -0.226479 0.125735 -0.374403 0.013046 0.298784 -0.913107 -0.169775 -0.539053 -0.281247 -0.225990 0.031498
sent_175 0.512749 0.152517 -0.202529 -1.014748 -0.272683 0.170448 0.353484 0.164059 -0.210772 -0.357404 0.479028 -0.626259 -0.110923 -0.478792 0.387110 -0.017928 -0.360836 -0.020170 0.439388 0.623484
sent_176 0.280969 0.039583 0.236846 -0.082331 0.029104 0.651888 0.286624 -0.259675 0.634753 -0.261805 0.131089 -0.399865 -0.037687 0.293431 -0.874207 -0.131100 -0.523965 -0.274770 -0.156420 0.053887
sent_177 0.211606 -0.179824 0.727253 0.021752 0.210611 0.382395 0.557890 0.085461 0.489664 -0.204814 -0.331775 -0.166226 -0.189154 -0.185242 -0.322720 -0.463622 -0.505583 0.163824 -0.143148 0.818640
sent_178 0.613358 -0.420292 -0.110488 0.324156 0.122213 0.224482 0.191361 0.251788 0.100465 -0.618422 0.130536 -0.125297 -0.523264 0.295154 -0.342965 -0.400205 -0.655367 -0.449458 -0.088474 0.967284
sent_179 0.377066 0.076799 -0.331343 0.047587 0.125206 0.583380 -0.140795 -0.664332 -0.167078 -0.554131 0.420795 -0.201810 -0.304897 -0.055147 -0.752377 0.180519 -0.029009 -0.086383 0.364288 -0.447180
sent_180 0.413381 0.044183 0.350711 0.056154 -0.036018 0.602336 0.163878 -0.115767 0.663703 -0.072019 0.062170 -0.177391 0.085775 0.244390 -0.785958 -0.124756 -0.639185 -0.145503 0.051823 0.080382
sent_181 0.138133 -0.146516 0.433802 -0.629323 0.292426 0.381610 0.250498 -0.208274 0.402982 0.500004 -0.126753 0.363461 -0.038399 -0.160502 -0.633309 -0.628368 -0.314594 0.387424 -0.432414 0.230862
sent_182 0.661360 -0.006759 -0.627072 0.013563 -0.074278 0.671605 -0.043978 -0.629076 -0.040109 -0.519654 0.642581 0.030979 -0.171764 0.109704 -0.427344 -0.060881 -0.014166 -0.281988 0.433904 -0.193300
sent_183 0.438180 0.216341 0.216782 0.727076 0.187182 0.501869 0.172668 -0.497821 0.676267 0.105568 0.474746 -0.628349 -0.520135 0.472871 -0.429948 0.170586 -0.250021 0.050241 -0.038440 -0.012541
sent_184 0.383891 0.067320 -0.457913 -0.032544 0.055810 0.660690 0.000574 -0.622694 -0.092877 -0.464165 0.384274 -0.222078 -0.216995 0.135195 -0.859586 0.236700 -0.020031 -0.142263 0.331371 -0.265936
sent_185 0.672990 0.151489 0.105349 0.003931 -0.071824 0.470594 0.119964 -0.527903 0.540917 -0.042167 0.222794 -0.377244 -0.602626 0.377586 -0.939366 0.062684 -0.388669 -0.103362 -0.010549 0.084205
sent_186 0.653479 -0.030717 -0.709658 -0.017497 -0.054523 0.714846 -0.113347 -0.664198 -0.066427 -0.513506 0.602881 0.055247 -0.189968 0.198707 -0.462996 0.029977 -0.034707 -0.286262 0.388907 -0.128812
sent_187 0.398021 -0.029560 0.288038 -0.130314 0.162573 0.207393 -0.162316 -0.269658 0.310367 -0.263341 0.086558 -0.243722 -0.070472 0.214935 -0.529852 -0.290464 -0.516557 -0.289231 -0.319683 -0.192315
sent_188 0.583780 -0.236306 0.566918 0.136607 -0.532867 -0.743908 0.166100 0.379586 -0.874643 0.501464 -0.513111 0.143673 0.111038 0.045410 -0.035715 0.395440 0.005256 0.373768 -0.075584 0.031321
sent_189 0.125885 -0.054213 0.551025 -0.553610 0.157592 0.306301 0.197012 -0.075932 0.344469 0.619347 -0.121168 0.517807 -0.003705 -0.104359 -0.611932 -0.488245 -0.356610 0.555726 -0.208193 0.186495
sent_190 0.673814 -0.378327 -0.070744 0.366572 0.166038 0.226654 0.227286 0.257686 0.099064 -0.557449 0.155957 -0.149637 -0.520700 0.291581 -0.322423 -0.470663 -0.664491 -0.463691 -0.074907 0.942816
sent_191 0.352834 -0.319373 0.276289 0.358122 0.161029 -0.439791 0.167807 0.265888 -0.047602 0.312556 -0.455445 -0.056767 -0.077071 0.011495 -0.038931 -0.141548 -0.139056 0.262626 -0.296334 -0.311266
sent_192 0.410698 -0.139577 0.266798 0.231646 0.527879 0.553035 0.285975 -0.195083 0.487420 -0.078018 0.411974 -0.446302 -0.430433 0.287816 -0.854759 -0.321874 -0.667220 -0.238970 -0.201964 0.620964
sent_193 0.340822 0.120528 -0.444552 -0.001389 0.090634 0.584544 0.004694 -0.664069 -0.159774 -0.470643 0.379333 -0.185522 -0.288437 0.083380 -0.835901 0.196242 0.012826 -0.132130 0.296264 -0.329986
sent_194 0.388747 -0.070939 0.043053 0.332919 -0.138931 0.393333 -0.201164 -0.348729 0.005326 -0.062833 0.087079 -0.460670 -0.075452 0.015343 -0.689210 0.224066 -0.199144 -0.077770 0.092789 0.006451
sent_195 0.412118 0.132938 -0.191127 -0.984523 -0.264312 0.120965 0.307853 0.102496 -0.207841 -0.423537 0.433800 -0.605617 -0.107844 -0.511336 0.381316 0.026561 -0.363618 -0.030997 0.396933 0.592084
sent_196 0.674490 -0.421636 -0.036526 0.366927 0.125108 0.209016 0.227084 0.321673 0.124486 -0.559857 0.168095 -0.155650 -0.498835 0.277018 -0.315505 -0.490847 -0.669262 -0.472283 -0.063197 0.967037
sent_197 0.749716 -0.108683 0.060046 0.748168 -0.855190 -0.389749 0.131163 0.442907 -0.144478 -0.679923 -0.284492 -0.120255 0.483362 0.610017 0.378280 0.160334 -0.676178 -0.278539 0.289647 0.269630
sent_198 0.421220 0.083570 -0.476524 0.005937 0.049306 0.638204 -0.030484 -0.680424 -0.143612 -0.467684 0.421182 -0.189569 -0.233502 0.070176 -0.774917 0.190140 -0.002848 -0.141940 0.340007 -0.275364
sent_199 0.460299 0.000083 0.331444 0.565148 0.138103 0.221328 -0.188084 -0.610974 0.338624 -0.272434 0.489304 -0.332701 -0.428774 0.371308 0.071850 0.029175 -0.202017 -0.152801 -0.042402 -0.357450
sent_200 -0.298708 -0.125446 -0.387283 -0.202567 -0.709949 -0.266453 -0.829231 0.612260 0.304732 -0.741807 1.416086 -0.238099 0.845791 0.368440 0.148312 0.904077 -0.321278 -0.661321 0.504294 0.108834
sent_201 0.537887 0.122661 0.693117 0.789660 0.076932 -0.361131 0.276365 -0.104926 0.339359 0.444964 -0.899200 -0.272627 -0.081562 0.202244 0.245977 0.339525 -0.216156 0.559633 0.469792 -0.077509
sent_202 -0.374258 0.011200 -0.501914 0.513951 -0.470676 -0.189970 -0.562895 0.105736 0.693535 0.022698 0.642636 0.185465 0.040288 0.086357 0.386992 0.330650 0.084597 -0.290393 0.166737 0.166653
sent_203 0.207201 -0.204395 0.724171 -0.018596 0.279276 0.379569 0.486966 0.113171 0.430087 -0.174978 -0.334904 -0.178357 -0.204548 -0.181488 -0.298569 -0.436754 -0.473033 0.231085 -0.208436 0.773125
sent_204 0.104226 -0.031614 0.402396 -0.631950 0.284623 0.334418 0.252307 -0.275383 0.320816 0.492767 -0.142888 0.378901 -0.097981 -0.092666 -0.583070 -0.506836 -0.233629 0.406404 -0.423607 0.224768
sent_205 0.292271 -0.321476 0.312251 0.571531 0.600167 0.657304 0.247012 -0.310825 0.190909 -0.212978 0.344774 -0.766115 -0.148536 0.349750 -0.469314 -0.008428 -0.272327 -0.397261 -0.095363 0.492588
sent_206 0.236693 -0.144011 0.482301 -0.249135 -0.022515 0.505300 -0.306728 -0.006080 -0.143721 0.185399 0.090391 -0.445615 -0.149585 -0.350723 -0.912884 0.023703 -0.377382 0.412368 -0.252252 -0.103330
sent_207 0.598444 0.072568 0.176400 0.033814 0.042443 0.280983 -0.096619 -0.448219 0.446698 -0.181937 0.215019 -0.326648 -0.544682 0.156183 -0.699834 -0.056241 -0.392989 -0.137449 -0.060489 -0.055953
sent_208 0.323810 -0.121060 0.268328 -0.227082 -0.058313 0.502689 -0.001708 -0.058740 -0.135584 0.338490 0.048291 -0.286282 -0.259019 -0.133036 -0.886958 -0.026051 -0.292245 0.419523 -0.134056 0.051302
sent_209 0.415821 -0.193047 0.338146 0.517575 -0.157459 -0.386772 -0.072618 0.248027 -0.090844 0.357281 -0.246395 0.039077 0.069280 0.063271 -0.095944 -0.030381 -0.309526 0.206995 -0.457709 -0.271377
sent_210 0.437742 0.186596 0.243813 0.703552 0.246679 0.472006 0.160277 -0.494933 0.600530 0.076413 0.471343 -0.657939 -0.525547 0.500814 -0.431596 0.164506 -0.217769 0.040671 -0.051466 -0.024231
sent_211 0.891714 0.166847 0.377394 0.499546 -0.343163 -0.400683 0.049326 0.221458 -0.491437 0.466626 -0.663648 0.073472 0.242241 0.072002 0.303565 0.208074 -0.271020 0.818663 0.358873 0.208664
sent_212 0.229908 -0.462505 -0.255562 -0.630213 -0.105265 -0.719046 0.169497 0.666524 -0.202646 -0.179179 -0.696192 -0.102636 0.328376 -0.992129 0.528831 -0.453381 -0.067637 -0.133796 0.009215 0.269497
sent_213 0.398849 0.152822 0.287105 -0.738487 -0.217625 0.206011 0.305360 0.463771 -0.118098 -0.858763 0.385562 -0.389541 -0.113610 0.160357 -0.069681 -0.058666 -0.538355 -0.388931 0.429091 0.522449
sent_214 0.617514 -0.251949 0.242342 0.816441 0.379044 0.484660 0.340142 -0.568439 0.168149 -0.170695 0.271375 -0.804099 -0.351100 0.527883 -0.274405 0.180045 0.049657 -0.496956 0.154170 0.229906
sent_215 0.267000 -0.154553 0.854850 0.073430 0.196082 0.438661 0.466191 0.181546 0.548809 -0.102739 -0.352338 -0.019433 -0.104951 -0.178066 -0.278845 -0.438488 -0.607364 0.287490 0.126853 0.837982
sent_216 -0.621803 -0.105708 0.130465 0.062915 0.021590 0.112160 -0.017413 0.395416 0.287264 1.665177 -0.265572 0.241898 -0.143359 -0.107751 -0.443842 0.375282 0.451710 0.316885 0.764421 0.054635
sent_217 0.213740 -0.079721 0.713468 -0.001603 0.182728 0.363036 0.481852 0.115587 0.381229 -0.219799 -0.297660 -0.152060 -0.217111 -0.193479 -0.294294 -0.412925 -0.499322 0.200142 -0.098705 0.752858
sent_218 0.814900 -0.043558 -0.584776 0.627415 -1.164669 -0.266272 -0.078856 0.302113 -0.452379 0.238004 0.215583 -0.110211 0.555390 0.030434 1.224437 0.739087 0.184473 0.316816 0.830497 0.294527
sent_219 0.375413 0.165652 0.292358 0.878819 0.154596 0.361056 0.324739 -0.533218 0.574489 0.068893 0.312120 -0.632928 -0.570509 0.520484 -0.182851 0.239692 -0.020191 0.210898 -0.118100 -0.259131
sent_220 0.277918 -0.281647 0.315877 0.638770 0.611237 0.688498 0.372426 -0.296249 0.164953 -0.212596 0.289854 -0.775277 -0.048681 0.459594 -0.425809 0.001298 -0.203008 -0.478585 -0.061880 0.462351
sent_221 0.060146 -0.142860 -0.717295 0.086806 -0.808113 -0.260094 -0.703221 0.410842 0.238100 -0.555953 0.935642 -0.104870 0.873742 0.296223 0.149636 0.659071 -0.526540 -0.453498 0.463558 -0.009097
sent_222 0.293902 -0.111212 0.260691 0.207555 0.497586 0.539430 0.357567 -0.238360 0.442217 -0.126431 0.324285 -0.452587 -0.456677 0.283553 -0.870557 -0.187471 -0.594693 -0.210959 -0.185809 0.622347
sent_223 0.613940 0.132489 0.068812 -0.030799 -0.035829 0.455993 0.126954 -0.431642 0.439661 -0.013078 0.234237 -0.330191 -0.460766 0.402527 -0.875952 0.030177 -0.352425 -0.089171 -0.031866 0.089048
sent_224 0.620600 -0.056347 -0.645449 0.009509 -0.090658 0.644947 -0.089771 -0.622729 -0.053969 -0.504344 0.571553 -0.025457 -0.216264 0.206437 -0.424279 -0.003504 -0.047045 -0.276950 0.354733 -0.125027
sent_225 0.630083 -0.023769 -0.597952 0.007440 -0.041925 0.602157 -0.067146 -0.600189 -0.056024 -0.444677 0.545829 -0.017149 -0.176589 0.114072 -0.409407 -0.068569 -0.088925 -0.268463 0.365352 -0.145166
sent_226 0.423242 0.162198 0.257126 0.716613 0.272032 0.545726 0.135596 -0.489747 0.634369 0.104658 0.515749 -0.613045 -0.467585 0.476562 -0.443756 0.164373 -0.251505 0.064436 -0.091495 0.069441
sent_227 0.289268 -0.025114 0.224458 -0.066342 0.071844 0.593121 0.125686 -0.281812 0.635400 -0.280666 0.136707 -0.347755 0.002385 0.279942 -0.839119 -0.164425 -0.530371 -0.280144 -0.209884 0.026456
sent_228 0.655707 0.017022 0.221106 0.221172 0.229030 0.388524 0.102739 -0.583909 0.364876 -0.135941 0.337556 -0.412052 -0.808217 0.350161 -0.834280 -0.010886 -0.446179 -0.126397 0.002975 0.354392
sent_229 0.634902 -0.185360 0.207884 0.745925 0.378059 0.430505 0.322363 -0.536078 0.179410 -0.135707 0.268941 -0.729639 -0.365869 0.540017 -0.272072 0.156254 -0.005431 -0.460972 0.077422 0.271525
sent_230 0.292366 -0.312572 0.265101 0.579904 0.576239 0.660766 0.269378 -0.278480 0.281115 -0.186435 0.357049 -0.763957 -0.113189 0.386790 -0.450259 -0.088975 -0.259718 -0.406704 -0.096822 0.505640
sent_231 0.119361 -0.002697 0.379145 -0.635836 0.320505 0.311860 0.275843 -0.224306 0.317051 0.517596 -0.155242 0.405481 -0.066927 -0.038360 -0.571826 -0.552706 -0.254710 0.369777 -0.435494 0.186164
sent_232 0.234641 -0.185958 0.761003 0.021075 0.212005 0.388324 0.534939 0.080074 0.491101 -0.210542 -0.336076 -0.171879 -0.225576 -0.214125 -0.309463 -0.449988 -0.504846 0.178995 -0.150512 0.798453
sent_233 0.608901 -0.088841 -0.696042 0.035745 -0.077650 0.649780 -0.112067 -0.666913 -0.088160 -0.547381 0.580206 -0.003784 -0.189499 0.151054 -0.441112 -0.008162 -0.004683 -0.256285 0.377766 -0.154463
sent_234 0.176051 -0.163991 0.677685 0.016724 0.226036 0.375488 0.449434 0.094458 0.425059 -0.250535 -0.318186 -0.152285 -0.190835 -0.201687 -0.297510 -0.382574 -0.464226 0.163554 -0.133083 0.725935
sent_235 0.321791 -0.180378 0.708650 0.041500 0.185080 0.395019 0.521368 0.154843 0.450523 -0.197407 -0.328076 -0.166060 -0.203080 -0.249782 -0.294085 -0.466002 -0.555968 0.184804 -0.163594 0.770055
sent_236 0.467962 -0.323119 0.528893 -0.174558 -0.275450 -0.743830 0.240578 0.353621 0.224198 -0.018425 -0.402184 0.175449 0.291385 -0.024746 0.401324 0.460999 -0.149524 -0.438952 -0.428467 0.168376
sent_237 0.297104 -0.374799 0.281145 0.703393 0.669248 0.668169 0.360740 -0.312627 0.119429 -0.206051 0.308229 -0.812126 -0.051002 0.470378 -0.350305 0.016941 -0.141385 -0.479984 -0.054818 0.463161
sent_238 -0.493179 0.128577 0.203267 -0.093911 -0.523079 -0.363707 0.244568 -0.611435 0.478132 -0.230214 0.310881 0.050516 0.835396 -0.006501 -0.056809 0.265461 -0.521095 -0.018525 0.174765 -0.363065
sent_239 0.288162 -0.190441 0.734166 0.076196 0.208274 0.390553 0.428092 0.171917 0.529992 -0.084802 -0.333983 0.001791 -0.116126 -0.186569 -0.285899 -0.426655 -0.608683 0.254659 0.046448 0.760190
sent_240 0.369459 0.008494 0.228648 -0.033777 0.058616 0.644072 0.227383 -0.254188 0.632407 -0.207270 0.163110 -0.342013 0.029647 0.258712 -0.831539 -0.195685 -0.560075 -0.314592 -0.196375 0.052922
sent_241 0.683367 0.358811 -0.257964 0.132999 -0.892750 -0.535454 0.182512 -0.688358 1.187942 0.592310 0.543076 0.230285 0.268968 -0.318094 1.307682 0.179524 0.496192 -0.505484 -0.095078 0.509181
sent_242 0.526271 -0.342269 -0.013399 0.207914 -0.002466 -0.543963 0.416351 0.070913 -0.643061 0.503486 -1.347979 -0.209819 -0.325720 -0.408082 -0.005352 -0.123320 0.328320 0.518429 0.172591 -0.074307
sent_243 0.429104 0.177044 -0.165501 -0.983937 -0.199890 0.119247 0.300376 0.131788 -0.248272 -0.377916 0.455786 -0.613366 -0.106245 -0.522862 0.387802 -0.018863 -0.359527 -0.049832 0.391289 0.553339
sent_244 0.163512 -0.418654 -0.890422 0.640509 -0.736004 0.250817 -0.382398 0.942152 0.063180 -0.078403 0.388456 -0.058531 -0.363795 0.413206 0.607931 -0.951123 0.142588 0.594376 -0.759796 -0.037751
sent_245 0.563301 -0.516289 0.088736 0.242187 0.187235 0.058047 -0.114498 0.247700 0.034755 -0.707945 0.155025 -0.100426 -0.514172 0.104533 -0.122033 -0.501208 -0.648678 -0.441389 -0.175957 0.849328
sent_246 0.494331 0.174852 0.205990 -0.620472 -0.268481 0.250202 0.083170 0.412526 -0.002315 -0.502507 0.304092 -0.260279 -0.119064 0.099325 0.038054 -0.100179 -0.551970 -0.158914 0.442484 0.557680
sent_247 0.308614 -0.039917 0.214879 -0.078574 0.052432 0.667419 0.175970 -0.286136 0.685441 -0.221770 0.130328 -0.420981 0.001128 0.342616 -0.917961 -0.154835 -0.501539 -0.296432 -0.209411 0.051782
sent_248 0.296765 -0.319877 0.346533 0.664557 0.639158 0.732552 0.312818 -0.305126 0.123741 -0.257842 0.313882 -0.829767 -0.079501 0.445061 -0.383795 -0.012351 -0.177504 -0.480279 -0.057534 0.412735
sent_249 0.287597 -0.166627 0.278767 -0.231141 -0.096592 0.583492 -0.049514 -0.075270 -0.076342 0.294669 0.050274 -0.326826 -0.215964 -0.164342 -0.945673 0.002937 -0.325572 0.392338 -0.146306 0.025145
sent_250 0.631118 -0.008086 0.181453 0.213290 0.246354 0.416509 0.183572 -0.584870 0.354977 -0.027894 0.395729 -0.443648 -0.826463 0.380042 -0.860671 0.020271 -0.376223 -0.126556 -0.041652 0.345323
sent_251 0.413145 0.062646 -0.441367 0.009969 0.059412 0.685792 0.003014 -0.610141 -0.167640 -0.453641 0.383375 -0.208015 -0.274747 0.169998 -0.842967 0.218317 -0.020363 -0.096642 0.311497 -0.268570
sent_252 -0.733611 -0.451636 -0.499698 0.068228 -0.072585 0.005491 -0.550626 -0.365980 0.321322 -0.076595 0.549191 -0.000707 0.369341 -0.074135 -0.430989 0.550595 0.534515 -0.374926 0.087846 -0.659822
sent_253 0.524510 0.116068 0.505306 0.088188 -0.387589 -0.091877 0.042154 0.547060 0.622773 0.523857 0.789083 -0.117310 -0.165566 0.732398 0.318260 0.247635 -0.330947 0.020105 -1.042977 0.216915
sent_254 0.185049 -0.077136 0.459221 -0.606912 0.232115 0.402578 0.274923 -0.156560 0.411952 0.533438 -0.105067 0.396259 -0.045481 -0.220620 -0.658688 -0.596272 -0.331947 0.393313 -0.457225 0.272058
sent_255 0.413013 0.171855 0.262813 -0.785099 -0.246250 0.205756 0.321350 0.483804 -0.107822 -0.876596 0.421083 -0.402662 -0.136214 0.169747 -0.103057 -0.099169 -0.521610 -0.403433 0.436573 0.547737
sent_256 0.085011 0.154952 0.384915 0.625163 0.420499 0.618798 0.275600 -0.255869 0.747208 -0.099200 0.319633 -0.701157 -0.181822 0.564555 -0.434069 -0.089902 -0.501762 -0.007165 -0.320929 0.065981
sent_257 0.166474 -0.087218 0.449949 -0.605242 0.278992 0.334026 0.316126 -0.236948 0.242910 0.592534 -0.119161 0.373941 -0.052347 -0.143722 -0.617272 -0.581490 -0.282131 0.386249 -0.405649 0.188835
sent_258 0.313848 0.176771 0.230197 0.821692 0.207518 0.312912 0.312346 -0.443099 0.519168 0.103054 0.263337 -0.650979 -0.506352 0.528064 -0.207640 0.225634 0.000329 0.200884 -0.174461 -0.287339
sent_259 0.259085 -0.494425 -0.966295 0.663435 -0.826736 0.358282 -0.122032 0.986955 0.103573 0.126104 0.223460 0.096403 -0.296805 0.567991 0.478891 -0.860270 0.116961 0.647972 -0.516575 0.159798
sent_260 0.638976 0.163282 0.173100 0.013895 -0.000215 0.414641 0.112488 -0.483215 0.478416 -0.028404 0.216129 -0.353969 -0.490863 0.313369 -0.887722 0.035907 -0.377257 -0.121327 -0.001771 0.070366
sent_261 0.257516 -0.817816 -0.139026 0.088587 0.345730 0.038386 -0.109703 0.276365 -0.742703 -0.603583 -0.477762 0.510770 0.124808 -0.325253 0.085384 -0.558420 -0.260683 -0.057736 0.310108 0.172506
sent_262 0.186701 -0.219651 0.842911 -0.077797 0.307219 0.306582 0.169957 0.127643 0.429783 -0.336246 -0.276776 -0.221563 -0.153630 -0.299800 -0.226205 -0.418677 -0.537403 0.194536 -0.248346 0.685679
sent_263 0.673614 0.111864 0.073193 0.019716 -0.005178 0.357850 0.101066 -0.491922 0.429489 -0.020040 0.223463 -0.317376 -0.481306 0.348381 -0.768163 -0.046725 -0.366197 -0.148017 -0.028631 0.024659
sent_264 0.341487 -0.150836 0.284544 -0.224730 -0.078399 0.563682 -0.035966 -0.043147 -0.105431 0.334681 0.054238 -0.287273 -0.232243 -0.184752 -0.893782 -0.031956 -0.326936 0.420113 -0.143637 0.035769
sent_265 0.596448 -0.337029 -0.023809 0.331686 0.141120 0.205189 0.255523 0.245693 0.053862 -0.583688 0.083129 -0.152447 -0.552786 0.330550 -0.308356 -0.417135 -0.634558 -0.457641 -0.072743 0.946016
sent_266 0.333610 0.152477 0.264363 0.873525 0.174718 0.393968 0.394028 -0.487074 0.540499 0.110252 0.293765 -0.689642 -0.593092 0.548031 -0.202507 0.278583 -0.000926 0.229943 -0.121678 -0.225583
sent_267 0.684443 0.101546 0.106350 0.011429 -0.018239 0.423353 0.121964 -0.446633 0.462131 -0.009039 0.239603 -0.343739 -0.464120 0.346455 -0.891387 -0.036332 -0.413688 -0.135500 -0.061190 0.031055
sent_268 0.311967 -0.107971 0.270500 0.196155 0.476035 0.534898 0.325360 -0.226319 0.463468 -0.144384 0.376268 -0.468359 -0.432902 0.306195 -0.832833 -0.252315 -0.562702 -0.218705 -0.162646 0.629162
sent_269 0.477528 0.082293 -0.434314 -0.001159 0.091494 0.626835 0.009581 -0.646362 -0.175594 -0.483289 0.432419 -0.265940 -0.238156 0.043607 -0.822945 0.165096 -0.050370 -0.145118 0.303078 -0.317294
sent_270 0.323948 0.021610 0.230274 -0.083882 0.058215 0.617076 0.219419 -0.313422 0.648557 -0.235877 0.101932 -0.354499 0.002947 0.321693 -0.859605 -0.158133 -0.515594 -0.308754 -0.207886 0.084034
sent_271 0.382876 -0.208174 0.544644 0.817854 0.317916 0.168796 0.366269 -0.544210 0.004411 -0.310166 0.425862 -0.599185 -0.350832 0.527003 -0.130559 0.342824 -0.178476 -0.367085 -0.017294 0.124284
sent_272 0.049593 -0.122203 0.406244 -0.643088 0.251406 0.407314 0.299800 -0.246312 0.397956 0.540309 -0.134135 0.374657 -0.045208 -0.116757 -0.683919 -0.533094 -0.227468 0.413764 -0.423516 0.334351
sent_273 0.381625 0.223715 0.201883 0.602849 0.110039 0.510691 0.150427 -0.480879 0.692777 0.106948 0.430298 -0.609190 -0.340256 0.544882 -0.400050 0.159990 -0.181980 0.047420 -0.103027 -0.139263
sent_274 0.681988 -0.029650 -0.608617 0.032963 -0.057256 0.625013 -0.082536 -0.682683 -0.170423 -0.543886 0.567741 -0.000029 -0.246812 0.196352 -0.412221 -0.021542 -0.056843 -0.272832 0.379115 -0.191766
sent_275 0.577994 -0.246695 0.347173 0.762675 0.460196 0.261193 0.111263 -0.572255 0.213433 -0.306362 0.224609 -0.750202 -0.432431 0.361642 -0.201057 0.105569 -0.016569 -0.478715 0.037169 0.095016
sent_276 0.438285 0.155003 -0.171624 -0.925036 -0.226489 0.145876 0.379677 0.095813 -0.179770 -0.340423 0.445908 -0.583848 -0.128422 -0.490632 0.342819 0.015802 -0.360120 -0.045786 0.383847 0.607362
sent_277 0.307148 -0.374015 0.281817 0.701806 0.650551 0.692631 0.301765 -0.306878 0.137583 -0.215501 0.298963 -0.825189 -0.053046 0.442808 -0.367658 -0.007941 -0.147334 -0.511156 -0.089518 0.495746
sent_278 0.370481 -0.097868 0.293904 -0.209229 -0.015727 0.469266 -0.075233 -0.064896 -0.219732 0.313986 0.037461 -0.336322 -0.242770 -0.143939 -0.862269 -0.044649 -0.332313 0.379235 -0.167114 -0.095467
sent_279 0.546871 0.149433 0.525225 0.116369 -0.417449 -0.106580 0.062160 0.572637 0.710552 0.575553 0.840768 -0.132431 -0.180411 0.776795 0.328133 0.275301 -0.371334 0.064636 -1.071137 0.208366
sent_280 0.605472 -0.201428 0.225427 0.731397 0.401187 0.414554 0.341996 -0.525206 0.227491 -0.123617 0.293036 -0.680190 -0.472901 0.458400 -0.346518 0.120640 -0.026885 -0.464366 0.077624 0.305234
sent_281 0.563079 0.098236 0.567526 0.096530 -0.367266 -0.100298 0.055026 0.609417 0.603376 0.575229 0.805488 -0.081681 -0.132697 0.735431 0.366219 0.227149 -0.350387 0.034964 -1.053446 0.189240
sent_282 0.225379 0.083325 0.464414 -0.355975 0.112057 0.171499 0.017832 0.100711 -0.288666 0.589069 -0.101317 -0.026309 -0.161296 -0.066955 -0.787572 -0.218169 -0.470554 0.655093 -0.101799 -0.322677
sent_283 0.246709 -0.019575 0.374500 -0.093627 0.121359 0.483260 -0.058471 -0.238856 0.565469 -0.336635 0.135551 -0.429394 0.018098 0.110807 -0.768288 -0.154972 -0.525266 -0.235498 -0.279310 -0.033809
sent_284 0.347945 0.213860 0.260906 0.660163 0.151863 0.415674 -0.018449 -0.506870 0.724889 -0.048187 0.405776 -0.662839 -0.442676 0.282886 -0.371579 0.172947 -0.190614 0.066099 -0.072915 -0.274059
sent_285 0.293314 -0.349506 0.406231 0.440693 0.639052 0.459117 0.006720 -0.295337 0.191865 -0.328038 0.325217 -0.704357 -0.197445 0.238305 -0.371629 -0.165122 -0.372625 -0.370369 -0.240237 0.381915
sent_286 0.406727 0.165265 -0.191580 -0.935341 -0.243741 0.142508 0.346481 0.099899 -0.185322 -0.422802 0.420068 -0.592061 -0.077287 -0.561387 0.388768 0.021650 -0.332379 -0.008372 0.391275 0.574746
sent_287 0.673827 -0.484812 0.075742 0.469653 0.153485 0.125361 0.114346 0.294477 0.134001 -0.403931 0.033421 0.085462 -0.420623 0.250426 -0.182422 -0.433793 -0.703489 -0.338114 0.148436 0.970923
sent_288 0.355179 -0.219377 0.336710 0.946458 -0.693153 -0.649903 -0.008196 -0.001367 0.436411 0.733650 -0.994742 0.181177 -0.023835 -0.185645 -0.186632 0.340375 -0.202163 0.349468 -0.392626 -0.417898
sent_289 0.090050 -0.256713 -0.697268 -0.179533 -0.298178 0.013418 -0.715301 -0.541572 0.554833 -0.052023 0.688914 -0.006831 0.677252 -0.355104 -0.275908 0.221575 -0.039994 -0.623497 0.321993 -0.406666
sent_290 0.163286 -0.074924 0.441698 -0.606522 0.313871 0.367644 0.271091 -0.181353 0.354262 0.552231 -0.101869 0.412333 -0.016169 -0.185593 -0.616520 -0.629892 -0.301551 0.336559 -0.448605 0.197677
sent_291 0.405419 0.141437 0.239436 -0.699277 -0.280817 0.231132 0.294699 0.467543 -0.087420 -0.887912 0.387333 -0.400878 -0.125227 0.209661 -0.105585 -0.096118 -0.519818 -0.429178 0.416728 0.566693
sent_292 0.231722 -0.179875 0.696863 -0.014806 0.263925 0.351944 0.500551 0.076632 0.445017 -0.202741 -0.323959 -0.138540 -0.208851 -0.137623 -0.292941 -0.484206 -0.521583 0.159281 -0.165047 0.730257
sent_293 0.660261 0.110649 0.130945 0.037794 -0.013353 0.422508 0.129989 -0.478644 0.463702 -0.056632 0.219956 -0.317937 -0.486469 0.334114 -0.832881 0.012347 -0.367590 -0.102585 -0.035908 0.091807
sent_294 0.430134 0.205000 0.121061 0.605784 0.059586 0.497653 0.156863 -0.501892 0.756617 0.107500 0.444687 -0.577681 -0.391588 0.539346 -0.443359 0.144736 -0.195107 0.018200 -0.084979 -0.111901
sent_295 0.612209 -0.218414 0.181481 0.697376 0.356963 0.480349 0.283612 -0.485005 0.190674 -0.149579 0.257038 -0.732906 -0.352734 0.506060 -0.339110 0.184396 -0.013740 -0.424742 0.086335 0.315100
sent_296 -0.285434 -0.518161 -0.813161 -0.443064 -0.413662 0.541971 -0.231380 0.489888 -0.374068 0.626276 0.057742 0.241441 0.244973 -0.776382 -0.202722 -0.234832 -0.026029 0.777439 0.591171 -0.090066
sent_297 0.395883 0.012234 0.209976 -0.052066 0.050005 0.600348 0.215205 -0.216759 0.560000 -0.191142 0.162605 -0.382788 -0.017816 0.274126 -0.836617 -0.202011 -0.497064 -0.292978 -0.177249 0.001885
sent_298 0.094472 0.153299 0.366864 0.646639 0.403674 0.634074 0.307434 -0.255747 0.652372 -0.099199 0.344364 -0.694161 -0.169203 0.551357 -0.451825 -0.045358 -0.434006 -0.014595 -0.283145 0.139308
sent_299 0.316890 -0.007158 0.284769 0.862084 -0.535722 -0.640046 0.382210 0.440548 0.023866 0.486094 -0.318131 0.129144 -0.022003 0.123064 -0.021818 0.335652 -0.249065 0.351593 -0.217078 -0.103281
sent_300 0.466307 0.026993 -0.464255 0.692126 -0.436006 -0.060836 0.299304 -0.477117 0.263096 -0.705061 -0.556477 0.155172 0.328806 0.145404 0.272038 -0.255706 -0.183317 -0.135660 0.107150 -0.004654
sent_301 0.229821 0.013971 0.206666 -0.092811 0.115900 0.586413 0.243657 -0.302268 0.555009 -0.185843 0.097986 -0.370160 0.007533 0.358821 -0.852085 -0.126889 -0.463740 -0.269757 -0.218986 0.021040
sent_302 0.596689 -0.385622 -0.039299 0.330279 0.127442 0.219638 0.266977 0.238432 0.092921 -0.570215 0.146584 -0.162589 -0.506504 0.256070 -0.294630 -0.380718 -0.619105 -0.440391 -0.042839 0.939470
sent_303 0.193073 -0.275133 0.021653 0.763641 -0.458551 -0.775038 0.553144 1.014753 -0.545033 -0.314179 -0.684837 0.338577 0.337042 0.158361 0.527140 0.162138 -0.150687 0.615341 -0.217013 0.446872
sent_304 0.119152 0.063100 0.384382 0.609831 0.411593 0.598783 0.237964 -0.317785 0.600434 -0.154613 0.361157 -0.670785 -0.182333 0.466850 -0.430623 -0.058656 -0.442946 -0.062289 -0.259477 0.087803
sent_305 0.614254 -0.642965 -0.056811 0.340480 -0.114795 0.359419 -0.203657 -0.399789 -0.431870 -0.277279 0.157972 0.046798 -0.329978 -0.074695 -0.220246 -0.179241 0.085742 -0.233794 0.338336 -0.322040
sent_306 0.220351 -0.495807 0.234146 0.912946 -0.464470 -0.352365 0.467162 0.559836 0.048838 -0.290020 -1.102298 0.251066 -0.158398 -0.340274 0.275981 -0.197874 -0.063214 0.308146 -0.030653 0.552045
sent_307 0.662609 0.147935 -0.621982 0.044394 -1.033750 -0.741766 0.508005 0.951788 -0.310433 -0.738532 -0.363807 -0.233309 0.619876 -0.378759 0.749278 0.502160 -0.430645 0.102590 0.110262 0.345464
sent_308 0.390149 -0.377967 0.137728 0.060003 0.122508 -0.536509 0.059830 0.165350 -0.729995 0.256075 -0.910330 -0.126851 -0.155073 -0.278603 -0.053650 -0.241331 0.078261 0.372790 -0.088687 -0.230973
sent_309 0.121992 -0.407795 0.273356 0.910953 -0.670220 -0.403763 0.551940 0.788025 -0.185666 -0.576638 -0.817226 0.228356 0.092554 -0.054662 0.186574 -0.013265 -0.299192 0.323673 0.036960 0.600256
sent_310 0.376228 0.034185 -0.411656 0.035788 0.089628 0.678134 -0.037314 -0.589495 -0.138516 -0.448751 0.430371 -0.188583 -0.217981 0.137232 -0.787399 0.204427 -0.026313 -0.157443 0.323514 -0.249069
sent_311 0.444599 -0.207476 0.327613 0.474314 -0.000671 -0.417123 0.467726 0.169592 0.212389 0.574517 -1.023058 -0.124740 -0.186205 -0.188688 0.029057 0.095211 0.132355 0.606426 -0.014117 -0.093412
sent_312 0.597945 -0.028834 0.127364 0.221783 0.233024 0.417424 0.114962 -0.492069 0.358892 -0.068637 0.398724 -0.371810 -0.702113 0.315579 -0.749477 -0.024987 -0.399109 -0.141925 -0.001363 0.418399
sent_313 0.609168 -0.379783 -0.040274 0.340759 0.159459 0.163085 0.264469 0.228263 0.060168 -0.521830 0.138259 -0.142652 -0.517189 0.265996 -0.279305 -0.446025 -0.627222 -0.462602 -0.081074 0.852208
sent_314 0.147327 -0.360306 -0.955901 0.609522 -0.731073 0.366138 -0.039563 0.901688 0.076826 -0.023617 0.310496 -0.133680 -0.370402 0.481348 0.415547 -0.807737 0.146248 0.596803 -0.657606 0.083632
sent_315 0.131648 -0.060752 0.536070 -0.619740 0.324992 0.264216 0.016220 -0.231184 0.336526 0.376619 -0.132854 0.363276 -0.117607 -0.336443 -0.589786 -0.585921 -0.359739 0.385958 -0.452405 0.080098
sent_316 0.552053 -0.214156 0.157416 0.703002 0.378841 0.441834 0.329209 -0.508086 0.179938 -0.127687 0.287923 -0.729865 -0.341394 0.532348 -0.317462 0.182479 0.037565 -0.462132 0.095110 0.265559
sent_317 0.699207 -0.022335 0.185923 0.284207 0.268389 0.354937 0.152612 -0.531816 0.349256 -0.094349 0.333961 -0.389754 -0.794256 0.319542 -0.817402 -0.076141 -0.443383 -0.160698 -0.041719 0.351949
sent_318 0.412629 0.038836 -0.352103 0.005506 0.080538 0.586688 -0.038871 -0.639330 -0.197622 -0.474349 0.375906 -0.200315 -0.259203 0.122500 -0.778048 0.186546 -0.036661 -0.153096 0.317308 -0.294212
sent_319 0.605086 -0.017834 -0.631192 -0.001575 -0.098331 0.690610 -0.086753 -0.609590 -0.025079 -0.511122 0.588962 -0.046919 -0.168726 0.169253 -0.406902 0.005711 -0.066967 -0.269709 0.382507 -0.079809
sent_320 0.294482 -0.300787 0.328731 0.599115 0.597675 0.648844 0.363000 -0.308505 0.211154 -0.216013 0.330290 -0.767594 -0.165077 0.367255 -0.487527 -0.060869 -0.279216 -0.404588 -0.112001 0.464503
sent_321 0.253378 -0.150064 0.621045 0.014537 0.176344 0.367708 0.479920 0.080786 0.428604 -0.222112 -0.273905 -0.132871 -0.189627 -0.163745 -0.291220 -0.395889 -0.484525 0.132701 -0.119235 0.727561
sent_322 0.663941 -0.116840 0.569222 0.197499 0.116110 0.239430 0.338265 -0.337013 0.292720 -0.115483 -0.699090 -0.007509 -0.439701 -0.252915 -0.245680 -0.188028 -0.264396 0.302051 0.178707 0.491768
sent_323 0.566353 -0.399131 -0.055501 0.345477 0.165798 0.210062 0.199182 0.246136 0.098922 -0.568388 0.149375 -0.175292 -0.529684 0.239313 -0.274275 -0.429192 -0.617282 -0.449412 -0.081998 0.926821
sent_324 -0.490196 -0.128928 -0.503699 -0.749734 -0.278957 0.336667 -0.578871 0.269674 0.504413 0.496479 -0.420415 -0.004319 0.211071 -1.450821 -0.190854 -0.197198 0.043611 0.336999 0.750549 -0.140774
sent_325 0.023876 -0.179404 0.624695 0.212247 0.194247 0.192570 0.541717 0.101033 0.425790 -0.104338 -0.288408 -0.203372 -0.179196 -0.003495 -0.063862 -0.293583 -0.237543 0.223247 -0.267651 0.362377
sent_326 0.573141 -0.028929 -0.616899 0.003465 -0.069060 0.591624 -0.024656 -0.632859 -0.051769 -0.483530 0.556008 -0.000205 -0.179681 0.142474 -0.386927 -0.030416 -0.009318 -0.256403 0.363680 -0.150224
sent_327 0.569636 -0.342057 -0.017337 0.255634 0.116408 0.139934 0.203779 0.191289 0.051461 -0.555237 0.129548 -0.175964 -0.493771 0.259702 -0.265246 -0.433540 -0.582606 -0.451197 -0.100540 0.753240
sent_328 -0.306556 -0.176732 -0.262830 -0.276686 -0.765321 -0.243867 -0.898966 0.609265 0.366190 -0.563349 1.363427 -0.252694 0.845228 0.301553 0.059665 0.849186 -0.452817 -0.652533 0.655079 0.089922
sent_329 -0.226017 -0.222886 -0.396579 0.161252 -0.610508 -0.148891 -0.653690 0.333196 0.044926 -0.513598 0.714215 -0.211425 0.895280 0.299984 -0.401971 0.947572 -0.417780 -0.316305 0.400432 -0.201965
sent_330 0.461742 -0.313288 0.024603 0.236062 -0.225721 -0.653957 0.532737 0.266677 -0.893576 0.292245 -1.045079 -0.323353 -0.088535 -0.195134 -0.005406 0.028365 0.168605 0.602320 0.110647 -0.090898
sent_331 0.011330 -0.141661 0.735248 0.859703 -0.269806 -0.485300 0.320457 0.344998 0.168272 0.450113 -0.502081 0.007025 -0.239462 -0.348737 -0.248277 0.470941 -0.310988 0.269711 -0.240224 0.183334
sent_332 0.376566 0.052790 0.207708 -0.034029 0.050045 0.619048 0.201942 -0.211441 0.607315 -0.203160 0.158765 -0.395030 0.043045 0.218845 -0.832549 -0.166543 -0.512256 -0.257884 -0.156649 0.016380
sent_333 0.275998 -0.350864 0.282868 0.609772 0.599152 0.655149 0.310982 -0.313060 0.160970 -0.268750 0.297545 -0.754254 -0.059214 0.402394 -0.349427 -0.032577 -0.179609 -0.490100 -0.082485 0.384182
sent_334 0.074270 -0.067222 0.325969 0.431379 0.495449 0.320323 0.493123 -0.155047 0.466872 -0.032102 0.147221 -0.558935 -0.425042 0.359817 -0.503068 -0.117037 -0.266118 -0.070175 -0.334353 0.313870
sent_335 0.143338 0.073118 0.329337 0.635165 0.418002 0.620751 0.247717 -0.275041 0.554862 -0.110526 0.364338 -0.716603 -0.211345 0.453692 -0.470964 -0.032378 -0.411870 -0.029690 -0.228541 0.065310
sent_336 0.391883 0.122002 0.231637 -0.682304 -0.241490 0.164068 0.223537 0.399190 -0.111765 -0.814490 0.339708 -0.379772 -0.171889 0.186433 -0.101964 -0.109576 -0.515419 -0.380734 0.340843 0.474236
sent_337 0.571441 0.085234 0.090696 0.024793 0.007793 0.427942 0.165641 -0.506443 0.477402 -0.008513 0.225238 -0.330549 -0.472196 0.389654 -0.861734 0.038441 -0.310519 -0.124445 0.000253 0.073763
sent_338 -0.014938 -0.110442 0.525415 0.825207 -0.452329 -0.505293 0.467885 0.714800 -0.271578 0.261504 -0.368034 -0.198404 0.071377 -0.079949 0.009756 0.763359 -0.264368 0.629898 -0.251704 0.071998
sent_339 0.315498 0.139654 -0.033908 -1.020258 -0.172165 0.001453 0.016945 0.122698 -0.268411 -0.551368 0.451956 -0.634070 -0.086699 -0.700825 0.426679 0.007589 -0.368909 -0.015064 0.290821 0.423686
sent_340 -0.610844 0.037151 -0.180657 0.517690 0.193273 0.051754 0.253860 -0.942306 0.136089 0.224734 0.544231 -0.604256 0.031547 -0.615018 -0.104459 0.655074 0.477514 0.118981 0.162392 -0.547143
sent_341 0.326631 -0.365095 0.145362 0.738436 -0.105750 -0.631227 0.343667 0.801190 -0.411020 -0.033585 -1.151454 0.325143 0.068475 -0.194429 0.376517 -0.144571 -0.022627 0.496938 -0.243187 0.399805
sent_342 0.298793 -0.318877 0.306032 0.584169 0.634738 0.657948 0.240842 -0.327915 0.177209 -0.230330 0.347872 -0.727491 -0.174687 0.367869 -0.379605 -0.082326 -0.244932 -0.396950 -0.123688 0.503251
sent_343 0.444134 -0.191945 0.294581 0.885074 0.405827 0.267941 0.364325 -0.448763 0.131708 -0.124706 0.153835 -0.661429 -0.472639 0.523684 -0.155933 0.236740 0.104473 -0.233393 -0.015238 0.100555
sent_344 0.243538 -0.185921 0.674590 0.038881 0.211360 0.394995 0.525318 0.136557 0.438198 -0.196426 -0.313772 -0.131886 -0.173897 -0.220502 -0.325246 -0.452372 -0.537998 0.155109 -0.151094 0.807640
sent_345 0.308107 -0.225803 0.329574 0.522098 -0.004609 -0.422461 0.497710 0.245617 0.236967 0.559489 -1.071900 -0.125983 -0.169708 -0.232143 0.029348 0.161769 0.110933 0.649256 -0.004650 -0.115730
sent_346 0.130452 0.032283 0.290245 0.589838 0.398624 0.639106 0.214273 -0.235157 0.594083 -0.064261 0.371079 -0.641455 -0.124951 0.463908 -0.445238 -0.078575 -0.424601 -0.048566 -0.272638 0.054545
sent_347 0.045628 -0.188566 0.595608 0.904217 -0.259639 -0.518526 0.364611 0.622689 -0.012236 0.484090 -0.589404 -0.140477 -0.166307 -0.296001 0.034578 0.717923 -0.079764 0.605170 -0.282275 0.010850
sent_348 0.467278 0.007687 0.752276 0.070801 -0.300453 -0.234126 -0.238265 0.587468 0.608866 0.441732 0.788940 -0.054534 -0.081058 0.592826 0.506338 0.198348 -0.370651 0.023429 -1.154851 0.099228
sent_349 0.281784 -0.343515 0.313155 0.679153 0.655070 0.646322 0.307540 -0.310332 0.115882 -0.224390 0.295143 -0.784117 -0.090652 0.394763 -0.381442 -0.007415 -0.188967 -0.472330 -0.077316 0.469942
sent_350 0.262460 -0.277293 0.330531 0.500275 0.589778 0.607066 0.224007 -0.339222 0.121484 -0.241793 0.343161 -0.697853 -0.154779 0.358331 -0.426946 -0.050573 -0.222696 -0.374396 -0.083014 0.435775
sent_351 0.210857 -0.313542 -0.973648 0.654265 -0.735989 0.376917 -0.074575 0.935593 0.004318 0.051984 0.261167 -0.095435 -0.367168 0.495358 0.396712 -0.817408 0.158251 0.623430 -0.667829 0.042652
sent_352 0.326065 -0.396151 0.326721 0.795060 -0.269459 -0.392342 0.418506 0.198639 -0.514047 -0.119634 -0.587901 -0.219624 0.136525 0.122619 0.131077 0.463066 0.023480 0.159680 0.266570 0.187449
sent_353 0.274870 -0.188286 0.242875 -0.209283 -0.085938 0.552115 0.027107 -0.064939 -0.112800 0.342897 0.051785 -0.268263 -0.194586 -0.183859 -0.905961 -0.006770 -0.288451 0.381098 -0.121969 0.053149
sent_354 -0.439233 -0.294542 -0.311333 -0.921127 -0.367973 0.296366 -0.542107 0.348382 0.158589 0.226630 -0.283860 -0.109028 0.542135 -1.496186 -0.423393 -0.251329 -0.226183 0.515203 0.616440 -0.382646
sent_355 0.355775 0.148598 0.231670 -0.683217 -0.282535 0.251030 0.299754 0.442405 -0.082395 -0.853905 0.373345 -0.361866 -0.136320 0.220874 -0.103579 -0.074304 -0.536568 -0.405192 0.377763 0.571620
sent_356 0.116042 0.080940 0.363971 0.670753 0.410217 0.635443 0.234420 -0.240720 0.593683 -0.062841 0.348155 -0.710937 -0.161221 0.469127 -0.520353 -0.021336 -0.427678 -0.012740 -0.248511 0.102780
sent_357 0.003179 -0.145193 -0.758108 0.000928 -0.759083 -0.248746 -0.653182 0.327251 0.209851 -0.528168 0.978406 -0.152896 0.899023 0.300468 0.118425 0.689171 -0.439518 -0.454744 0.421487 0.002204
sent_358 0.578776 -0.205666 0.229408 0.722189 0.384219 0.399639 0.308638 -0.534387 0.162702 -0.175954 0.237660 -0.705542 -0.443004 0.468636 -0.302240 0.144963 -0.020673 -0.426626 0.068711 0.286670
sent_359 -0.135153 -0.051227 0.510631 0.538175 0.376995 0.289949 0.263223 -0.239819 0.388641 -0.184768 0.352120 -0.558936 -0.003872 0.533025 -0.275450 0.037135 -0.525264 -0.028946 -0.409493 0.051207
sent_360 0.547283 -0.354003 0.002173 0.335375 0.125490 0.180046 0.285224 0.198901 0.078621 -0.578467 0.064389 -0.120542 -0.437713 0.261862 -0.302747 -0.362331 -0.597651 -0.433361 -0.042742 0.878300
sent_361 0.147704 -0.043452 0.362525 -0.574808 0.219877 0.370576 0.253729 -0.229415 0.317869 0.497755 -0.128560 0.336481 -0.094128 -0.069719 -0.604864 -0.511428 -0.277920 0.370709 -0.383202 0.260724
sent_362 0.023440 -0.025075 -0.529962 -0.094106 -0.342341 0.071771 -0.248283 -0.000897 0.600388 0.091234 1.062392 -0.158607 0.208428 0.094812 -0.179853 0.197967 -0.208538 -0.318890 -0.212044 -0.316982
sent_363 0.399836 0.112552 -0.411506 0.003580 0.069904 0.685933 -0.000173 -0.634548 -0.106150 -0.441759 0.384176 -0.161653 -0.207359 0.142882 -0.847368 0.232037 0.005086 -0.124647 0.340086 -0.247271
sent_364 0.427349 0.139553 0.230975 0.663154 0.245249 0.496753 0.125056 -0.467892 0.568650 0.078713 0.468764 -0.570401 -0.495634 0.456960 -0.418184 0.161450 -0.252080 0.026976 -0.075793 0.068153
sent_365 0.642293 0.162925 0.088045 0.012129 -0.011981 0.412790 0.099776 -0.416115 0.426505 -0.040144 0.238710 -0.299599 -0.444836 0.309910 -0.746889 -0.035616 -0.402513 -0.124036 -0.016092 0.059699
sent_366 0.337488 0.018662 0.308624 0.336024 0.555429 0.533934 0.258454 -0.223313 0.617509 -0.086927 0.161952 -0.391446 -0.680611 0.166268 -0.576232 -0.179904 -0.418753 -0.335783 -0.080642 0.718341
sent_367 0.411835 0.233257 0.154224 0.619992 0.080715 0.462821 0.140544 -0.467640 0.718685 0.071769 0.386306 -0.587015 -0.415610 0.472425 -0.456581 0.156271 -0.269766 0.037749 -0.079735 -0.149368
sent_368 0.225488 -0.060361 0.338719 -0.084532 0.088765 0.514967 -0.049263 -0.289860 0.640034 -0.345218 0.114552 -0.418824 0.018329 0.124781 -0.794819 -0.144174 -0.541321 -0.285082 -0.285630 -0.079859
sent_369 0.664183 0.004512 0.219207 0.210966 0.284186 0.382872 0.129725 -0.573949 0.364214 -0.104714 0.346643 -0.426656 -0.795115 0.364036 -0.868322 0.003536 -0.419779 -0.130607 -0.025637 0.339643
sent_370 0.740673 -0.513373 -0.553499 -0.411201 -0.740372 0.327727 -0.226132 0.123497 0.415772 0.554273 -0.323849 0.188019 -0.230808 0.141031 -0.217952 -0.583050 0.227578 0.025565 0.315773 -0.564977
sent_371 0.208041 -0.159756 0.784307 0.048268 0.232266 0.400802 0.451903 0.092848 0.530406 -0.095560 -0.361019 -0.059299 -0.107808 -0.163832 -0.269329 -0.358173 -0.530043 0.226433 0.055251 0.787468
sent_372 0.389148 0.144775 0.236224 -0.712807 -0.258128 0.223029 0.359295 0.455778 -0.102379 -0.825844 0.432133 -0.434404 -0.128879 0.189850 -0.064216 -0.075317 -0.478642 -0.394457 0.402654 0.525295
sent_373 0.397008 0.057672 -0.459125 -0.019296 0.097030 0.589389 -0.033911 -0.685820 -0.137647 -0.481280 0.389737 -0.223628 -0.253611 0.051963 -0.769673 0.170468 0.008554 -0.149279 0.309000 -0.330494
sent_374 0.535039 0.095999 0.376720 0.675794 -0.993848 -0.455824 0.286175 0.433573 -0.230884 -0.758565 -0.566532 0.023127 0.235761 0.271605 0.267607 0.275178 -0.841162 0.491973 0.240713 0.408954
sent_375 0.398169 0.244868 0.206205 0.617709 0.087839 0.482115 0.194144 -0.549527 0.706695 0.068438 0.435511 -0.632477 -0.423843 0.542512 -0.399861 0.186154 -0.172785 0.046795 -0.060773 -0.149447
sent_376 0.641703 -0.045090 -0.641082 0.021139 -0.099654 0.637428 -0.092596 -0.643865 -0.104566 -0.520331 0.555610 0.011731 -0.213685 0.178137 -0.449615 -0.026252 -0.056414 -0.289472 0.380806 -0.149546
sent_377 0.360601 0.028922 0.193764 -0.060598 0.052796 0.589565 0.127429 -0.253095 0.576807 -0.221185 0.147053 -0.355535 -0.004793 0.263975 -0.828189 -0.221915 -0.550720 -0.272339 -0.226036 -0.007428
sent_378 0.263762 -0.329055 0.352867 0.715448 0.620416 0.680490 0.334680 -0.327772 0.120222 -0.261382 0.310082 -0.830107 -0.086277 0.401136 -0.368081 -0.010043 -0.168122 -0.459946 -0.062318 0.408856
sent_379 0.243172 -0.056115 0.248479 -0.055279 0.098646 0.633507 0.256188 -0.325453 0.672980 -0.243805 0.094841 -0.373275 0.005436 0.309622 -0.842282 -0.141737 -0.498589 -0.358823 -0.198862 0.016818
sent_380 0.411485 0.258705 0.197654 0.628806 0.071731 0.477177 0.129791 -0.459663 0.659280 0.044234 0.382048 -0.623377 -0.392178 0.445436 -0.442160 0.179318 -0.267623 0.083127 -0.083120 -0.179160
sent_381 0.217805 -0.359851 -1.005924 0.646401 -0.745874 0.337507 -0.052563 0.965234 0.042434 0.043774 0.305209 -0.121917 -0.384584 0.488476 0.423221 -0.894516 0.159078 0.613465 -0.689939 -0.001434
sent_382 0.295037 -0.329458 0.316276 0.720271 0.662186 0.683181 0.331244 -0.338995 0.172210 -0.219091 0.287317 -0.814741 -0.078976 0.394768 -0.386274 0.002445 -0.170856 -0.486795 -0.094247 0.470024
sent_383 0.603376 -0.403013 -0.024090 0.323559 0.189372 0.182459 0.145822 0.198336 0.072371 -0.503052 0.144494 -0.140852 -0.464422 0.232150 -0.268490 -0.445404 -0.625839 -0.430288 -0.050120 0.833172
sent_384 0.586394 -0.322362 0.006977 0.276892 0.151720 0.184583 0.200879 0.201898 0.062026 -0.537419 0.140100 -0.144490 -0.475099 0.253727 -0.242452 -0.408894 -0.611807 -0.388843 -0.087423 0.799598
sent_385 0.590259 -0.042774 -0.647877 -0.038615 -0.076882 0.575403 0.008590 -0.591227 -0.049530 -0.461174 0.559053 -0.036534 -0.172324 0.192030 -0.394000 -0.028515 -0.039748 -0.275914 0.349063 -0.134811
sent_386 -0.225384 0.019018 -0.571932 -0.068688 -0.395438 -0.129637 -0.481106 -0.161165 0.684351 -0.025222 1.227028 -0.074254 0.202087 -0.129396 -0.011486 0.272607 -0.123877 -0.247463 -0.216492 -0.580773
sent_387 0.404286 -0.465832 0.416499 0.678880 -0.458945 -0.250071 0.457058 0.224667 -0.427563 -0.657668 -0.692175 -0.073599 0.266485 0.108990 0.100337 0.282322 -0.191891 -0.135518 0.377069 0.354153
sent_388 0.624116 0.121596 0.108587 -0.017354 -0.004628 0.402449 0.131485 -0.489524 0.430964 -0.045405 0.181182 -0.318690 -0.484917 0.380298 -0.852862 0.034218 -0.344285 -0.117466 -0.013998 0.067552
sent_389 0.134949 -0.080710 0.414724 -0.628201 0.252267 0.321885 0.311067 -0.228190 0.317649 0.523332 -0.112213 0.361840 -0.082255 -0.066031 -0.623158 -0.585230 -0.235674 0.404474 -0.426779 0.194802
sent_390 0.275962 -0.173466 0.658070 0.056886 0.184745 0.409497 0.502285 0.157887 0.423810 -0.162578 -0.284648 -0.166226 -0.152505 -0.266116 -0.279322 -0.424505 -0.487757 0.166954 -0.123538 0.781560
sent_391 0.400164 0.164650 0.223058 0.643174 0.218168 0.536739 0.134809 -0.449099 0.584440 0.052156 0.492923 -0.608752 -0.454270 0.468329 -0.474053 0.152246 -0.213510 0.015794 -0.079981 0.080615
sent_392 0.402560 0.149596 0.270417 -0.720458 -0.275593 0.211646 0.270378 0.463497 -0.103049 -0.912628 0.358475 -0.361413 -0.130609 0.199755 -0.086935 -0.035653 -0.537969 -0.428232 0.385301 0.566972
sent_393 0.270057 -0.012385 0.211550 -0.018599 0.085571 0.586188 0.214880 -0.278894 0.606319 -0.215103 0.147644 -0.362396 0.046011 0.229567 -0.819479 -0.168731 -0.488129 -0.305578 -0.190128 0.033091
sent_394 0.121278 -0.361302 -0.997067 0.668334 -0.779044 0.437715 -0.078156 0.926785 0.106992 -0.027480 0.295581 -0.102119 -0.343775 0.492833 0.446394 -0.836757 0.163743 0.605499 -0.656020 0.123749
sent_395 0.279846 -0.362211 0.321153 0.638099 0.630394 0.674407 0.264831 -0.355007 0.125416 -0.276559 0.271011 -0.785270 -0.008039 0.462286 -0.348360 -0.019803 -0.133384 -0.492351 -0.115668 0.401595
sent_396 0.666598 0.124221 -0.643408 0.042900 -1.021325 -0.719856 0.530963 0.917397 -0.356382 -0.732143 -0.332017 -0.248659 0.638910 -0.388242 0.765311 0.507104 -0.358806 0.114325 0.101815 0.373433
sent_397 0.298005 -0.220076 0.627645 0.027983 0.193819 0.417174 0.487253 0.081588 0.498286 -0.181870 -0.296254 -0.136518 -0.183237 -0.171688 -0.310115 -0.458617 -0.520863 0.130244 -0.117359 0.821981
sent_398 0.664918 -0.055945 0.544216 0.602667 -0.640345 -0.237931 0.070895 0.134532 -0.093351 -0.310848 -0.797100 0.047550 0.423187 0.184254 0.342768 0.326421 -0.483963 0.365166 0.502716 0.409732
sent_399 0.338976 -0.125299 0.295388 -0.219709 -0.026721 0.488771 0.000655 -0.071303 -0.157612 0.357288 0.083868 -0.305143 -0.276823 -0.149910 -0.865811 -0.051590 -0.300976 0.394627 -0.140757 -0.014382
sent_400 0.655404 0.030336 0.182624 0.289345 0.247422 0.383257 0.129410 -0.491574 0.370785 -0.090793 0.351686 -0.357391 -0.743652 0.246062 -0.736446 -0.077377 -0.438205 -0.146315 0.006115 0.375089
sent_401 0.506397 -0.149127 -0.253587 -0.547186 -0.198525 0.390005 -0.234969 -0.559723 0.107609 0.401549 0.040113 -0.252489 0.025924 -0.802917 -0.194860 0.375975 -0.009289 0.660838 0.371521 -0.353206
sent_402 0.109452 0.053457 0.347146 0.577695 0.389091 0.565697 0.222310 -0.285844 0.577142 -0.106995 0.319346 -0.649850 -0.126299 0.425156 -0.443369 -0.051879 -0.429692 -0.051050 -0.260539 0.071574
sent_403 0.348420 -0.062759 0.054783 0.319753 -0.111602 0.386780 -0.242521 -0.315655 -0.022492 -0.055142 0.082015 -0.386899 -0.038072 -0.008927 -0.611490 0.167386 -0.205934 -0.093910 0.073389 -0.025319
sent_404 0.187215 -0.144451 0.652325 -0.006150 0.194396 0.341888 0.448340 0.107294 0.383228 -0.213539 -0.292975 -0.160553 -0.217383 -0.207496 -0.300176 -0.403413 -0.463542 0.171012 -0.114347 0.718363
sent_405 0.673806 -0.028788 -0.624545 0.015422 -0.041764 0.558195 -0.060789 -0.561466 -0.067291 -0.448402 0.533003 -0.037802 -0.155614 0.120193 -0.415924 -0.064062 -0.112327 -0.280061 0.343683 -0.152289
sent_406 0.079867 -0.208200 0.539040 0.219615 0.104326 -0.556469 0.580020 0.246050 -0.670589 0.045584 -0.809131 -0.059264 0.126217 -0.056012 -0.128289 0.039899 -0.233558 0.236677 -0.336880 0.116741
sent_407 0.601850 0.073841 0.182540 0.001123 0.053789 0.224779 -0.129751 -0.405928 0.370946 -0.181284 0.208876 -0.245129 -0.484540 0.163443 -0.636146 -0.052677 -0.398463 -0.134585 -0.092909 -0.058949
sent_408 0.256395 -0.018805 0.194468 -0.058815 0.057235 0.577802 0.213180 -0.303669 0.599687 -0.239178 0.124083 -0.350490 -0.016281 0.328334 -0.755091 -0.165016 -0.454174 -0.333130 -0.194040 0.079213
sent_409 0.653231 0.023898 0.172294 0.267541 0.261503 0.380834 0.168473 -0.514387 0.392345 -0.087806 0.395857 -0.398247 -0.754371 0.300787 -0.759928 -0.047005 -0.426264 -0.129540 0.013372 0.390814
sent_410 0.394642 -0.118907 0.401705 0.101153 -0.095336 -0.733054 0.542960 0.325396 -0.840635 -0.254181 -0.900086 0.065584 0.257021 0.044542 0.002538 0.032961 -0.353998 0.488900 -0.076574 0.151776
sent_411 0.262536 -0.326790 0.242501 0.620536 0.630935 0.626262 0.291761 -0.288669 0.128317 -0.152504 0.306210 -0.717758 -0.095388 0.386395 -0.390440 -0.002632 -0.169169 -0.421137 -0.085267 0.462189
sent_412 0.258811 -0.348231 -0.905201 0.566193 -0.670562 0.404134 -0.091554 0.871430 0.032153 0.010140 0.303845 -0.093685 -0.313342 0.393636 0.317846 -0.844467 0.111156 0.508611 -0.627979 0.050381
sent_413 0.552628 -0.209212 0.188688 0.639734 0.372630 0.407845 0.254710 -0.457862 0.046336 -0.208940 0.207305 -0.633380 -0.338184 0.477599 -0.351894 0.136954 -0.043828 -0.398824 0.079010 0.275937
sent_414 0.364217 -0.019485 0.171198 -0.034873 0.052806 0.600067 0.235606 -0.247520 0.637578 -0.205146 0.161189 -0.366001 0.020436 0.276051 -0.787486 -0.205150 -0.502585 -0.324648 -0.164263 0.070188
sent_415 -0.724266 -0.489894 -0.549504 0.064210 -0.147313 0.017154 -0.542734 -0.341721 0.351680 -0.119615 0.592389 -0.040300 0.384235 -0.109821 -0.341706 0.480199 0.489783 -0.423194 0.105571 -0.574203
sent_416 0.570480 -0.024507 -0.624253 -0.013633 -0.082694 0.558878 -0.057659 -0.567849 -0.061610 -0.451327 0.521623 -0.031806 -0.170890 0.170186 -0.375495 -0.048409 -0.057535 -0.264066 0.328849 -0.129858
sent_417 0.291557 -0.140294 0.797506 0.056124 0.227341 0.407300 0.394857 0.157262 0.505976 -0.070497 -0.320047 0.001047 -0.067501 -0.221065 -0.242161 -0.408635 -0.553216 0.228544 0.084107 0.714132
sent_418 0.541305 -0.258114 0.188667 0.686841 0.382768 0.447915 0.278886 -0.513492 0.146108 -0.150898 0.258948 -0.729663 -0.363268 0.519587 -0.340417 0.130407 0.027772 -0.455552 0.073964 0.283503
sent_419 0.475023 0.053138 -0.341716 0.496619 -0.118465 0.402945 -0.003832 -0.508515 0.063277 -0.277498 0.505034 -0.140451 -0.350201 0.185255 0.003828 0.241365 0.079604 -0.065919 0.195996 -0.245523
sent_420 0.582546 -0.027274 -0.580538 -0.033218 -0.070902 0.598060 -0.047713 -0.576260 -0.059808 -0.417064 0.539103 -0.007920 -0.162607 0.171264 -0.375886 -0.054270 -0.024331 -0.254758 0.318266 -0.115379
sent_421 0.370443 0.266859 0.177343 0.583858 0.087301 0.479290 0.206565 -0.454364 0.701091 0.105978 0.387181 -0.571498 -0.368328 0.469563 -0.414813 0.137245 -0.239215 0.032635 -0.079181 -0.096769
sent_422 0.422737 0.073313 -0.438078 -0.012544 0.084960 0.566810 0.040097 -0.595989 -0.180865 -0.428647 0.401606 -0.208079 -0.263916 0.057947 -0.784122 0.139061 -0.051526 -0.154566 0.300794 -0.344072
sent_423 0.543908 -0.253831 0.189195 0.731578 0.403638 0.405528 0.317257 -0.527123 0.114763 -0.195228 0.225456 -0.710216 -0.364456 0.489713 -0.280698 0.160596 -0.015779 -0.442729 0.113446 0.275731
sent_424 0.567328 0.118091 0.480576 0.140770 -0.307567 -0.145536 0.033494 0.542087 0.517607 0.522476 0.755745 -0.091353 -0.152670 0.651792 0.295518 0.168191 -0.353860 0.018442 -0.961125 0.080823
sent_425 0.581730 -0.189299 0.193596 0.695668 0.369301 0.436204 0.270298 -0.472412 0.211660 -0.116489 0.292842 -0.654495 -0.431626 0.484260 -0.288172 0.098253 -0.059567 -0.430848 0.088263 0.355353
sent_426 0.410241 0.130267 0.219897 0.596305 0.214112 0.418649 0.198241 -0.446289 0.567600 0.085113 0.485350 -0.600806 -0.510941 0.425620 -0.432423 0.095046 -0.266367 0.040530 -0.050503 0.048633
sent_427 0.126840 -0.279496 0.627684 0.610686 -0.054765 -0.471704 0.146334 0.522348 -0.294579 0.301999 -0.347141 -0.296594 0.024430 -0.131582 -0.045752 0.308654 -0.268390 0.430037 -0.531442 -0.102845
sent_428 0.332505 0.264225 0.132230 0.519496 0.124027 0.443425 0.172104 -0.369071 0.588720 0.052011 0.359064 -0.613783 -0.328848 0.460298 -0.406096 0.157404 -0.231094 0.094256 -0.131911 -0.184796
sent_429 0.317149 -0.420120 -0.972120 0.713672 -0.798283 0.379999 -0.103637 0.919955 0.117835 0.111598 0.245849 0.064470 -0.295992 0.511896 0.419026 -0.874340 0.069408 0.556923 -0.542872 0.059434
sent_430 0.339348 0.204592 0.210997 0.680519 0.218329 0.437691 0.193360 -0.418972 0.630119 0.062283 0.433993 -0.622343 -0.497843 0.438488 -0.371332 0.176451 -0.228061 0.064114 -0.058913 -0.030376
sent_431 0.237278 0.026679 0.226309 -0.063219 0.063657 0.571520 0.214469 -0.307700 0.569641 -0.232184 0.090393 -0.353623 0.005205 0.278478 -0.840702 -0.110202 -0.489688 -0.255128 -0.185406 0.064466
sent_432 -0.220621 -0.170055 -0.287828 -0.272091 -0.753265 -0.253758 -0.870339 0.627392 0.367471 -0.492647 1.249952 -0.197215 0.749740 0.339960 0.027742 0.761543 -0.457266 -0.589587 0.607660 0.088899
sent_433 0.240993 -0.317211 0.323474 0.647719 0.643946 0.605601 0.291281 -0.325351 0.079228 -0.213073 0.338403 -0.747648 -0.084370 0.354291 -0.372326 -0.005910 -0.117003 -0.460156 -0.062816 0.470683
sent_434 0.638020 0.023036 0.152189 0.226037 0.257814 0.366079 0.174582 -0.519830 0.333074 -0.057450 0.334940 -0.374755 -0.744106 0.352668 -0.767175 -0.035659 -0.396031 -0.123600 -0.012593 0.350637
sent_435 0.524424 0.093307 0.624945 0.732463 -0.145141 -0.337950 0.376225 0.044460 0.117679 0.283258 -0.751560 -0.307274 0.105312 0.316916 0.212230 0.448230 -0.324696 0.696487 0.459222 0.073038
sent_436 0.241702 0.314468 0.174866 0.507480 0.136458 0.349671 0.288610 -0.408363 0.823873 0.156196 0.322020 -0.603136 -0.364884 0.491977 -0.399604 0.145875 -0.180655 0.061771 -0.155128 -0.071644
sent_437 0.418099 -0.180657 0.265970 0.469506 -0.046925 -0.316114 0.624703 0.192690 0.219618 0.657415 -1.030872 -0.047540 -0.156045 -0.066168 -0.006591 0.135358 0.159139 0.601000 -0.006880 0.056070
sent_438 0.603128 0.113634 0.064653 0.056574 0.003795 0.363240 0.095637 -0.401556 0.428653 -0.046686 0.218478 -0.288564 -0.395453 0.281804 -0.772180 -0.011306 -0.380757 -0.106970 -0.009810 0.060137
sent_439 0.254918 -0.024194 0.218806 -0.047757 0.066717 0.597373 0.164346 -0.302025 0.624772 -0.222074 0.121618 -0.375205 0.027731 0.263603 -0.824009 -0.155548 -0.517401 -0.314730 -0.207762 0.011015
sent_440 0.218949 -0.337867 -0.946159 0.595849 -0.734397 0.356940 -0.038104 0.938517 0.005890 0.089782 0.288997 -0.118738 -0.362052 0.460963 0.404708 -0.877419 0.161125 0.595233 -0.646907 0.007170
sent_441 0.371556 0.063280 -0.417291 0.011671 0.083562 0.600533 0.018491 -0.614422 -0.163028 -0.420567 0.397587 -0.149632 -0.234261 0.134093 -0.742956 0.145171 -0.017362 -0.148274 0.303086 -0.293793
sent_442 0.219508 -0.091111 0.282326 -0.214454 -0.120452 0.557017 0.011106 -0.053354 -0.043093 0.292133 0.036761 -0.283339 -0.230885 -0.151394 -0.861710 0.081846 -0.294833 0.377915 -0.141265 0.086136
sent_443 0.382133 0.214755 0.193740 0.584941 0.075425 0.486633 0.131480 -0.506249 0.647040 0.047986 0.450968 -0.578808 -0.367332 0.551118 -0.352171 0.148845 -0.184255 0.020729 -0.097783 -0.139204
sent_444 0.175573 -0.083023 0.419897 -0.574373 0.248545 0.377843 0.248615 -0.229448 0.292370 0.540749 -0.148060 0.376757 -0.043419 -0.168562 -0.653750 -0.551693 -0.277703 0.379598 -0.425241 0.201444
sent_445 -0.421624 -0.069538 -0.717878 0.051217 -0.783683 -0.426555 -0.713095 0.433821 0.053803 -0.536606 0.790577 -0.050692 1.268597 0.416680 0.195542 0.709485 -0.399353 -0.537022 0.438084 0.013211
sent_446 0.483304 0.091312 0.513606 0.137033 -0.353815 -0.135255 0.051454 0.549585 0.580125 0.566799 0.755166 -0.088000 -0.149569 0.763156 0.363939 0.227260 -0.339831 0.034308 -1.039709 0.148488
sent_447 0.564030 -0.634343 -0.019356 0.292418 -0.156752 0.365941 -0.211872 -0.346348 -0.408082 -0.199043 0.124474 0.055960 -0.345730 -0.094616 -0.205063 -0.170458 0.091382 -0.200729 0.339541 -0.358333
sent_448 0.579020 0.132578 0.059959 0.006428 0.016027 0.371830 0.116287 -0.417443 0.417528 -0.074696 0.186702 -0.275961 -0.449695 0.317974 -0.757781 0.031946 -0.348472 -0.105729 -0.018465 0.092026
sent_449 0.726961 0.135736 -0.314187 0.409185 -0.548867 -0.639619 0.341303 0.797185 -0.211132 -0.499446 -0.119624 0.178807 0.700579 0.572593 0.671851 0.012936 -0.716933 0.085212 -0.086857 0.195097
sent_450 0.162624 -0.325496 -0.978132 0.666724 -0.734788 0.417970 -0.096933 0.899855 0.065134 0.009699 0.297539 -0.087206 -0.360753 0.505061 0.437135 -0.884356 0.181621 0.607715 -0.700249 0.046342
sent_451 0.629480 -0.010978 -0.602168 0.029153 -0.066578 0.613539 -0.054111 -0.585557 -0.034337 -0.474878 0.544332 -0.048472 -0.136617 0.107691 -0.419841 -0.062774 -0.072008 -0.271963 0.337633 -0.101117
sent_452 0.361141 -0.050593 0.255049 0.232818 0.482329 0.461412 0.278472 -0.197730 0.397174 -0.120888 0.351911 -0.449627 -0.475095 0.226029 -0.768532 -0.211955 -0.583796 -0.203069 -0.175554 0.565204
sent_453 0.537030 -0.362807 -0.056118 0.291620 0.196567 0.185557 0.199918 0.191521 0.042222 -0.505097 0.150877 -0.161407 -0.550864 0.288261 -0.298004 -0.369109 -0.567208 -0.396740 -0.071544 0.879257
sent_454 0.291981 -0.141827 0.273802 0.180094 0.512423 0.484904 0.278555 -0.255065 0.381589 -0.144880 0.337739 -0.457876 -0.449928 0.301106 -0.785631 -0.216291 -0.547096 -0.194931 -0.216942 0.571799
sent_455 0.312990 -0.127871 0.257338 0.250848 0.520071 0.513022 0.330790 -0.211978 0.437737 -0.071680 0.391113 -0.463447 -0.396321 0.260189 -0.780432 -0.245696 -0.531618 -0.209217 -0.163806 0.620450
sent_456 -0.354264 0.063636 0.300535 -0.089411 -0.524671 -0.274518 0.080941 -0.440742 0.871744 -0.135144 0.573126 0.005565 0.510229 0.086450 -0.350693 0.164021 -0.672028 -0.223801 0.256376 -0.211988
sent_457 0.539656 -0.439520 0.136917 0.228150 0.214017 0.017770 -0.083445 0.156375 0.006485 -0.640007 0.150065 -0.095443 -0.486752 0.096666 -0.119866 -0.492960 -0.616605 -0.438166 -0.148097 0.720993
sent_458 -0.389950 0.058179 -0.452735 0.503857 -0.475106 -0.149287 -0.521858 0.077290 0.691943 -0.022606 0.642697 0.150073 0.074025 0.008463 0.369794 0.327751 0.118635 -0.294014 0.148752 0.162054
sent_459 0.599501 0.001218 0.139452 0.213670 0.257158 0.401558 0.132952 -0.524898 0.332877 -0.059010 0.345016 -0.350802 -0.713615 0.342777 -0.723254 0.011993 -0.397091 -0.127298 -0.000519 0.396739
sent_460 0.543915 0.115026 0.462431 0.147624 -0.347901 -0.092580 0.030607 0.519016 0.552091 0.500695 0.755106 -0.147547 -0.117639 0.622856 0.289406 0.157985 -0.346245 0.004573 -0.894006 0.129205
sent_461 0.273648 0.019755 0.228670 -0.065963 0.065692 0.580032 0.236421 -0.244894 0.562525 -0.233729 0.152820 -0.378013 -0.018011 0.288131 -0.755815 -0.127684 -0.446432 -0.279147 -0.172373 0.047866
sent_462 0.308145 -0.165831 0.270265 -0.210458 -0.061856 0.505054 -0.016843 -0.077348 -0.156304 0.346906 0.040922 -0.290441 -0.261262 -0.182253 -0.908769 -0.023726 -0.294932 0.410665 -0.127408 -0.003497
sent_463 0.248213 0.007495 0.232940 -0.070186 0.112059 0.556891 0.178758 -0.255825 0.541548 -0.187905 0.104304 -0.365713 0.011468 0.267022 -0.826464 -0.115306 -0.467620 -0.271920 -0.195906 0.041173
sent_464 0.495243 0.083354 0.337211 0.655643 -0.976627 -0.421780 0.346626 0.400071 -0.222721 -0.817591 -0.607452 0.045707 0.273920 0.249362 0.282102 0.321812 -0.777853 0.465128 0.314262 0.444889
sent_465 0.665123 0.078573 0.115217 0.036004 0.035498 0.385816 0.120847 -0.409803 0.451740 -0.016484 0.230131 -0.301526 -0.413990 0.281871 -0.793567 -0.035777 -0.401626 -0.147985 -0.024839 0.017608
sent_466 -0.045290 -0.020663 0.395252 -0.005568 0.026691 0.278568 0.303971 -0.195195 0.444807 -0.226901 0.159382 -0.340049 0.171413 0.384149 -0.556382 0.035127 -0.450700 -0.219755 -0.350210 -0.095071
sent_467 0.341354 -0.113249 0.202369 -0.016835 0.005909 0.534031 0.121068 -0.201578 0.594361 -0.107452 0.043695 -0.204310 0.066799 0.301524 -0.693744 -0.134639 -0.494787 -0.188518 -0.065155 0.087688
sent_468 0.503393 -0.231884 0.500683 0.140582 -0.442465 -0.653910 0.119038 0.379458 -0.751748 0.379873 -0.480543 0.152462 0.065040 0.010995 -0.025319 0.289838 -0.099660 0.383707 -0.063598 0.004825
sent_469 0.371314 0.145858 0.263876 -0.713069 -0.259709 0.170240 0.297871 0.460042 -0.099303 -0.842310 0.376125 -0.396852 -0.176226 0.152993 -0.088081 -0.083695 -0.547653 -0.377571 0.373335 0.532433
sent_470 0.264726 -0.063486 0.282089 0.848275 -0.898802 -0.665680 0.179243 0.156762 0.088326 0.503636 -0.672016 0.146823 0.190814 0.035392 -0.246202 0.456033 -0.340460 0.273770 -0.377213 -0.306631
sent_471 0.026971 -0.251012 -0.016121 -0.353380 -0.337353 -0.384860 -0.140523 1.047896 -0.407479 0.135580 -0.074040 0.631700 0.710525 0.042491 0.157460 -0.347616 -0.688007 0.006208 0.401826 0.118211
sent_472 0.057111 -0.093429 0.694947 0.830541 -0.253405 -0.436249 0.358742 0.338967 0.191392 0.513143 -0.534867 0.046209 -0.275345 -0.345738 -0.181121 0.450334 -0.228995 0.275184 -0.203118 0.182250
sent_473 0.541739 -0.172681 0.300040 0.692749 0.403478 0.268433 0.115457 -0.496749 0.128036 -0.308947 0.245019 -0.629454 -0.461928 0.264922 -0.230955 0.077374 -0.116030 -0.413291 0.042611 0.192078
sent_474 0.273799 -0.274252 0.316445 0.608256 0.601864 0.611005 0.278444 -0.277888 0.131193 -0.215923 0.332301 -0.765338 -0.110420 0.344768 -0.383513 -0.040282 -0.174992 -0.420087 -0.067337 0.415220
sent_475 0.362956 0.132449 0.173772 0.634868 0.221918 0.445863 0.163810 -0.447369 0.620643 0.101392 0.449570 -0.577522 -0.436951 0.468771 -0.392966 0.136534 -0.213187 0.041802 -0.059854 0.025662
sent_476 0.559091 -0.391983 -0.045505 0.292169 0.131039 0.183604 0.287740 0.204022 0.056882 -0.555078 0.128194 -0.162834 -0.505647 0.294164 -0.281648 -0.390558 -0.576780 -0.442368 -0.052105 0.869776
sent_477 0.257627 -0.036567 0.178675 -0.073029 0.093739 0.561025 0.230169 -0.283837 0.570730 -0.196061 0.097452 -0.347919 -0.017460 0.324133 -0.784477 -0.137935 -0.451881 -0.283702 -0.203192 0.046720
sent_478 0.582231 0.152491 0.098901 0.034020 -0.024006 0.429817 0.155766 -0.509267 0.463611 -0.015808 0.224837 -0.301801 -0.488421 0.343695 -0.766876 0.027916 -0.317391 -0.121535 0.005059 0.124558
sent_479 0.419600 -0.248877 0.076923 -0.089216 -0.311476 0.058178 -0.156139 0.368175 0.466862 0.309823 -0.143211 0.723355 0.302691 -0.088210 -0.096145 -0.288460 -0.154910 -0.168642 0.161129 0.415173
sent_480 0.663228 -0.016136 -0.508436 0.070435 -0.093674 0.647951 -0.051681 -0.492849 -0.150123 -0.468010 0.502979 0.170869 -0.240485 0.340599 -0.435701 -0.013049 -0.041942 -0.198625 0.418996 -0.081401
sent_481 0.149101 0.109432 0.715621 -0.129407 -0.410883 -0.240675 0.989136 0.603987 -0.351598 -0.119222 -0.474759 0.084755 -0.058341 -0.320277 0.161137 0.397059 0.005253 0.336442 -0.098507 0.346725
sent_482 0.337295 0.121985 0.316253 0.087010 -0.002840 0.056003 0.187927 -0.384902 0.314753 -0.123789 0.212885 -0.292605 -0.341261 0.461673 -0.549655 0.180646 -0.384190 -0.087169 -0.203751 -0.091793
sent_483 0.416764 0.196865 0.181390 0.564249 0.114635 0.484250 0.142832 -0.449629 0.637940 0.112999 0.398453 -0.578882 -0.311505 0.437576 -0.417170 0.115326 -0.210298 0.027671 -0.086155 -0.159334
sent_484 0.631780 0.145653 0.105360 0.005003 0.017648 0.382032 0.145441 -0.400678 0.390856 -0.008725 0.230554 -0.286560 -0.407606 0.296933 -0.782419 -0.024326 -0.350065 -0.133118 -0.028322 0.056643
sent_485 0.055272 -0.186746 -0.705061 0.060783 -0.788873 -0.313195 -0.746857 0.344574 0.191867 -0.506710 0.932024 -0.119233 0.881879 0.319036 0.167619 0.625916 -0.515507 -0.434091 0.407515 -0.006020
sent_486 0.904972 0.236248 0.035711 -0.103051 -0.039273 -0.154217 -0.539040 0.248731 -0.270856 0.101609 0.120155 0.122707 -0.105662 0.073628 0.189470 -0.376599 -0.547060 0.214594 0.016965 -0.092551
sent_487 0.356625 -0.058459 0.431715 0.316418 0.472250 0.457855 0.149212 -0.165870 0.485312 -0.070862 0.265552 -0.293841 -0.388209 0.243815 -0.707159 -0.193001 -0.731342 -0.134393 0.039460 0.673577
sent_488 -1.312296 -0.545619 -0.307296 -0.573085 -0.384568 0.340850 -0.642705 0.528923 0.451908 0.362034 0.267361 -0.148745 0.605545 -1.151395 -0.089946 0.154476 0.168507 0.362741 0.439654 -0.114346
sent_489 0.283937 -0.136714 0.390375 -0.237818 0.027011 0.393142 -0.294320 -0.061338 -0.204840 0.163589 0.039961 -0.360229 -0.201218 -0.276851 -0.853053 0.034138 -0.377184 0.390043 -0.271109 -0.174905
sent_490 0.534613 -0.353519 -0.006076 0.240682 0.145835 0.163063 0.203602 0.203303 0.070546 -0.568188 0.127412 -0.199472 -0.491683 0.263107 -0.230000 -0.371790 -0.524259 -0.426707 -0.073865 0.791535
sent_491 0.546497 0.126282 0.527512 0.333688 -0.305054 -0.113022 -0.041455 0.427215 0.224381 0.371790 0.760366 -0.207525 -0.237984 0.659956 0.313235 0.302183 -0.325418 0.165548 -0.888926 -0.149518
sent_492 0.297639 -0.316586 -0.964039 0.635659 -0.687982 0.340190 -0.085590 0.904499 0.004243 0.074560 0.300050 -0.076687 -0.340677 0.467025 0.376785 -0.887488 0.106729 0.537149 -0.672781 -0.000288
sent_493 -0.263234 -0.089006 -0.250005 -0.297961 -0.748704 -0.205467 -0.786195 0.682067 0.386283 -0.547591 1.299892 -0.245004 0.769716 0.337949 -0.018758 0.846722 -0.434313 -0.645307 0.636317 0.133522
sent_494 0.234974 -0.283763 -0.897804 0.594697 -0.683699 0.327186 -0.089129 0.856321 -0.034332 0.076488 0.290488 -0.103842 -0.356234 0.462946 0.425621 -0.856552 0.169221 0.604708 -0.669599 -0.032175
sent_495 0.296175 -0.340972 0.306504 0.585842 0.597149 0.634025 0.314073 -0.327263 0.107725 -0.283067 0.308352 -0.715126 -0.126177 0.419401 -0.345960 -0.055696 -0.201954 -0.466290 -0.083977 0.416477
sent_496 0.666811 -0.016646 0.178244 0.233817 0.260780 0.432955 0.074474 -0.503599 0.424785 -0.047467 0.401770 -0.373675 -0.708162 0.295494 -0.784023 -0.040786 -0.424875 -0.134900 -0.001541 0.407338
sent_497 0.246423 -0.065470 0.188583 -0.053122 0.050354 0.585947 0.209812 -0.288979 0.607180 -0.195976 0.113450 -0.357808 0.029318 0.305891 -0.818020 -0.137512 -0.416243 -0.315664 -0.209400 0.069464
sent_498 0.270626 -0.342056 -0.962252 0.617417 -0.659910 0.381471 -0.044118 0.909956 0.019592 0.092825 0.280031 -0.073898 -0.304647 0.438888 0.341021 -0.865465 0.120736 0.509614 -0.638541 0.021560
sent_499 0.200802 -0.369715 -0.983832 0.615357 -0.701440 0.399057 -0.042851 0.830153 0.042817 0.062266 0.233958 -0.064131 -0.329735 0.452841 0.311026 -0.815996 0.152731 0.514431 -0.649899 0.050080
sent_500 0.369291 0.102448 0.260306 -0.645489 -0.259470 0.175346 0.247093 0.427502 -0.092001 -0.837267 0.329010 -0.385257 -0.133384 0.172743 -0.057884 -0.080560 -0.489485 -0.398909 0.349802 0.506544
sent_501 0.325223 0.050192 0.231064 -0.045875 0.053134 0.533971 0.204224 -0.246626 0.491803 -0.177476 0.143690 -0.347682 0.002103 0.239489 -0.755899 -0.180582 -0.492794 -0.249398 -0.189041 0.005904
sent_502 0.591968 0.031392 0.180285 0.226792 0.268446 0.365971 0.107238 -0.462182 0.319270 -0.121190 0.317972 -0.356961 -0.683790 0.281927 -0.743643 0.014292 -0.429675 -0.095308 -0.016819 0.404703
