306 20
leftidentifier 0.165754 -0.554283 0.304367 -0.451299 -0.096206 -0.060963 -0.419705 0.143065 0.668195 -0.277950 -0.482810 -0.428189 -0.619745 0.783944 0.605071 -0.480870 -0.619721 0.276801 0.457820 -0.513858
setpoint -0.128763 -1.066829 0.415703 0.080767 -0.058915 0.404628 0.540426 -1.077715 0.916209 0.482899 0.370046 -0.549070 -0.480861 0.981084 0.580641 0.276822 0.109444 -0.207827 0.199042 -0.488152
building-apm 1.042007 -0.652167 0.059032 -0.276237 -0.447417 1.171934 1.239930 0.235610 0.047002 0.279044 0.226013 0.399331 0.857891 0.249379 -0.614827 0.984578 0.608756 -0.038574 0.031905 1.579405
networkadapter-nae -0.086751 -0.274580 0.175906 0.557435 -0.340158 -0.262043 -0.811029 0.424538 0.204149 -0.467551 -0.643784 -0.408074 -0.573989 -0.101356 -0.473044 0.254487 -0.713986 -0.435993 0.044704 -1.230771
networkadapter-n 1.344900 -1.215490 -0.165264 -1.202098 0.202966 -0.001385 0.322179 0.614192 -0.402875 -0.070040 -0.097543 -0.341866 -0.249502 1.870441 -0.290919 -0.686056 -0.319498 -0.427477 -0.266314 -1.041114
temperature -0.855805 0.881045 0.206950 -0.601764 0.907369 -0.162687 0.616613 -0.104806 0.450917 1.068962 -0.306264 0.261759 0.831538 -0.297739 -0.848124 -0.796154 0.287273 -0.170577 -0.964868 -0.044018
air -0.301285 -0.164784 0.523713 0.628087 -0.553968 0.617912 0.469613 -0.498896 -0.134568 -0.443947 1.286754 1.244725 -0.466290 0.283763 -0.155164 1.358431 0.812091 0.529591 1.005315 -0.867047
vav 0.182576 0.299520 1.107235 -0.028769 0.370020 -0.787299 0.251788 0.169091 -0.257461 0.172036 0.743052 0.071075 -0.608028 -0.741530 0.746910 -0.995148 -0.183256 -0.102855 -0.471410 -1.022794
networkadapter-trunk 1.072756 1.020116 0.115017 0.048479 -0.244849 -0.393668 -0.904772 0.505444 -0.533388 -0.358505 -0.465119 -0.921582 -0.404483 -0.777514 0.200191 -0.882880 -1.381746 0.436216 0.580972 -1.241829
supply 0.315366 0.209268 0.374008 0.259846 -0.048955 0.318886 -1.278749 -0.944336 -0.770471 -0.162359 0.816729 -1.197860 0.376374 -1.477315 0.508294 0.036910 0.105982 -0.344447 -0.285472 -0.212146
command -0.103056 -0.889752 0.573085 -0.006731 0.526173 -0.276653 0.533284 0.373228 -0.125611 0.345133 0.300562 -0.547098 -0.887199 0.072711 0.886624 -0.027625 0.030803 0.314095 0.883511 1.075285
heating -0.897108 0.545027 0.369999 0.704080 1.311724 0.476220 0.400875 0.668195 -0.955436 0.092803 0.524407 -1.130852 0.214991 -0.712374 -0.125303 -0.113593 -0.109396 0.378130 0.055189 0.451915
room 1.747089 -0.189639 0.255059 -0.594731 -0.636110 0.222207 1.883242 0.532565 0.029626 0.916801 0.097923 1.130666 -0.285740 0.654273 -0.782054 0.147973 0.096864 0.298220 -0.177701 0.511252
flow -1.206327 0.894472 -1.929083 0.608241 0.614016 0.408503 1.125666 -1.606048 -0.154462 -0.085718 0.290965 0.463790 0.373695 0.136969 -0.878132 0.178556 1.141534 -0.232905 0.136836 -0.315592
cooling -0.642962 0.995396 0.065708 1.258825 0.881059 0.357322 0.284526 0.057896 -0.695547 0.319343 0.705966 -1.488721 0.021103 -0.437940 -0.099823 0.297743 0.365317 0.168840 -0.199980 0.109823
occupied -0.182449 0.655891 0.466798 0.719075 0.110206 -0.189982 0.079731 -0.007341 0.286479 -0.894003 -0.116048 -0.827773 -0.439685 0.090222 0.001420 -0.159825 -0.396840 -0.271444 0.366604 -0.841302
sensor -0.327990 -1.150318 0.544305 -0.269810 -0.961291 0.145703 -0.136104 -0.823010 0.084808 0.369539 0.420629 -0.202386 -0.318706 -0.848500 0.097823 0.536281 0.489760 0.239088 -0.038827 0.627665
water -0.883638 -1.374978 -0.935462 -0.741792 -0.421497 -0.051084 -0.167009 0.565813 -0.834341 -0.755956 0.969861 0.975522 -0.688616 -1.573803 -0.592965 -0.561395 -0.103549 -0.347360 0.101322 0.669481
fan 0.500070 0.394554 -0.045749 0.056234 -0.979885 -0.657290 1.180196 0.817272 -0.455981 -0.492840 -0.011193 1.058861 0.924657 -0.170586 0.319012 0.902417 0.121437 0.620220 1.149159 -0.518359
ahu 1.068086 0.148152 -0.520033 -0.306089 -0.237167 -0.185934 0.948027 0.479857 -0.261533 0.164662 0.523724 0.031410 0.033334 -0.369699 0.290849 -0.401529 0.247175 -0.270462 0.219660 -0.159190
vfd 0.513723 -0.257701 1.032101 0.579545 -0.199929 -0.868805 0.301532 0.234625 -0.412112 0.612717 -1.167301 -0.192618 -0.251655 -0.431002 0.479133 0.348559 0.641600 0.162160 0.048337 -0.688089
status 0.043456 -0.519825 0.191230 0.785249 0.221397 -0.551239 0.429115 0.367665 -0.669287 0.001312 0.156915 -0.254972 -0.243762 -0.076398 0.807592 0.451162 0.437355 0.302740 0.020530 0.583274
pressure -1.656340 1.164120 -0.803824 -0.127391 -0.544320 -0.382864 0.106045 0.953521 0.894997 -0.330955 -0.065736 -0.200052 0.654090 -0.818879 -1.053928 0.098078 0.108793 -0.560085 0.325244 -0.277313
discharge -0.193223 0.462674 0.049085 0.247837 0.640441 -0.110022 -0.855483 -1.010746 0.073990 0.005442 0.073369 -1.046126 0.367356 -0.625464 0.745577 -0.381311 -0.004373 -0.112428 -0.227568 -0.259170
min -0.036336 -0.044748 0.464530 0.232612 0.493442 0.205756 0.140109 -0.819876 0.297177 -0.619776 0.774117 -0.496132 -0.844775 -0.214976 -0.526375 0.412562 -0.529703 0.083662 0.555071 0.295974
exhaust 0.214611 0.300398 -0.222450 0.779476 -0.257439 -0.357460 0.057027 -0.287601 -0.797032 0.050905 0.191671 -0.827358 0.904025 0.025751 1.220774 -0.180765 0.201920 -0.182920 -0.478360 0.559514
max 0.360980 0.458251 0.319434 0.271728 0.165427 0.162408 0.010671 -0.859834 0.454700 -0.442365 0.385248 -0.477986 -0.630460 -0.258436 -0.430665 0.343905 -0.559889 0.114658 0.690976 -0.059731
building-ebu3b -0.165181 -0.343593 0.541649 -0.024671 -0.238425 -0.605900 0.102408 0.557327 0.135123 0.180233 0.137004 -0.321196 -0.361408 0.033885 -0.141988 0.147078 -0.200693 -0.185423 0.504685 -0.932232
valve -0.023509 -0.546738 1.035049 -0.232060 0.370850 -0.216984 0.077584 -0.153772 1.496292 -0.504147 -0.609699 0.200682 -0.079101 0.191708 0.658248 -0.607827 -0.313266 -0.237019 0.520553 0.116886
chilled -0.277420 0.118766 0.063213 -0.125887 0.088568 0.248138 -0.852709 0.623793 0.445823 0.853274 -0.917170 0.285360 1.117123 -0.137553 0.433820 0.098094 0.484267 0.341892 0.901537 -0.649370
differential -0.135525 -0.636908 -0.158912 0.344023 0.477643 0.208455 -0.849047 -0.458946 -0.325757 0.696757 0.601010 -0.656156 0.243973 0.315001 0.385487 0.418302 0.483981 0.275657 0.265060 0.012593
hot -0.428506 -0.471718 0.011236 -0.464268 0.458824 0.070042 -0.833777 0.208470 0.224253 0.754559 -0.914133 0.135041 0.527075 0.029602 0.025747 -0.228081 0.756721 0.849022 0.348265 -0.459415
damper -0.331106 0.063753 0.082215 -0.463183 -0.092857 -0.305075 0.205259 0.233144 -0.382718 -1.392091 -0.180808 -0.603499 0.126938 -1.142973 0.989738 -0.502470 -0.507121 -0.504690 0.521182 0.095978
zone -0.203589 -0.189830 0.932972 0.021165 -0.120125 0.139099 -0.407693 -0.267270 -0.006997 0.467157 0.287004 0.036634 -0.527823 -0.946227 -0.411906 -0.458674 -0.322413 0.533275 -0.014436 -0.404885
pump -0.051971 -0.110308 0.241670 -0.096257 0.033946 -0.613236 -0.407449 0.831769 -0.540911 -0.172325 -0.648351 -0.255183 0.525129 -0.561086 0.438246 -0.647286 -0.123468 -0.312836 0.407193 -0.434393
alarm -0.487294 -0.301504 0.607409 -0.173116 -0.311595 -0.443360 -0.290771 -0.067382 -0.336233 0.786428 -0.330181 0.238131 0.216144 -0.425583 -0.249213 0.156218 0.474200 -0.450315 -0.385521 -0.147251
static -0.325329 -0.316394 -0.462131 0.065668 0.987485 0.362130 -0.330730 -0.260134 -1.262699 0.870248 1.623728 -0.152111 1.165291 0.355496 -0.044500 0.522012 0.645244 -0.444218 -0.951705 0.724439
return 0.213284 0.441564 -0.313518 0.769131 -0.039430 0.251799 -0.561853 -1.000755 -0.580897 0.223124 -0.405165 -0.648429 0.081462 -0.517208 0.251875 -0.716299 0.095918 0.079826 0.042253 -0.430722
band -1.337204 0.623193 -0.240661 -0.686812 0.540965 0.222783 -0.487735 0.356406 -0.999753 0.347903 2.113073 0.037673 0.523168 0.482981 -0.754801 0.109261 0.185110 -0.616278 0.122788 0.023049
speed -1.176241 0.063188 -0.082371 1.246084 0.202649 -0.361578 0.525920 0.192197 -0.797178 -0.866382 -0.913667 -0.277408 0.426663 -0.313989 -0.618429 -0.081507 -0.111491 0.111573 0.701426 -0.049435
crac 0.499072 0.118358 0.591883 -0.238775 -0.643318 -0.495813 0.287433 0.560404 0.171679 0.669651 0.017494 0.178145 -0.304474 -0.016217 0.208261 -0.111090 -0.216450 -0.261086 -0.071980 -0.660672
unknown 0.680214 0.290531 0.727460 -0.096254 -0.389492 -0.553278 0.303843 1.143903 -0.214460 0.313481 -0.181368 0.034913 0.294353 0.134384 0.031357 -0.215633 -0.610395 -0.194718 0.444808 -0.622727
reset -0.504851 -0.000264 0.129975 0.755791 -0.169915 -0.554956 0.254665 0.172428 0.270369 0.153272 0.207851 0.015267 0.053624 -0.573523 -0.001846 0.185571 0.184972 -0.601552 -0.301756 0.590054
adjust -0.353486 0.163104 -0.925144 0.125847 -0.412347 0.449791 -0.096493 -0.155619 0.369315 -0.231950 0.206760 -0.017351 -0.652756 0.789114 0.210997 -0.621309 0.345908 0.263987 -0.425966 -0.352011
system -0.589784 0.045847 -0.034160 -0.214401 0.695555 0.099327 -0.060872 0.096663 -0.227294 0.433633 -0.325846 0.210170 0.516324 -0.351881 0.418821 -0.313164 0.710787 -0.145186 0.114017 0.128491
warm -0.293661 0.381610 -0.423630 0.910796 -0.381470 0.093642 -0.367201 1.017755 0.774212 -0.356878 0.446228 -1.120485 -0.377437 -0.025046 0.880245 -0.925216 -0.376239 0.534174 -0.049971 -0.111603
cool -0.810819 -1.168999 -0.814600 0.377000 -0.709114 0.076239 -0.561574 0.631306 -0.459924 -0.297880 -0.124580 -0.342438 -0.619578 -0.017181 0.945332 -1.005341 0.579645 0.768809 -0.187271 -0.805896
networkadapter-vnd 0.325459 0.275956 -0.006622 0.121886 -0.479766 -0.265379 -0.116353 0.636754 0.693280 -0.037407 0.006264 -0.337354 -0.192743 0.025781 -0.025510 -0.223185 -0.558652 -0.078528 0.123563 -0.559452
enable -0.498810 -0.448098 0.264534 -0.069025 0.220295 -0.843321 0.532503 -0.163284 -0.724578 -0.572320 -0.570073 -0.094362 -0.276470 -0.407499 0.001076 0.008495 0.322807 0.062618 -0.078909 0.091624
position -0.754156 1.450446 -0.156530 -0.204262 0.581758 0.499585 0.053240 -0.177523 -1.037925 0.122638 0.854017 -0.304953 0.645077 -0.207866 0.011347 0.204009 0.579311 -0.067720 0.572434 0.002368
start -0.059332 -0.677826 -0.612588 -0.132366 -0.032478 -0.591500 0.077261 0.224268 -0.864822 -0.561948 -0.541728 -0.357186 0.347058 -1.107278 1.427917 -0.479238 0.157052 -0.052056 0.077366 0.545011
stop -0.202625 0.171450 0.232728 -0.301800 -0.159494 -1.071176 0.495653 0.623691 -0.045869 -0.987770 -0.962988 -0.077267 0.797091 -0.769404 0.476037 -0.097721 0.137370 -0.779790 0.020031 0.413494
outside -0.576514 0.482262 -0.463606 0.293100 0.603385 -0.127911 0.004570 -1.141383 -0.282624 0.028251 -0.048758 -0.806024 0.424993 -0.891477 0.297075 -0.670635 0.290987 -0.339674 -0.540447 0.050118
proportional -0.481372 -0.893328 0.672598 -0.221487 -0.678237 -0.245499 -0.454421 0.947650 1.436519 -0.013619 -0.052848 -0.046177 0.218421 -0.030167 -0.437950 0.786345 -0.503641 -0.151361 0.379591 0.080332
off -0.698003 0.142059 0.810490 -0.250042 0.027353 -0.798681 1.089903 0.445971 -0.695862 -0.474077 -0.420743 0.362563 0.615759 0.515457 0.624788 0.653730 0.615817 -0.660602 -0.082763 -0.105598
high -0.497298 -0.499124 0.102956 0.415061 -0.493697 0.173350 -0.725858 -0.388442 -0.115214 0.740033 0.869365 0.137123 -0.362175 -0.087920 -0.619397 0.206922 -0.027648 -0.004968 -0.289728 -0.366883
time -1.373311 0.420427 0.350481 0.399398 -0.151797 -0.330113 -0.189666 0.174333 -1.006869 -0.006690 0.028482 0.067257 1.033795 0.538674 -0.519619 0.770608 0.342254 -0.316131 0.070647 -0.540210
mode -0.526538 0.604886 0.068268 1.173122 -0.824593 -0.352380 0.284169 0.386122 0.720821 0.444938 0.146436 -0.376729 0.220817 0.534311 0.523399 0.887734 0.184721 0.508028 -0.873750 0.099027
rightidentifier 0.411056 -0.066078 0.002270 0.042130 -0.494312 -0.029233 -0.287774 -0.076842 0.858050 0.329005 -0.462438 0.504602 -0.260996 -0.427555 0.556589 0.119192 0.165778 0.056152 0.086291 0.604973
heat -0.821496 0.135501 -0.145758 0.600410 -0.258787 -0.729409 -0.506517 0.052077 -0.035652 -0.040999 -0.462054 -0.069197 -0.090900 -0.632826 0.775658 -0.834830 0.587867 0.578971 -0.207605 -0.638576
load -0.954771 0.198764 0.666983 0.971566 0.166782 -0.149412 -0.918831 -0.172094 -0.219351 0.857627 -0.172552 -0.175544 0.924913 -0.014551 -0.094440 0.706590 0.469699 0.190207 0.077199 -0.482726
economizer -0.441763 -0.469041 -0.279749 0.058245 0.536956 0.107866 0.100130 -0.550959 -0.264807 -0.355427 0.196668 -0.006078 0.134457 -0.761861 0.302768 0.029654 0.463265 -0.104436 0.200759 0.371764
integral -0.563945 -1.524724 0.081840 -0.481988 -0.156567 -0.280329 0.369830 0.662311 0.193237 -0.167823 0.425783 0.357098 0.235557 -0.174191 -0.484629 0.098548 -0.569261 -1.049168 -0.273579 0.248692
on -0.047791 -0.373988 0.683878 0.472747 0.279460 -0.410203 0.914987 0.384593 -0.048635 0.258744 -0.250495 0.310511 0.305108 -0.294316 0.758127 0.399347 0.305475 -0.449120 -0.505767 0.750370
dead -0.607103 -0.802062 0.731984 -0.477192 -0.688464 -0.273332 -0.558800 0.610150 0.895389 -0.393726 -0.078337 0.000091 0.074732 -0.024273 -0.556060 0.487990 -0.661305 -0.117523 0.083321 0.168696
shed 0.210277 -1.044311 -0.037393 0.152129 0.424982 -0.214073 1.189809 0.933622 0.786734 -0.288013 -0.141257 0.167545 -1.134860 0.091223 -0.351027 0.022458 -0.304126 -0.465022 0.374241 0.787460
hws 0.018144 -0.047500 -0.302983 -0.268558 0.219605 0.495356 -0.181866 -0.127175 -0.229183 0.249500 0.158490 0.744968 -0.383906 -0.297221 0.135402 -0.381344 0.504529 0.308945 0.179352 0.373801
low -0.348692 -0.501337 -0.015046 0.201274 -0.278168 0.062096 -0.501421 -0.550018 -0.354799 0.482650 0.948169 0.069826 -0.416568 -0.205168 -0.177661 0.183244 0.201764 0.004388 -0.323057 -0.103461
box 0.509648 -0.076200 0.804372 -0.190143 0.003092 -0.238386 -0.041161 0.506723 -0.410885 0.303075 0.986526 0.126419 -0.179363 -0.092810 0.653019 -0.121072 -0.143930 -0.524963 -0.741760 0.430329
current -0.219452 0.418092 0.300074 0.654631 -0.187577 -0.556597 0.642680 -0.166929 -0.060119 0.368834 -0.760952 0.526848 -0.045995 -0.246810 -0.373255 0.038831 0.086765 -0.139715 -0.304159 -0.264315
direction -0.196402 -0.352051 0.754058 0.609922 -0.060098 -0.445490 0.372054 0.430883 -0.214109 -0.463545 -1.132675 0.203679 0.141038 -0.001544 0.027989 -0.187210 -0.175400 -0.118839 -0.220568 0.094289
networkadapter-t 0.977823 -0.454776 0.063761 -1.300668 -0.268881 0.034389 -0.043964 0.113100 -0.072624 0.105086 -0.361358 0.502058 -0.564022 0.691789 0.106720 -0.290326 0.142453 0.412989 -0.011125 -0.158493
exchanger 0.571528 -1.065452 -0.602988 -0.249677 0.560963 0.624018 0.617854 1.119610 0.156320 0.496923 0.006941 0.635584 -0.556381 -0.527506 -0.161655 -0.369719 0.230327 0.137646 0.911411 0.162086
average 0.341371 0.371230 0.314775 -0.326539 -0.632686 -0.043872 0.107370 0.160842 1.110788 0.228358 0.194511 0.355390 -0.045955 0.342505 0.423001 0.598249 0.156107 0.058419 0.261932 0.113289
power -0.144968 -0.721704 0.574208 -0.335015 0.324468 -0.276379 0.942803 0.119062 -0.079622 0.658565 0.218251 0.096921 0.000075 0.158989 0.764606 0.763558 0.731819 -0.189914 -0.143940 -0.003743
humidity -0.497193 0.662243 -0.364314 0.343413 0.239066 -0.161601 0.399019 0.305107 0.720038 0.655178 0.023122 0.220007 0.607466 0.114504 0.050073 -0.267310 0.441961 -0.729703 -0.211465 -0.516368
co2 -0.137722 0.324157 -0.416603 -0.436867 -0.026774 -0.027250 -0.069744 0.172813 0.318030 0.003036 0.077278 -0.084407 0.142633 -0.142125 -0.236609 -0.776460 -0.024856 -0.402905 0.374113 -1.043377
medium -0.725204 -0.413322 0.173429 0.025521 0.117838 0.406679 -0.688576 0.111598 -0.606941 0.282999 0.470172 0.373000 -0.569046 -0.512163 -0.800898 -0.164374 -0.050385 0.397201 0.238213 -0.062489
limit -0.725864 -0.378938 0.113908 0.931397 -0.215530 -0.247728 -0.115661 0.132164 0.019913 0.806063 0.076421 -0.116333 0.264490 0.051821 -0.217267 0.197274 0.168831 -0.137539 -0.746823 -0.209615
fcu 0.074799 -0.140783 -0.107014 0.052967 -0.194662 0.107396 0.332354 -0.022918 0.147580 -0.246171 0.060747 0.236294 -0.143147 0.032784 -0.101236 0.142918 -0.019520 0.040763 0.032228 0.217466
run -0.131598 -0.380457 0.122736 0.404914 -0.191087 -0.439675 0.307142 0.310841 -0.148073 -0.272686 -1.015053 0.256808 0.024347 -0.096153 0.526071 -0.279132 0.182574 0.000905 -0.196240 0.120440
fault -0.574991 -0.274431 0.460216 1.106517 -0.182365 -0.334772 0.503648 0.589039 -0.299704 0.365669 -0.259302 0.216476 0.363685 -0.221866 -0.034895 0.558336 0.076789 -0.054758 -0.251010 0.101134
panel -0.293268 0.376137 0.876054 -0.494948 -0.070517 -0.500140 0.644802 0.649402 0.261541 -0.185317 -0.265295 0.702489 -0.149761 -0.227972 0.432402 0.037616 0.397410 -0.080365 -0.090361 0.165786
cws -0.148274 -0.242431 -0.610282 -0.159819 0.129468 -0.204403 -0.295573 0.028690 -0.074322 -0.170055 -0.294165 -0.234961 0.265616 -0.539428 0.538916 -0.640035 0.115596 -0.191237 0.032872 -0.060445
meter -0.595507 -0.280064 0.302740 0.026158 0.002618 -0.141438 -0.125955 -0.280586 -0.540884 0.312855 -0.440952 0.179421 0.023456 -0.217766 0.280345 -0.075584 0.704196 0.310537 -0.033912 -0.232207
demand -0.206398 0.555712 -0.108941 0.175523 0.140688 -0.136572 0.330525 -0.159116 0.435586 -0.073362 -0.126116 0.081201 0.026482 -0.085108 -0.172345 -0.125115 0.112299 -0.206242 0.277101 -0.064872
filter -0.261991 -0.205179 0.307833 0.278679 -0.135578 -0.552013 0.105798 0.056461 0.043906 0.204923 -0.291391 0.070418 0.317239 0.013648 0.414873 0.149264 0.345099 -0.292787 -0.240343 -0.246845
floor 0.651675 -0.140090 -0.173030 0.523171 -0.335285 0.213313 -0.029229 -0.275521 0.730293 0.817680 0.325169 -0.038150 -0.563548 -0.044216 0.701512 -0.166549 0.186173 0.161906 -0.031186 0.127839
emergency -0.245660 -0.292375 0.195184 -0.062248 0.213707 0.184122 0.286881 -0.294562 -0.540065 0.392572 -0.169894 0.496209 0.353518 -0.222849 0.335265 0.240213 0.781174 -0.012302 -0.171430 0.194237
frequency -0.239716 0.208069 0.488138 0.423062 0.045742 -0.055663 0.282883 0.226145 0.056539 0.263359 -0.847129 0.282429 0.304011 0.093918 0.185521 0.196631 0.266064 0.259893 0.047798 0.111654
disable -0.545962 -0.093834 0.352444 0.043745 -0.057824 -0.413906 0.091654 -0.123719 -0.007711 -0.275426 -0.090002 -0.073899 -0.053160 -0.417879 0.266841 0.200559 0.265963 -0.187998 0.213701 -0.154426
energy -0.225974 -0.307885 -0.065718 0.175691 0.206318 -0.074172 0.778895 0.031958 -0.101650 0.345099 -0.285314 0.185612 -0.074191 -0.102703 -0.007588 0.170369 0.585022 0.296096 -0.215404 -0.016953
motor -0.255519 -0.153627 0.142480 0.242773 -0.197150 -0.191212 0.240296 -0.001957 -0.281260 -0.090186 -0.387498 0.180536 -0.262496 -0.432237 -0.015256 0.049994 0.278074 0.036365 0.252575 0.097487
velocity 0.114340 -0.658364 -0.182985 -0.138855 0.404817 0.322590 -0.006886 -0.200716 -0.435218 0.492152 0.862205 0.160682 0.480810 0.556103 0.013631 0.173227 0.277060 -0.471009 -0.668295 0.492486
level -0.244504 0.381435 -0.203310 -0.326582 0.041058 0.078507 -0.178673 -0.040174 0.337399 0.439658 -0.269727 0.186123 0.425135 0.250652 0.082096 -0.251310 0.519329 0.082558 0.565427 -0.954259
networkadapter-dx 0.678796 0.085295 -0.016967 -0.272517 -0.266533 -0.206391 -0.088493 0.337899 0.215319 -0.266446 -0.240069 -0.259768 -0.147149 0.053488 -0.016157 -0.318566 -0.607505 -0.095312 0.018095 -0.242409
control -0.918511 0.054391 0.218322 0.125500 0.298380 -0.134244 0.065305 0.338616 -0.980064 -0.501287 0.284733 0.222792 0.208085 -0.435657 -0.310684 -0.068657 -0.036798 -0.295755 0.016191 0.365618
enthalpy -0.619931 0.654464 -0.480365 0.061718 0.350754 -0.017636 0.169257 0.009145 -0.015576 -0.020221 0.000493 0.070769 0.352945 -0.241636 -0.226874 -0.322177 0.322379 -0.268890 0.510132 -0.571274
unoccupied 0.087000 0.236244 0.532253 0.025600 0.272825 0.066054 0.238206 -0.100769 0.188095 -0.184409 0.214893 -0.252265 -0.335969 0.018323 -0.060798 0.200356 -0.255906 0.019359 0.157884 0.049974
preheat -0.177558 -0.226632 -0.050251 0.361330 0.315657 0.083175 0.124543 0.068328 -0.381275 -0.186064 -0.059563 -0.100943 0.143777 -0.316984 -0.224087 -0.111480 -0.107291 -0.004341 -0.002333 0.263511
coil 0.051655 0.094372 0.274473 -0.074677 -0.060413 -0.120382 -0.235506 -0.333284 0.248321 -0.080270 0.000487 -0.138686 -0.152148 -0.065523 0.461191 0.056540 0.089187 0.297819 0.090235 0.265044
standby -0.043925 0.171459 0.070719 0.159916 -0.047239 -0.455294 0.091108 0.067128 0.145298 -0.024643 -0.368119 -0.078670 0.295745 -0.160858 0.682977 -0.206474 0.226057 -0.334667 -0.102734 -0.123630
output -0.455483 0.772225 0.050611 0.392940 -0.161212 -0.187738 -0.125073 0.060543 -0.111404 0.355283 -0.527225 0.262712 0.556956 -0.045068 0.416439 0.154289 0.519312 0.145778 0.180053 -0.229596
fire -0.212505 0.098763 -0.106324 0.151454 0.230105 0.143318 0.225125 -0.369938 -0.548716 0.321121 -0.238043 0.600529 0.183524 0.177933 0.157262 0.157784 0.802574 0.294593 -0.248111 0.102365
steam -0.464290 -0.404142 0.007317 0.357561 0.131575 0.031761 0.427004 0.260159 -0.447854 0.279881 -0.054123 0.422738 0.064656 -0.265441 -0.060720 0.091693 0.392957 0.010488 -0.111096 0.210418
demandresponse -0.031499 0.031559 -0.267853 -0.295708 0.199796 0.165440 -0.013512 -0.411794 -0.106661 -0.039313 0.034387 0.343280 -0.211477 -0.193230 0.036665 -0.269802 0.260192 0.056589 -0.071130 0.210412
domestic -0.289884 0.168941 0.152073 -0.565998 -0.021972 0.008122 -0.052754 0.100101 0.176434 -0.175209 0.051953 0.587743 -0.070416 -0.062339 -0.028466 0.086354 0.174604 0.117712 0.309149 0.079327
bypass -0.295457 0.553070 -0.003541 0.006863 -0.090268 -0.078972 -0.123077 -0.189484 -0.144929 -0.110559 0.059582 0.172966 0.139120 -0.203266 0.245340 0.026552 0.189643 0.095642 0.098255 0.115337
request -0.266777 0.457942 0.462028 0.235429 0.270858 -0.254557 0.238923 -0.167066 0.135828 -0.240539 -0.337665 -0.234246 0.104603 0.049600 -0.182187 0.044789 -0.157148 -0.098748 -0.124363 0.043624
gain -0.407106 0.091308 -0.052723 0.200516 0.183086 -0.145310 0.394527 0.195876 -0.148385 -0.002642 0.415957 -0.089009 0.205507 -0.359806 -0.071524 0.020731 0.087973 -0.442271 0.141749 -0.106273
occupancy -0.305905 0.035048 0.077715 0.206716 0.104213 0.027285 0.015835 0.136850 -0.225608 -0.246464 -0.164986 0.041385 -0.043786 -0.259224 -0.124232 -0.129628 -0.141637 -0.105666 -0.012109 0.218915
torque -0.027552 0.239056 0.059863 0.396092 -0.074673 -0.041346 0.341577 0.158765 0.223881 0.276606 -0.438393 0.155783 -0.049588 -0.005921 0.081299 0.105445 0.240346 0.111861 0.232424 -0.116733
solar -0.856890 0.031147 0.319872 0.106373 -0.132396 -0.246818 -0.021695 0.293581 -0.496287 -0.065197 0.019330 0.331814 0.275776 -0.400453 0.016318 0.191661 0.214077 -0.134509 0.082019 0.174505
hvac 0.072970 0.093885 0.008254 -0.003964 0.152105 0.002366 0.252836 -0.074776 0.293996 0.155242 -0.190156 0.177802 -0.005620 -0.087681 0.232483 -0.196311 0.174171 -0.041700 -0.117736 0.135378
unit -0.327750 0.050386 -0.052994 0.140614 0.288499 -0.094897 0.437620 0.333756 -0.399492 -0.004388 0.061198 0.222115 0.402662 -0.076431 0.223894 0.101987 0.379636 -0.182112 0.236451 -0.116307
loss -0.178248 -0.443386 0.142829 -0.078053 0.088042 0.020769 -0.156141 0.011768 -0.067149 0.772755 0.206401 0.186393 0.360109 0.243038 0.357609 0.231442 0.530913 -0.221336 -0.311595 -0.099963
increase -1.009590 0.096553 -0.015192 0.102854 -0.009378 -0.176187 -0.190171 0.282243 -0.346594 0.403052 0.321280 0.026069 0.593757 0.150236 -0.345791 0.365590 0.239390 -0.292896 0.064764 -0.093704
decrease -0.619888 0.054202 0.349445 0.014657 -0.213455 -0.324834 -0.046842 0.150053 0.004968 0.274236 0.277089 -0.274014 0.201831 0.231343 -0.136135 0.600850 0.085190 -0.238066 0.279236 -0.545148
step -0.415908 0.246103 0.260787 0.018627 -0.105517 -0.342142 -0.163556 0.068322 -0.072060 0.160234 0.127877 -0.358232 0.181570 0.370290 -0.277121 0.353310 -0.048549 -0.124527 0.092057 -0.552535
networkadapter-e 0.114460 0.396561 0.146859 0.259630 -0.155808 0.004396 -0.040801 0.529226 0.105989 0.104581 0.051438 -0.015473 0.160079 -0.197312 0.388574 0.046904 -0.140056 0.275290 0.581534 -0.147028
fixed -0.386923 -0.202261 0.339082 0.013890 0.116879 -0.043135 -0.073075 -0.730544 -0.215575 0.297045 0.140439 -0.143281 -0.122786 -0.015874 0.021071 0.472054 0.515711 0.181820 0.058470 -0.286549
booster 0.188111 0.716735 0.001529 0.400446 0.030111 -0.161645 -0.406711 -0.581647 -0.171641 -0.475134 -0.238430 -0.544315 0.033740 -0.333616 0.560606 -0.480113 -0.183803 -0.004303 -0.250435 0.240063
network 0.076390 0.087705 0.081534 -0.090452 0.190951 -0.138530 0.187091 0.096303 -0.092761 0.160526 -0.159203 0.350492 0.098660 -0.058222 0.208522 -0.255663 0.011826 0.116386 0.050119 -0.174674
effective 0.148195 0.402674 0.301749 -0.037432 0.008343 -0.069350 0.035272 -0.077438 0.204309 -0.420145 0.117173 -0.330113 -0.330493 0.041419 -0.484841 -0.109037 -0.602510 -0.067749 0.049297 0.005525
lockout -0.409358 0.067610 0.175500 -0.132784 -0.102220 -0.166003 0.125235 0.186098 -0.284063 -0.514771 0.048058 0.205767 0.058395 -0.824781 -0.348438 -0.201803 -0.283533 -0.506177 0.033860 0.482039
last -0.222826 -0.018398 0.343710 0.340391 0.081273 -0.095219 0.102835 0.116300 -0.397958 0.090729 -0.099986 -0.204568 0.037722 -0.347802 -0.170961 0.087308 -0.009187 0.113446 -0.177682 0.234159
wheel 0.309799 -0.707314 -0.465761 0.125646 0.135002 0.319039 0.594468 0.408745 0.362414 0.000181 0.228007 0.178430 -0.400423 -0.306957 0.175073 -0.082096 0.066680 -0.058667 0.371789 0.369992
overridden -0.133387 0.058181 -0.066336 0.428936 0.054792 -0.157295 0.337593 0.281823 -0.150096 0.147263 -0.255574 0.108935 0.512357 0.163775 0.410942 0.263609 0.305698 -0.138417 -0.085437 0.022863
lead -0.469182 -0.677938 0.225001 -0.363472 0.085589 -0.285804 0.307413 0.027499 -0.217134 -0.116817 -0.095800 0.380803 0.206652 0.142330 0.377574 0.214760 0.470345 -0.256114 -0.078526 -0.034131
led -0.116768 -0.320071 -0.031116 0.308051 0.195713 -0.082657 0.391367 0.403241 -0.202321 0.008126 -0.085401 -0.048024 0.399115 0.086749 0.198695 0.217746 0.037134 -0.328461 -0.182699 0.196400
room-hall -0.026106 -0.244642 -0.263515 -0.165720 0.066660 -0.125151 0.224220 -0.030871 0.126129 0.373758 -0.376840 0.394622 -0.015814 0.093151 0.265029 -0.371946 0.516167 -0.117016 -0.067964 -0.337002
smoke -0.148261 -0.005859 -0.237689 -0.073949 0.117385 -0.088598 -0.075513 -0.020723 0.025805 0.150725 0.178884 0.023657 0.315173 -0.335971 0.131944 -0.171635 0.106423 -0.464484 -0.194181 0.226378
voltage -0.398736 0.398020 -0.224884 0.241434 0.138405 -0.136918 0.331717 0.209875 0.008820 0.118693 -0.218340 0.155964 0.403573 0.196719 0.232821 0.051899 0.493560 -0.032912 0.182301 -0.420526
building -0.169046 0.175543 0.099378 -0.029291 -0.275284 0.043093 -0.137027 -0.281809 -0.114472 -0.227736 -0.076770 0.280513 -0.071422 -0.221604 0.035268 0.225676 0.221978 0.243244 0.223711 0.028730
shutdown -0.257433 -0.279540 0.074176 -0.060530 0.186483 -0.281294 0.169254 0.100445 -0.064981 -0.444198 -0.327299 0.048337 0.003604 -0.038301 0.356903 -0.169446 0.143611 -0.057312 0.074581 -0.081291
tolerance -0.440484 -0.068858 -0.054480 0.262315 0.124408 0.268553 -0.192818 -0.208517 -0.398164 0.121080 0.274635 0.044055 -0.081038 -0.157185 -0.559144 0.012036 0.009560 0.030505 -0.052125 0.024880
mixed -0.181991 0.198984 -0.310435 0.303070 0.221390 0.004264 -0.130523 -0.393591 -0.172113 -0.223165 0.212339 -0.504881 0.204939 -0.659700 0.002650 -0.363056 -0.213050 -0.433572 -0.172185 0.224379
thermal -0.287465 -0.239380 0.094088 0.097777 0.058339 -0.207835 0.462522 0.147507 0.238978 0.322572 -0.059211 0.242154 0.027608 0.018200 0.288367 0.117803 0.440613 -0.045196 -0.090582 -0.129780
dewpoint -0.478740 0.481596 -0.347767 0.041500 0.217714 -0.091819 -0.008960 0.076928 0.009196 0.082525 0.013221 -0.088653 0.391939 0.028149 -0.107958 -0.179734 0.264385 -0.185014 0.258439 -0.546526
lag -0.318868 -0.473017 0.258726 0.298422 -0.144141 -0.500576 0.185528 0.394491 0.015881 -0.146763 -0.421968 0.033845 0.099560 -0.082730 0.478772 0.055824 0.122948 -0.160692 -0.239841 0.101381
stack -0.129727 0.120560 0.048224 -0.048093 -0.160476 -0.068890 -0.108266 -0.173501 -0.032321 -0.123725 0.165373 -0.138354 0.016512 -0.132200 0.090319 0.200644 0.027717 -0.009664 0.244510 -0.135592
room-fle 0.112671 -0.033908 -0.166665 0.314778 -0.191209 -0.026341 0.059586 0.339208 0.114904 0.246064 0.112652 -0.005708 0.239924 0.220912 0.127167 0.071504 -0.006677 0.195457 -0.126484 -0.230789
wind -0.236512 0.302638 0.212330 0.144009 -0.079631 -0.337912 -0.137708 -0.235129 -0.005773 0.015009 -0.323123 -0.179624 0.140220 -0.192682 0.472193 0.061411 0.284839 0.041074 0.216395 -0.289872
weather -0.319225 0.191927 0.004498 0.060335 0.035162 -0.172882 0.040949 0.088140 0.020196 0.042936 -0.197409 0.089793 0.263577 0.016737 0.152661 0.080548 0.259396 -0.015703 0.141308 -0.186700
luminance -0.280295 -0.103554 -0.060591 -0.029495 0.197468 -0.048500 0.064071 0.049416 -0.036202 -0.001888 0.160665 0.098830 0.086170 0.091568 0.001145 0.074463 0.227928 -0.072988 0.199499 -0.221337
chiller -0.027632 0.035132 -0.033406 0.078681 0.050531 -0.007921 0.102346 0.080325 0.057604 0.016631 0.012557 -0.010454 0.143828 0.066743 0.115630 0.120397 0.080209 -0.078609 0.067666 -0.075019
piezoelectric -0.251346 0.614352 -0.229821 0.281323 0.019992 -0.174985 0.010466 -0.046070 -0.114257 0.039060 -0.238357 -0.085429 0.413878 0.255294 0.323881 -0.008072 0.359976 0.044576 0.062797 -0.380356
usage 0.009088 -0.594086 -0.090033 0.016998 0.147143 0.053057 0.769182 0.553745 0.097470 0.469723 -0.026014 0.549089 0.092319 0.120925 0.315109 0.121759 0.416930 -0.161738 -0.249052 0.239027
overload 0.011824 -0.211386 0.123174 0.298043 -0.102790 -0.093167 -0.138435 0.118267 0.204814 0.292805 -0.039091 -0.103052 0.269036 -0.000623 0.440141 0.173386 0.118018 -0.143412 -0.173004 0.090822
detected -0.167523 -0.283667 -0.025027 0.214062 0.039999 -0.013681 0.012350 0.226297 0.089654 0.521618 0.269877 0.038542 0.326050 0.072495 0.235304 0.120506 0.252482 -0.339180 -0.278004 -0.044325
reheat -0.116544 0.120282 0.251916 0.207070 0.086208 0.064325 0.015925 0.061041 -0.336721 0.018303 -0.032499 0.146915 -0.050544 -0.363094 -0.316811 -0.091103 -0.131334 -0.007282 -0.015120 0.262309
highest -0.035742 -0.112781 0.293729 -0.088709 -0.063954 -0.213251 0.223551 0.056124 0.474071 -0.006367 -0.068326 0.210306 0.068136 0.331372 0.275858 0.207452 0.080536 -0.120046 -0.188224 0.005888
auto -0.131107 -0.259644 0.325885 0.172279 -0.178750 -0.214405 0.209078 0.171227 0.118464 -0.153674 -0.113935 0.062324 0.013559 -0.185821 0.032744 0.268020 -0.096234 -0.169625 -0.030893 0.181801
storage -0.200134 -0.086943 -0.128162 -0.074246 0.078207 -0.108157 -0.007395 -0.234714 0.249215 0.196236 -0.118304 0.017664 -0.055729 0.005557 0.179269 -0.095128 0.412679 0.237343 0.150498 -0.403548
factor 0.025806 -0.196318 -0.053104 -0.154240 0.027600 0.084503 0.218645 0.220461 0.145504 -0.049160 0.351950 0.029287 -0.177039 -0.070721 -0.017225 0.055977 -0.015553 -0.166985 0.068595 0.209826
lock -0.286916 0.104377 0.329892 0.211532 0.075421 0.006271 0.360196 0.182111 -0.295501 0.088197 -0.117934 0.044974 -0.128059 -0.245039 -0.420664 0.170127 0.014360 0.119982 -0.121646 0.097564
basement 0.081514 -0.049226 -0.014653 0.075422 -0.242883 0.041944 0.043952 -0.014942 0.045729 0.091595 -0.011909 0.290430 -0.005837 0.212198 0.116343 0.253489 0.085120 0.150471 -0.087139 0.085606
humidifier -0.308152 0.006861 0.134130 0.299506 0.131358 -0.049822 -0.007649 0.218799 -0.350772 0.326574 -0.218848 0.100016 0.400467 -0.197778 0.038001 -0.010090 0.217210 -0.108132 -0.088448 0.092407
compressor -0.008342 -0.063542 -0.013561 0.013067 -0.015190 -0.137991 -0.047338 0.054382 0.090862 0.004091 -0.080019 -0.045751 0.183739 -0.229311 0.137170 -0.089231 0.011254 -0.123757 0.027646 -0.038676
capacity -0.250402 0.251992 0.019711 -0.102812 -0.017029 -0.175038 0.015780 0.088796 0.227581 0.037269 -0.198335 0.152005 0.213891 0.019916 0.180087 0.015441 0.262098 0.002380 0.264701 -0.295640
dhws -0.156423 0.097318 -0.036749 -0.307152 0.172140 0.106459 -0.162219 0.009512 -0.302295 -0.117709 0.313925 0.114600 0.005960 -0.198223 -0.073645 -0.153953 0.014328 -0.097108 -0.006661 0.251407
delay -0.101815 -0.237214 -0.134257 0.135522 0.176366 0.171111 -0.000335 0.296018 -0.160411 0.355307 0.306735 -0.048205 0.221851 0.272146 -0.434066 0.043948 -0.091202 -0.245727 -0.165207 -0.029440
drive -0.290247 -0.258715 0.089546 0.233235 -0.146166 0.076896 -0.031326 0.048428 -0.235969 -0.081030 0.039571 0.010310 -0.035907 -0.331793 -0.310047 0.052420 -0.112490 -0.010749 0.043659 0.110200
building-bsbm -0.253811 -0.002296 0.127842 -0.019683 -0.059501 -0.136843 -0.002212 0.020672 0.089444 -0.088488 0.006197 0.011231 0.062903 -0.040337 0.060137 0.151901 0.074299 0.015446 0.079492 -0.046000
server 0.551950 -0.055200 -0.086275 -0.270920 -0.060059 0.080791 0.036023 0.245124 0.457544 -0.091532 -0.121549 -0.048070 -0.231453 0.036938 -0.136021 -0.160949 -0.390489 0.004714 0.079522 0.086975
lighting -0.126437 -0.318190 -0.082538 -0.090028 0.137022 -0.019643 0.135486 -0.016097 -0.229501 0.066266 0.027761 0.130680 -0.036158 0.043173 0.015896 -0.062673 0.206077 -0.016100 -0.055913 -0.013611
entering -0.367440 0.078005 0.080469 0.174321 0.055898 -0.086667 -0.111116 -0.019275 -0.141877 0.073561 -0.177422 0.039167 0.218000 -0.332964 0.069878 -0.150938 0.188354 -0.011362 0.073022 -0.009585
fume -0.090204 0.129879 0.092398 -0.028453 0.096691 -0.058242 -0.025684 -0.037258 0.083210 0.252271 -0.194500 0.016764 0.293085 0.092965 0.236489 0.220492 0.316798 0.125548 0.195585 -0.236154
hood -0.202692 0.016366 0.053752 0.010151 0.134462 -0.101097 0.135934 0.028389 0.081858 0.208939 -0.051703 -0.036851 0.308926 -0.021130 0.214926 0.206872 0.303717 0.011540 0.189792 -0.249140
deionised -0.189828 0.443803 -0.154483 -0.109832 0.117912 -0.046269 -0.444282 -0.046184 -0.009096 0.333109 -0.446302 -0.006025 0.480685 0.278627 0.310838 -0.207167 0.403744 0.164065 0.074610 -0.450219
angle -0.337310 0.387070 -0.095609 -0.106849 -0.028469 -0.070451 0.030434 0.181967 0.078696 -0.034841 -0.035468 0.265903 0.223666 -0.011745 0.053224 -0.016684 0.186942 -0.091939 0.222523 -0.157606
maintenance 0.031119 -0.300891 0.059209 0.059126 -0.056245 -0.029099 0.060394 0.192494 -0.055200 0.045714 0.130135 -0.034069 -0.001039 0.075473 0.033280 0.082177 -0.022139 -0.112504 -0.060140 0.005569
room-lobby -0.211851 -0.284405 0.237440 -0.339771 -0.036999 -0.143622 -0.027404 -0.003948 -0.044898 -0.068988 -0.063087 0.348380 0.172121 0.159643 0.190503 0.049322 0.053810 -0.196790 -0.135194 0.041310
code -0.157502 -0.123679 0.139465 0.103864 0.032263 0.003818 0.047388 0.017187 -0.318173 0.065237 -0.011246 -0.046034 -0.043278 -0.173989 -0.007593 0.025703 0.082443 0.017252 -0.248767 0.288408
networkadapter-s 0.256755 0.085875 -0.152037 -0.038078 -0.039135 0.005713 0.174280 0.200719 -0.003150 0.209225 0.073510 -0.075590 0.144489 0.114316 -0.001656 -0.077626 -0.034430 -0.000929 0.011306 -0.138427
change -0.063342 -0.505768 0.254334 0.219870 -0.117142 0.049986 0.014705 0.144166 0.099538 0.248336 0.334735 0.034490 -0.074757 0.060364 0.006968 0.350919 -0.001316 -0.114131 -0.090649 0.164578
timer -0.443283 0.510725 -0.116252 0.111213 0.129193 -0.127375 0.078648 0.160367 -0.202501 -0.004521 -0.173464 0.020237 0.405830 0.121925 0.022385 0.022122 0.282920 -0.014518 0.268576 -0.321145
grains -0.145285 0.595000 -0.337290 0.026822 0.142369 0.003059 0.003674 -0.011850 0.017835 -0.015869 -0.022600 -0.105626 0.384456 -0.137185 0.031649 -0.235120 0.043133 -0.199833 0.191312 -0.166251
leak -0.135319 -0.158522 0.119125 -0.027813 0.054376 0.094248 0.193315 0.099125 -0.063273 0.134812 0.284070 0.323912 -0.131470 -0.233071 -0.042319 0.088475 0.106641 -0.183968 -0.008358 0.364567
lowest -0.157270 0.109266 0.053235 0.099625 0.031031 -0.015130 0.035447 0.062529 0.081572 0.117379 -0.014685 0.056957 0.148856 0.113435 0.057972 0.084900 0.100686 -0.023561 -0.051549 -0.032591
fans -0.325373 0.169854 -0.030676 -0.231282 -0.104688 -0.131143 0.141264 0.224980 0.004194 -0.123734 0.177882 0.351645 0.121702 -0.013311 0.109619 0.131399 0.199228 -0.162982 0.372469 -0.061400
temporary 0.120580 -0.289714 -0.088741 -0.025778 -0.027616 0.131635 0.166694 0.139543 0.285326 -0.074679 0.236267 0.033982 -0.392397 -0.100641 -0.201474 0.057399 -0.162605 0.007624 0.168445 0.145324
rated -0.003537 -0.054431 0.233021 0.130876 -0.119036 -0.176140 0.024680 -0.002662 -0.008955 0.004361 -0.119390 -0.046558 -0.024743 -0.016986 0.100131 0.192005 0.050958 0.050096 0.066968 -0.089684
pre 0.073247 -0.264146 0.090164 0.042828 0.024796 -0.060520 0.157577 0.176632 0.034380 0.055453 0.065255 0.058210 0.108275 0.110594 0.142082 0.121359 0.025731 -0.139360 -0.125255 0.158840
locally -0.066938 0.053885 0.010180 -0.007394 0.017513 -0.006580 0.057650 0.060307 -0.040562 0.038708 0.006657 0.072400 0.097390 0.093856 0.027869 0.058660 0.076745 -0.041663 -0.008553 0.023703
indicator -0.158311 -0.078972 0.181523 0.311920 -0.021303 -0.063881 0.125210 0.069685 -0.246694 -0.114778 -0.135241 0.016510 0.065727 -0.236884 -0.130572 0.004661 -0.091815 -0.151959 -0.119570 0.172194
manual -0.141411 -0.109161 -0.011942 0.155173 0.038425 -0.069725 0.204367 0.106082 -0.044774 0.029196 0.005682 0.033334 0.074123 -0.182703 0.059655 0.036496 0.123087 -0.106442 0.002802 0.127650
boiler -0.015075 -0.026658 -0.049381 0.000385 0.076280 -0.048134 0.041894 0.072554 0.007961 0.026096 -0.025021 -0.030059 0.105797 0.011834 0.029866 -0.034540 0.037855 -0.083105 -0.048806 -0.001433
di -0.135658 0.231761 -0.094935 -0.099949 0.164650 0.008841 -0.397338 -0.014676 -0.012356 0.307658 -0.305386 0.008451 0.371142 0.154285 0.218523 -0.136158 0.285197 0.088793 0.015219 -0.239404
rain -0.193341 0.164610 -0.154237 0.069683 0.098945 -0.049102 0.142538 0.104609 0.027439 0.035548 -0.037676 0.052047 0.213552 0.000590 0.055953 -0.036774 0.178197 -0.087067 0.108313 -0.143398
tower 0.151998 0.359812 0.287892 0.036305 -0.056184 -0.230565 -0.141116 -0.371878 0.220595 0.039941 -0.137068 -0.349046 -0.097780 0.132483 0.280747 0.069810 -0.034572 0.134861 -0.034782 -0.151699
percent -0.152571 0.113386 0.146537 0.118046 0.094469 -0.082713 0.258729 0.045836 0.090154 0.026239 -0.039051 -0.055390 0.030283 0.021776 -0.175822 0.051612 -0.077218 -0.133670 -0.090534 -0.042136
freeze 0.053713 -0.091032 -0.020419 0.148440 0.094754 0.009317 0.193502 0.062429 -0.091346 0.105468 -0.028262 0.081275 0.062183 0.001701 0.129924 0.035842 0.101711 -0.025199 -0.165966 0.155103
activated -0.071748 -0.152902 0.084330 0.035345 0.094974 0.047764 0.393780 -0.063105 -0.023731 0.243624 0.111263 0.294341 0.038996 0.021966 0.028719 0.196114 0.231166 -0.114753 -0.215347 0.198115
by -0.292552 0.093755 -0.045253 -0.173697 0.135455 0.040263 -0.024559 -0.242392 -0.422051 -0.008160 0.197507 0.298393 0.069863 -0.290507 -0.016661 -0.148910 0.234633 -0.193238 -0.175738 0.200383
duct 0.232495 -0.650890 -0.073763 0.134561 0.159606 0.156041 0.201777 0.370417 0.180362 0.172414 0.428478 -0.206593 0.198944 0.254415 0.043713 0.220224 -0.191051 -0.377209 -0.171154 0.236600
stage -0.201995 -0.078765 0.239406 -0.229999 -0.134055 -0.207711 0.027976 0.023935 -0.000817 -0.157596 -0.166566 0.202955 -0.048288 0.107129 0.210243 0.139614 0.225205 0.125319 0.097611 -0.029003
networkadapter-mig 0.187081 -0.027957 0.088735 0.069752 0.110326 -0.032799 0.088675 0.188252 0.103264 0.069152 0.037970 -0.188645 -0.044953 -0.140886 0.052559 -0.124302 -0.154869 -0.051715 0.148420 -0.243293
adapter-nae 0.124368 0.058695 0.150664 0.120308 -0.006569 0.034038 -0.011304 0.204538 -0.004184 0.061888 0.006633 0.047131 0.125319 -0.015322 0.244116 -0.025259 -0.075868 0.085541 0.250307 -0.126289
adapter-n 0.102775 0.070964 0.100644 0.220700 0.025758 -0.006297 0.187060 0.216890 0.029344 0.104432 0.126556 0.036662 0.168743 -0.068733 0.258191 -0.107128 -0.062511 -0.012706 0.228606 -0.164650
adapter-trunk 0.078964 0.117555 0.064746 0.081821 0.034304 0.004494 0.077161 0.120437 -0.040694 0.026039 0.034118 -0.033023 0.079006 -0.049119 0.138832 -0.011701 -0.031478 0.081112 0.109297 -0.044864
ready -0.044945 -0.033174 0.089209 -0.038355 -0.124637 -0.098011 0.132423 0.145535 0.170246 -0.087024 -0.039292 0.124845 0.043955 0.020108 0.036658 0.128101 -0.030295 -0.064397 0.008229 0.043646
azimuth -0.334796 0.099104 0.188970 -0.022015 -0.195179 -0.222012 -0.106518 0.067658 0.129660 0.021110 -0.216944 0.171044 0.182079 -0.120812 0.213398 0.157103 0.199847 -0.006889 0.078556 -0.108507
short -0.035504 -0.192575 0.065682 0.120801 -0.136844 -0.015175 0.029768 0.237701 0.082749 0.229839 -0.071546 0.181934 0.129990 -0.065321 0.145759 0.066264 0.050975 -0.161605 -0.066866 0.073392
cycle -0.080810 -0.322041 0.107230 0.177780 -0.125910 -0.028178 0.012597 0.241481 0.104526 0.284261 -0.009123 0.141124 0.136816 -0.041435 0.130165 0.071474 0.041495 -0.252089 -0.127350 0.061382
deceleration -0.152209 -0.374254 0.034746 0.102144 -0.047561 -0.047415 0.116307 0.256800 -0.013417 -0.018117 0.025381 0.009366 0.076457 -0.158659 -0.172640 -0.001168 -0.179328 -0.218412 -0.035810 0.073065
acceleration -0.067635 -0.281519 -0.009374 0.033164 -0.021704 -0.019101 0.130261 0.184883 0.002685 0.004483 0.051291 0.040001 0.109738 -0.025696 -0.078058 0.021917 -0.085273 -0.197476 -0.095288 0.054077
stages -0.065546 -0.031164 -0.029885 0.063743 0.134506 -0.033545 0.127387 0.145872 -0.053339 0.163085 -0.170858 0.072019 0.239796 0.037838 0.115856 0.004086 0.147270 -0.094165 -0.048156 -0.005425
dehumidification -0.155241 0.198625 -0.046001 0.039539 -0.020837 -0.004929 -0.014028 0.149985 -0.019640 0.202156 -0.128302 0.133421 0.265469 0.040455 0.094015 0.016141 0.184010 -0.052321 0.070901 -0.051026
head 0.058940 -0.375826 0.043742 -0.017659 0.099919 0.130415 0.010751 0.285866 0.307493 0.482689 0.235388 0.059156 0.175414 0.291649 0.064270 0.254927 0.075321 -0.120967 -0.020012 -0.102563
hand -0.023220 -0.164190 -0.037287 0.112054 0.062616 0.028784 0.185813 0.111277 -0.125702 0.051616 -0.022503 0.108369 0.047600 -0.136252 -0.029542 0.007673 0.026692 -0.086334 -0.112983 0.210440
point -0.020929 0.031633 0.054687 -0.165991 0.051599 -0.053107 0.089920 0.074558 0.037086 -0.111947 0.083575 0.022054 -0.037740 -0.005399 -0.003624 0.054564 -0.041714 -0.062179 0.050433 0.049159
relative -0.142282 0.059457 0.004302 -0.035880 -0.042213 -0.059764 -0.103494 -0.163643 -0.122531 0.018124 -0.058833 0.145364 0.033018 -0.076686 0.132750 -0.038625 0.214054 0.004337 -0.042162 -0.029905
override -0.102320 0.025166 0.230473 0.027786 -0.051090 -0.188576 0.117280 0.080486 0.145685 -0.045487 -0.140103 0.094515 0.037299 0.008673 0.144864 0.101863 0.033249 -0.067181 -0.055971 0.019384
condensate -0.130032 -0.105444 -0.040492 -0.028309 0.108050 0.019858 -0.144566 -0.137329 -0.152586 0.319726 -0.004111 0.239052 0.146494 0.136382 0.260779 0.094106 0.434786 0.090657 -0.089334 0.023383
radiance -0.272007 0.135891 0.140924 -0.198728 -0.058068 -0.175180 -0.108190 0.094792 0.197947 -0.030560 -0.208371 0.174816 0.186777 -0.010154 0.158256 0.072768 0.157479 0.025527 0.164147 -0.117656
humidify -0.105340 0.122542 0.141354 0.026546 -0.043286 -0.102684 -0.082188 -0.000131 0.001232 0.044375 -0.165736 0.051045 0.096299 -0.016120 0.153149 0.066855 0.146931 -0.000083 0.004885 -0.095412
generator -0.033559 -0.149396 0.173594 -0.016554 -0.058194 -0.092544 0.078890 0.032881 0.118306 0.032581 0.095416 -0.006160 -0.040731 0.059786 0.078478 0.187797 0.017817 -0.063391 0.014572 -0.093434
leaving -0.184166 -0.023306 0.030316 0.057000 0.111087 -0.050109 -0.146422 0.022672 -0.086133 0.198558 -0.183450 -0.025210 0.258547 0.008106 0.150097 -0.039138 0.214995 0.007994 -0.043544 -0.102514
perimeter -0.067802 0.108396 0.077987 -0.033982 0.070899 -0.022611 -0.036589 -0.041819 0.053761 -0.011111 -0.037028 -0.018883 -0.023698 -0.049636 0.001563 0.023586 -0.003023 0.093089 0.065048 0.014851
condensor -0.142060 0.077054 -0.025512 0.048740 -0.018516 0.026090 -0.082795 -0.031048 -0.083478 -0.027471 0.061187 0.008847 -0.052499 -0.074813 -0.140214 -0.051408 0.003401 0.029559 0.044152 -0.024547
warmest -0.091019 -0.052789 0.055116 0.068656 0.006306 0.036691 0.037124 0.023824 0.097912 0.052111 0.008860 0.011238 0.043505 0.051296 -0.057936 0.107993 -0.025455 -0.009132 -0.063728 0.028962
failed -0.014090 -0.183692 0.149989 -0.007134 -0.040910 -0.084990 -0.003933 0.157299 0.128353 0.087944 -0.001261 0.130122 0.088277 0.004275 0.138925 0.125308 0.130555 -0.147834 0.026730 0.005738
operating 0.055562 -0.268799 0.000815 -0.036812 0.084178 -0.001993 0.208323 0.158908 -0.082569 0.018352 0.149354 -0.023192 -0.026342 0.154882 0.026742 0.069978 -0.040191 -0.087049 -0.120419 0.127459
conductivity -0.251405 0.428035 -0.172673 -0.039472 0.082499 -0.102736 -0.155155 -0.021156 0.014402 0.131079 -0.209765 0.009671 0.358394 0.118484 0.202520 -0.116943 0.299050 0.022859 0.190851 -0.383646
peak -0.131049 -0.179624 0.045377 -0.047437 0.004854 0.036723 0.073277 -0.123623 -0.093779 0.132290 0.072303 0.196232 -0.017100 0.050828 0.153934 0.130902 0.299946 0.046416 -0.078162 0.072484
today -0.156460 -0.148473 0.063575 0.141527 0.050031 -0.002815 0.182369 0.067201 -0.110811 0.234593 -0.029325 0.203632 0.131562 -0.161294 0.006226 0.036870 0.200503 -0.152329 -0.103110 0.048071
coldest -0.136864 -0.038843 0.078750 0.064406 0.068125 0.001254 0.048544 0.000162 0.045815 -0.008553 0.084128 0.063879 0.058083 -0.008926 0.012625 0.095824 0.051956 -0.048371 -0.066052 0.117577
close -0.244645 0.288280 -0.158827 0.156706 0.132896 0.071704 -0.105898 -0.278568 -0.103082 -0.024461 0.096058 -0.042044 0.141770 -0.211959 -0.040059 -0.177453 0.065827 -0.138372 -0.130625 0.091177
battery -0.165174 0.103981 0.055355 0.093888 -0.093605 -0.096031 -0.046668 -0.023924 -0.000098 0.032521 -0.062791 0.039562 0.006759 -0.072539 0.064722 0.063513 0.087240 0.035000 -0.020346 -0.078825
thermostat -0.069855 0.226978 -0.179327 0.040261 0.101183 0.001035 -0.104590 -0.129776 -0.113738 -0.007438 -0.040632 -0.071619 0.056183 0.004424 0.117061 -0.145537 0.075302 0.052720 -0.023144 0.017430
open -0.167005 0.060182 0.119912 0.077325 0.071751 -0.089250 -0.024249 0.023875 -0.118654 -0.159773 -0.232377 -0.021687 0.023387 -0.141177 0.088647 -0.096681 0.042670 0.116749 0.027597 0.081407
hold -0.036866 -0.003219 0.034788 0.078852 0.002960 -0.041296 0.116144 0.260028 -0.032234 0.091670 -0.138913 0.102027 0.264438 0.084405 0.117089 0.149918 0.014730 -0.053047 0.005228 0.043616
when -0.168547 0.170102 0.085798 0.148848 0.001381 -0.104531 -0.105291 -0.041052 0.082967 -0.014416 -0.139218 -0.045039 0.062367 -0.027017 0.121496 -0.002694 0.029435 0.023090 -0.003169 -0.023831
inverter -0.106211 -0.017305 0.046334 0.074870 -0.059808 -0.041597 0.062460 0.142464 -0.025563 0.057247 -0.028624 0.044467 0.092180 -0.010923 0.003692 0.069638 0.018824 -0.107210 0.053913 -0.047352
humidification -0.086287 0.128457 -0.055379 0.085924 0.021341 0.037004 0.050781 0.143540 -0.090775 0.186543 -0.059838 0.092990 0.263915 0.067771 0.093361 0.104645 0.188266 -0.034727 0.071880 0.010816
glycool -0.163372 0.005826 0.126364 -0.110649 -0.080432 -0.095439 0.020628 0.005726 0.032562 -0.098242 0.000177 0.171702 -0.026277 -0.118248 0.058377 0.065257 0.081249 0.004530 0.141658 -0.060865
building-hubbs 0.001656 -0.076481 0.003020 -0.051521 -0.038496 0.022265 -0.006771 0.025695 -0.021756 -0.032299 0.077192 0.002783 -0.072768 -0.124850 -0.107558 -0.022951 -0.074409 -0.033094 0.058127 0.037488
integrative 0.047275 -0.151204 -0.100658 -0.043294 0.061394 0.013442 0.210638 0.100784 0.015680 -0.042159 0.119359 -0.031759 -0.065083 0.034299 0.037805 0.010190 -0.003472 -0.098567 -0.019976 -0.002391
condenser -0.045472 0.045950 0.063525 0.042809 -0.080841 -0.052942 -0.047933 -0.060643 0.018573 -0.025778 -0.016278 -0.024854 -0.033979 -0.040890 0.007369 -0.017618 -0.028688 0.024068 0.019531 -0.048905
hail -0.099700 0.033365 -0.064864 0.017502 0.055585 -0.046290 0.018179 0.017452 -0.045987 -0.032323 -0.033327 -0.063326 0.087654 -0.006001 0.045482 -0.045277 0.025980 -0.062452 0.044788 -0.100387
econcycle -0.058097 -0.008250 -0.025658 -0.008897 0.045625 -0.022542 0.063966 0.047387 -0.047431 0.041037 -0.033692 0.016035 0.098552 0.037578 0.062089 0.038942 0.090617 -0.054001 0.015307 -0.031224
suction -0.041367 -0.190093 0.049286 0.071405 0.025943 0.004582 -0.039542 0.028673 0.067803 0.156055 0.208465 -0.099048 -0.006655 0.140252 0.031256 0.110284 0.050094 -0.040453 -0.066900 -0.006632
required -0.154430 -0.118978 0.051557 0.016385 0.022130 -0.080456 -0.008577 0.037719 0.012462 0.071597 0.082681 -0.030025 0.039868 -0.014009 0.077387 0.049321 0.081177 -0.056910 -0.034373 -0.036701
thumbwheel -0.061414 -0.000994 0.040113 0.053914 -0.047481 0.004677 -0.054402 -0.095240 -0.066976 -0.008902 0.009412 -0.002292 -0.018201 -0.088575 -0.005880 -0.010186 0.010781 0.024405 -0.025690 0.054347
monthly -0.012788 -0.183794 -0.020678 0.013076 0.004327 0.010705 0.105761 0.064027 -0.078235 0.052805 0.023272 0.081153 -0.019076 0.003850 0.004377 -0.006391 0.063704 -0.030213 -0.091620 0.045328
dual -0.086603 0.079007 0.061123 0.038198 -0.079344 -0.037959 -0.046390 -0.085951 0.057945 -0.046073 -0.056325 0.053178 0.037631 -0.005489 -0.018291 0.092989 0.014135 0.032296 -0.000178 0.002912
space 0.035001 -0.091623 -0.037829 -0.011467 0.014602 0.000431 0.015390 0.061466 -0.008810 0.022365 0.032261 -0.006154 -0.020132 0.014788 -0.027477 -0.005295 -0.004835 -0.016249 -0.001290 -0.000135
vent -0.083217 -0.000895 0.000332 0.004161 0.074447 -0.043711 -0.004635 0.001491 -0.013149 0.023398 -0.006954 -0.056092 0.074279 -0.017140 0.047764 0.008715 0.057878 -0.011277 0.003104 -0.062341
liquid -0.040657 0.029157 -0.039901 -0.012694 0.099022 -0.036816 -0.054693 0.042696 -0.094753 0.044152 -0.024581 -0.050918 0.137070 -0.075528 0.056093 -0.101177 0.049857 -0.092350 -0.022899 0.054219
environment -0.097821 -0.000492 0.008615 0.064881 -0.064596 -0.082552 -0.007536 -0.002111 -0.013537 0.008415 -0.052190 0.016759 0.004458 -0.002629 0.047652 0.043846 0.049677 0.023766 -0.049467 -0.050287
cutout -0.130358 0.022074 0.022655 0.053829 0.038082 0.003919 0.010251 -0.103337 0.018718 0.081229 0.055982 0.032579 0.029887 0.030533 -0.014612 0.076803 0.107346 0.020568 -0.066193 -0.023721
ventilation -0.014934 0.035523 -0.071846 0.017529 0.029260 -0.014105 -0.065834 -0.078827 0.015331 -0.120151 0.016440 -0.089529 -0.019703 -0.122654 0.002997 -0.123408 -0.086503 -0.024259 -0.001134 -0.019711
ratio -0.113365 0.073019 0.086911 0.102807 -0.010456 -0.042425 -0.090288 -0.179209 -0.051082 -0.018847 -0.030629 -0.105025 0.055868 -0.079004 0.054779 0.014437 0.045779 0.013814 -0.020275 -0.009102
freezer -0.061836 0.092725 0.012745 0.041684 -0.019153 0.023680 -0.033316 -0.045435 -0.046966 -0.033152 -0.002980 -0.012977 -0.009777 -0.042354 -0.040644 -0.019484 0.003138 0.026441 0.022326 -0.012374
push -0.038988 -0.163336 0.142578 0.018470 -0.078365 -0.148849 0.228731 0.154540 0.144101 0.007942 -0.002402 0.004572 -0.008794 0.010359 0.121675 0.237954 0.024755 -0.056947 0.096607 -0.042434
button -0.015407 -0.222367 0.113851 0.008764 0.004565 -0.118034 0.293949 0.228858 0.059607 0.043405 0.010828 0.009818 0.064577 0.021485 0.066798 0.194509 0.025613 -0.128318 -0.041441 0.017384
dc -0.120463 -0.060691 -0.036321 0.096186 0.003453 -0.010029 0.082797 0.029010 -0.028989 -0.019207 -0.040736 0.022006 0.062549 -0.069406 0.081447 -0.006072 0.059922 -0.012828 -0.035101 0.027453
bus -0.180809 0.112899 -0.041426 0.163317 0.001255 -0.068402 0.023207 0.050211 -0.025377 0.041181 -0.076154 0.006213 0.155732 0.024018 0.131782 -0.005127 0.155339 0.003477 -0.035428 -0.068921
curtailment 0.039762 0.003478 -0.030349 -0.003939 0.010464 0.032622 0.144855 -0.011997 0.077006 -0.033235 -0.000479 0.080233 -0.103175 -0.059808 0.068197 0.061264 0.057874 0.065980 0.121564 0.022675
communication -0.033122 -0.111645 0.154026 -0.087611 -0.076346 -0.118315 -0.047014 0.086453 0.108440 0.119285 0.008217 -0.004809 0.016390 0.065741 0.118955 0.164493 0.051549 -0.053478 0.007540 -0.071209
yearly -0.074433 -0.167156 0.026400 0.083003 0.047462 0.022079 0.098395 0.040984 -0.189478 0.044538 0.005314 0.093584 0.010995 -0.097658 -0.023910 -0.001766 0.079753 -0.013965 -0.079528 0.099288
underfloor -0.117691 0.103602 -0.024319 0.101389 0.026174 0.052410 -0.111781 -0.118220 -0.099966 -0.037642 0.006262 -0.009560 -0.007806 -0.069437 -0.144410 -0.009008 -0.016740 0.062041 0.033455 -0.030644
ice -0.039832 -0.114926 0.086720 0.001287 0.032337 -0.048344 -0.017764 0.036772 0.053280 0.147776 -0.044094 0.033579 0.114477 0.090003 0.125743 0.087433 0.126674 -0.019005 -0.074880 -0.010443
tank -0.142449 0.008082 0.082079 -0.028004 0.036869 -0.103742 -0.101269 0.017765 0.074015 0.257564 -0.145404 0.040115 0.200417 0.042271 0.162725 0.015602 0.199322 -0.016716 -0.011802 -0.074650
duration -0.110900 0.052801 -0.093966 0.058683 0.061857 -0.050752 0.166819 0.082182 -0.020658 0.059979 -0.031777 0.024302 0.139184 0.025419 0.059724 -0.019371 0.119663 -0.093041 0.019095 -0.081457
protect -0.260119 0.102399 0.119907 0.009651 0.003796 0.029014 -0.116637 -0.173338 -0.201099 -0.066579 0.168504 0.125441 -0.094932 -0.232879 -0.066663 -0.034985 0.040439 0.005688 0.007107 0.114846
switch -0.038716 -0.129230 0.097389 -0.022882 0.017372 -0.062200 0.095636 0.058007 -0.022449 -0.150618 -0.065012 0.010963 -0.000703 0.064342 0.034531 0.024505 -0.028279 -0.005090 -0.043747 0.038524
schedule -0.172167 0.089785 0.019562 0.167215 0.019828 0.124947 -0.106584 -0.130219 -0.151900 -0.040605 0.107756 -0.031578 -0.038229 -0.165086 -0.320542 -0.045270 -0.088694 0.021369 0.015831 0.077310
no -0.161056 -0.009956 0.091952 0.076148 0.074270 -0.020157 -0.165185 0.123090 -0.097521 0.189959 -0.147894 -0.059671 0.291499 0.043979 0.022675 -0.016026 0.063606 -0.055402 -0.032358 -0.039993
automatic -0.015216 -0.090842 0.049470 0.075679 0.086523 -0.002344 -0.007616 0.005016 -0.002033 0.010890 0.082184 -0.078243 0.023252 0.054992 0.047799 0.048779 0.017844 -0.032453 -0.038936 0.038217
frost -0.106277 0.293300 -0.095528 0.049893 0.026618 0.011188 -0.068448 -0.092739 -0.077256 -0.010388 -0.134198 0.011341 0.118307 0.090597 0.089597 -0.064732 0.132901 0.056601 0.069626 -0.153319
photovoltaic -0.032647 -0.048091 0.131798 0.128903 -0.089739 -0.075985 0.029584 0.041979 -0.049461 0.008891 -0.110256 0.079497 -0.031496 -0.095973 0.023375 0.028235 -0.016361 0.037660 -0.073860 0.106166
zenith -0.205814 0.121976 0.051866 0.014298 -0.065037 -0.172509 -0.055213 0.082678 0.050852 -0.020011 -0.136334 0.066662 0.088357 0.054974 0.110061 0.091526 0.145819 0.057630 0.024030 -0.122909
pv -0.040567 -0.128233 0.072352 0.144088 -0.106637 -0.070086 0.061906 0.112668 0.003244 0.006273 -0.119089 0.067023 -0.046483 -0.014142 0.046132 0.058062 0.022090 0.051715 -0.092809 0.047435
running -0.140266 0.183994 0.043036 -0.043108 -0.011640 -0.031904 -0.046417 -0.045841 -0.144066 -0.096661 0.003223 0.171437 0.089053 -0.167185 0.060916 -0.063977 0.122636 -0.050614 0.016496 0.100726
hour -0.243021 0.380799 0.009591 -0.060091 0.019680 -0.072425 -0.029585 -0.025234 -0.168899 -0.080627 0.013527 0.160514 0.150772 -0.116279 0.084088 -0.063222 0.143507 -0.072378 0.106606 0.012883
failure -0.118167 -0.173034 0.070265 0.184823 -0.038489 -0.015387 0.030895 0.082921 -0.056056 0.126086 0.036551 0.081575 0.094289 -0.075836 0.032031 0.031205 0.067564 -0.120240 -0.099967 0.092022
cold -0.091336 -0.015519 0.002449 0.154743 -0.052436 -0.078033 -0.033838 -0.012443 -0.033879 0.045813 -0.000409 -0.002741 -0.032143 0.000804 0.114756 0.031877 0.057018 0.035863 -0.075766 -0.011491
fresh -0.083196 0.208623 -0.100756 0.127895 0.187564 -0.074709 0.009575 -0.170826 0.025312 -0.085082 0.102086 -0.446516 0.127787 -0.010735 -0.014266 -0.075369 -0.098531 -0.131094 0.017953 -0.188847
detection 0.094169 -0.106499 -0.044577 -0.243451 0.119453 0.007170 0.211609 0.019859 -0.095028 -0.027739 -0.037039 0.214850 -0.015706 0.134755 0.029050 -0.096636 0.136617 -0.046231 -0.094650 0.056447
trace 0.095586 0.148463 -0.192360 -0.014528 0.064752 0.101189 0.161880 0.058915 0.137770 -0.088049 0.034757 0.042622 -0.036485 0.085764 -0.031381 -0.003384 0.024611 0.028743 0.216459 -0.030693
remotely -0.084459 0.144139 -0.007546 -0.011151 -0.016117 0.052362 -0.041220 0.030396 -0.014559 0.142235 -0.054760 0.104286 0.151269 -0.005501 0.070827 0.018420 0.124416 0.003130 0.062549 0.017497
room-lounge 0.028418 -0.077170 0.001406 0.032537 -0.034111 0.108473 -0.043846 -0.027946 0.034220 0.021872 -0.027109 0.014722 -0.080011 -0.049371 -0.025211 -0.011116 -0.008277 0.070687 -0.009493 0.095341
turn -0.039117 -0.098431 0.020769 0.005906 -0.023611 -0.049173 0.078222 0.119295 -0.050449 -0.025272 0.004231 0.016675 0.032976 -0.031907 0.019408 -0.008211 -0.046878 -0.102105 -0.030710 0.081278
local -0.000369 -0.002214 0.051990 0.008848 -0.015020 -0.044326 0.012999 0.018264 -0.029002 0.041376 -0.057520 0.048302 0.042419 0.003210 0.054806 0.023301 0.056885 -0.023761 -0.051187 0.022427
gas 0.028850 -0.034889 -0.004183 -0.008180 -0.006056 -0.006800 0.036927 0.044873 -0.003041 -0.027049 0.029804 -0.007645 -0.042853 0.026111 -0.022480 0.023398 -0.012599 -0.020940 -0.010951 -0.019331
laboratory -0.014427 -0.021198 -0.006755 -0.010763 0.019379 0.014013 -0.019547 0.017525 -0.019520 0.011010 0.003641 -0.020660 0.020266 0.018728 0.017193 -0.006522 -0.013852 0.024856 0.015867 -0.022894
motion -0.022167 0.030293 -0.032431 0.021282 -0.006489 -0.036782 -0.028400 -0.016851 0.011546 0.018976 -0.018378 -0.001385 0.056780 -0.027538 -0.003680 -0.012252 0.024230 -0.024119 0.033300 -0.045678
heater 0.039018 -0.045738 -0.014225 -0.029954 -0.006287 -0.019770 0.035741 0.057713 -0.039602 -0.004341 0.031064 0.025162 0.003142 0.052916 0.010165 0.011572 -0.033863 -0.002115 -0.038348 0.040275
terminal -0.026483 0.019463 0.056338 -0.013579 -0.076069 -0.040554 -0.035042 0.010569 0.032124 0.002489 -0.042002 0.086854 0.001266 -0.013057 0.025356 0.039696 0.014506 -0.005813 0.022906 -0.008906
dew 0.037395 -0.024192 -0.041229 -0.001035 0.028075 0.041565 0.025295 0.001119 0.011803 -0.011445 0.078495 -0.025295 -0.077836 0.019585 -0.055175 -0.002681 -0.038163 0.028080 0.030293 -0.013817
sash -0.144021 0.115138 -0.066097 0.024462 0.046708 -0.022831 -0.041744 -0.053503 -0.055476 0.008115 -0.043676 -0.004384 0.095002 -0.110109 0.086566 -0.054568 0.102371 0.031942 0.099569 -0.074355
response -0.048030 -0.129136 0.045486 0.051369 -0.005493 -0.009821 0.027126 0.010404 0.006709 0.044465 0.082852 -0.018034 -0.023451 0.041615 0.014809 0.087536 0.020220 -0.034786 -0.044649 0.028575
pir -0.070112 0.105143 -0.050394 -0.011919 0.030372 0.006720 0.004871 -0.018495 0.028228 0.018242 0.002098 -0.017905 0.089709 0.041856 0.038282 -0.005497 0.083502 -0.020077 0.042330 -0.073437
electrical -0.037869 -0.071490 -0.013618 -0.013858 0.010226 0.019535 0.052980 0.018222 -0.017806 0.057154 0.046797 0.112188 -0.018410 -0.029198 0.027782 -0.008696 0.087620 -0.005937 -0.013349 0.013881
equipment -0.004795 0.007008 0.021731 -0.003501 0.000308 -0.008397 0.003936 0.018171 -0.010818 0.016720 0.000974 -0.013696 -0.004028 -0.016650 0.020620 -0.022103 0.005200 -0.019802 -0.009326 -0.017853
city 0.023716 0.012584 -0.005951 -0.003299 0.010642 -0.020314 0.006890 -0.019282 -0.019908 0.008333 -0.016645 0.013236 0.012530 -0.009399 0.003543 0.007257 0.015573 -0.014927 0.008812 0.016145
location 0.001755 0.008827 0.014262 -0.011945 -0.011217 0.005261 0.008709 -0.024819 0.017785 -0.017754 0.000618 0.003109 -0.024640 -0.003557 0.001687 0.009535 0.020159 -0.021572 -0.010845 0.001397
even -0.010932 -0.118507 -0.006549 0.053465 0.015713 0.004391 0.136006 0.142818 0.056758 0.045723 -0.000823 0.014769 0.041613 0.040367 0.033113 0.029652 0.008525 -0.068153 -0.009785 0.033192
month 0.047579 -0.136193 -0.007050 0.073255 0.052422 -0.040601 0.179752 0.190532 0.041143 0.050184 -0.011430 0.004856 0.097522 0.029131 0.019580 0.032166 -0.000641 -0.115622 -0.055019 0.055635
roof -0.001525 0.002489 -0.023741 0.001563 -0.018352 -0.002054 -0.020886 0.019448 -0.006079 -0.003482 0.012103 -0.017211 0.003751 0.000552 -0.006585 0.009167 0.014724 -0.001616 0.006368 0.020627
elevator 0.009406 -0.024029 -0.002236 -0.014042 0.015361 0.007282 0.008313 0.002495 -0.012478 0.015785 0.019006 -0.003084 0.004316 0.006215 0.011380 0.004545 0.015330 0.016204 0.002828 0.019148
isolation -0.045413 0.001120 0.056729 0.034562 0.014777 0.004728 -0.008349 0.010103 -0.115202 0.003755 -0.029986 0.067071 -0.048551 -0.117304 -0.053911 -0.001777 0.024906 0.028953 -0.023637 0.110776
safety -0.060599 -0.048757 0.008775 -0.102276 -0.007892 -0.022465 -0.022690 0.008709 -0.175396 -0.049576 0.039199 0.090850 -0.031390 -0.069212 0.038232 -0.028830 0.097914 -0.017610 0.013296 0.025891
wing 0.014153 0.017708 -0.001047 0.021325 -0.023422 0.021914 -0.007569 0.015641 0.022416 0.019591 0.009901 0.008509 0.023679 -0.001745 -0.019799 -0.023793 0.019065 -0.023690 0.022541 0.003496
